60 100
_ 0.08969752 -0.020544745 -0.0054595666 -0.042341996 -0.0363159 0.02802376 -0.07759942 -0.08639404 0.04244143 0.045540333 0.007824501 0.08773302 -0.0029602274 -0.067987 0.083207004 0.077419735 -0.01355149 0.11955341 -0.053487897 -0.17363343 -0.029608041 0.087310076 -0.18274772 -0.059413634 0.012967267 -0.10344266 0.011058032 -0.04790794 -0.08569881 -0.088536516 0.030305715 0.07615369 -0.07478677 0.045758888 0.023310814 -0.07920413 0.07261696 0.12676704 0.058038406 0.06833083 -0.09940141 -0.106097296 0.012069979 0.06262609 0.032074254 -0.18257575 0.0018314116 -0.03800797 0.086258724 -0.008363941 -0.14111371 -0.006423265 -0.03921685 0.06737302 0.10560993 -0.007163464 0.009099509 -0.0093387095 -0.09028191 0.08789829 0.17125463 -0.09266272 0.1344865 0.09172995 -0.076515205 0.0094956 -0.067310095 -0.103503354 -0.0017554977 -0.036652524 -0.0045898943 -0.11361319 -0.05577679 -0.12780085 -0.021504777 0.11037484 0.048744228 0.030212048 -0.086780846 -0.069758385 0.10313982 -0.020879874 -0.1658141 0.07517866 -0.009946068 0.104814425 -0.08382827 0.14242831 -0.089389466 0.10992592 -0.12652524 -0.031171156 0.18548079 0.06971905 -0.09471337 0.017469363 -0.0049689473 0.07392902 -0.01384719 -0.08548853
e -0.07748154 0.080742374 -0.044148374 -0.045242112 -0.06894642 -0.016324714 -0.045690555 0.048009176 -0.02735141 0.012224809 -0.026749844 -0.0052064466 -0.12842758 -0.05158867 -0.07085279 0.08937965 -0.093093134 0.120656736 -0.00603907 -0.04325836 -0.0020174133 0.15194511 -0.12929298 0.0602237 -0.0068591987 -0.070130594 0.11013169 -0.08451925 -0.13637277 -0.109087534 0.008555505 0.031405654 -0.030392814 0.06964125 -0.022319874 -0.0038643028 0.032280974 0.07635554 -0.0061956877 0.09037373 -0.023426974 -0.027719816 -0.04267825 -0.023265788 0.031623323 -0.1084467 0.020699376 -0.0066771917 0.16630593 0.036411066 -0.117105134 0.06580528 -0.021987109 0.07063388 0.09575848 -0.060842372 -0.013309296 -0.081332654 -0.05681817 0.042040665 0.11330041 -0.07077709 0.15545698 0.044353347 -0.1473032 0.051495593 -0.09261594 0.007342965 -0.032069247 0.039490525 -0.015994167 -0.06465047 0.033738174 -0.1713663 -0.079618484 0.0636745 0.061278805 -0.057119057 -0.064495236 -0.096615896 0.105368465 -0.081728555 -0.12805696 0.17692302 -0.017623845 0.014687578 -0.121353514 0.16319217 -0.024981888 0.07964916 -0.16791925 0.056798205 0.17124219 0.040113688 -0.08909328 -0.04755403 0.16849141 0.0019624243 0.11293201 -0.037053157
t 0.08129167 0.0033977386 -0.14740708 -0.13836265 -0.19751582 -0.05511713 -0.11201019 -0.028671294 -0.06868558 0.07486988 -0.056380346 0.10354057 0.045848697 -0.11495529 0.019369163 0.00034553334 -0.09398274 0.03753462 -0.050534874 -0.13439994 0.059819963 0.13726734 -0.020958724 -0.03423838 -0.07172835 -0.119519226 0.102439925 -0.03449081 -0.08714968 -0.052519567 0.03002174 0.014294219 0.010140202 0.030586774 -0.032009806 0.016287278 0.024745032 0.12969023 0.0026362387 0.068012305 -0.008449449 -0.03172911 -0.06530191 0.05351918 0.009103353 -0.022110192 0.012746285 -0.017714823 0.119589485 0.0053873244 -0.1449786 0.0010255835 0.047871187 0.039385706 0.10093324 0.05330292 -0.039510902 -0.073136985 -0.10076022 0.018429166 0.19078593 -0.067052014 0.050611977 0.010810024 -0.08888519 0.019799901 -0.057280704 -0.033015992 -0.041684445 -0.03141877 -0.100974485 -0.10461647 0.05039871 -0.030667786 -0.15785436 0.21266092 0.0121109625 -0.09467872 -0.09774345 -0.08134426 0.09701607 -0.047006458 -0.09978719 0.052877817 0.00794102 -0.013405523 -0.105891585 0.11759144 0.023052655 -0.016331507 -0.20746024 0.1534582 0.014154635 0.114960104 -0.03283534 -0.014408604 -0.033978898 0.07270564 0.17081967 -0.14595047
a 0.009395392 0.039761156 -0.13295572 -0.07842533 -0.033746835 -0.05273743 -0.014680121 -0.06246264 -0.0978606 0.0033651227 -0.06365109 -0.0142005645 0.011280299 0.028785834 -0.011424777 0.118922375 -0.16484839 0.06831932 -0.047258914 0.0862559 -0.025166783 0.16005833 -0.17149961 0.02058612 -0.017946655 -0.092813335 0.05710191 -0.09517233 -0.020548003 -0.041310858 0.026350714 0.01914764 0.006062737 0.06985849 -0.052002054 0.03930599 0.020684017 0.063791126 -0.022513192 0.058666494 0.07670716 -0.014256359 -0.05477538 -0.017044427 0.010886318 -0.08468111 -0.02344379 -0.06907555 0.1536852 0.0064058104 -0.103874765 0.038478717 -0.017090147 0.07524708 0.007193721 0.0006497972 0.007676655 -0.08764453 -0.12503307 0.00670332 0.14880061 -0.055103917 0.12433033 0.03631398 -0.13778263 0.044948287 -0.12255557 -0.037527174 0.09403635 -0.029854758 0.010893809 -0.106394455 -0.051714405 -0.17539275 0.012357078 0.08839745 0.090399735 -0.008933338 -0.054606102 -0.061410267 0.092546076 -0.0647376 -0.10946471 0.1221695 -0.08919988 0.03616995 -0.119768314 0.16389363 -0.06158592 0.10762516 -0.13057055 0.045029838 0.09724698 0.035072494 -0.13697636 -0.058473784 -0.00876684 0.10397567 0.11421207 0.036423855
o -0.0064804065 -0.008629798 -0.13810514 -0.17344688 -0.121817626 -0.055729743 -0.08556432 0.00083862164 -0.10197164 -0.004901171 -0.050576564 -0.0033505452 -0.04144024 0.03576813 -0.036773834 0.065991975 -0.047275 0.02435493 -0.085980475 0.0015713884 -0.11734496 0.14235367 -0.14350094 0.025708463 0.030923346 -0.05059907 0.042162847 -0.044903945 -0.05317048 0.00031526215 0.07185964 -0.06245743 0.011029186 0.019213686 -0.028028877 0.04321286 0.023080388 0.05329989 0.0059567126 0.03425202 -0.0072501474 0.008416031 0.09449352 0.00023027112 -0.033321634 -0.105938844 0.03537937 -0.036422014 0.11312389 -0.056862067 -0.1031634 0.066443756 -0.006170276 0.06094747 0.00030966112 -0.04713643 -0.039036352 -0.04801203 -0.09019252 -0.023897484 0.20752086 -0.018358685 0.12530498 0.09490249 -0.15060921 0.0039601256 -0.1501177 -0.059311073 0.08863182 -0.04941599 0.008411835 -0.11534106 -0.07833796 -0.08345111 -0.01033291 0.2122684 -0.008310297 -0.037222072 -0.13900703 -0.13132715 0.11153973 -0.06871659 -0.19876054 0.027292293 -0.054397777 0.15683195 -0.12635954 0.117837414 -0.061593216 0.115394756 -0.20911446 0.056253444 0.069427736 0.059717692 -0.08270485 -0.022409467 0.06524381 0.047023427 0.038345262 -0.012367535
n 0.16983664 -0.12655729 -0.15757006 -0.15315151 -0.020537043 0.043201998 -0.12927242 -0.018755049 -0.033581033 0.108600885 -0.025238337 0.029577995 -0.03286355 -0.1139372 0.103633165 0.13563225 -0.1366705 0.097895384 -0.050187845 -0.032116104 0.048622563 0.081230596 -0.1084255 -0.058854915 -0.07383657 -0.049142122 0.051088214 -0.019877696 -0.004861089 -0.15054487 0.027436536 0.039131407 -0.039814286 0.07040032 -0.010386947 -0.09559335 0.117731236 0.09243352 -0.04553782 0.04016317 0.039571933 0.019797644 -0.09724324 0.067946166 0.08882194 -0.088794105 -0.040856436 0.0435117 0.11153896 0.026949845 -0.06929692 0.028419325 0.088295475 0.014395116 0.06962669 0.05088247 0.00482969 -0.03861177 -0.05475574 0.017855313 0.10510535 0.007318315 0.09425277 0.026225919 -0.20140032 0.056677468 -0.10818745 -0.029354047 0.074140556 0.07397126 0.0071779224 -0.051014066 -0.010531351 -0.057527777 -0.12055177 0.116760895 0.14821874 -0.10469644 -0.08817486 -0.0002317529 0.16761221 -0.013292338 -0.09403148 0.056054957 0.026734767 0.039558493 -0.20058109 0.099561445 -0.024738258 0.078345746 -0.06396756 -0.0027133967 0.07563571 0.07683832 -0.09958546 0.023410434 0.056777522 0.09421069 0.1288856 -0.12665863
i -0.057169147 -0.037200384 -0.0359257 -0.08868635 -0.13040863 -0.12682681 -0.054610804 0.03958971 -0.051742926 -0.0065832995 0.02645741 0.011283225 -0.008185689 0.016706694 -0.022684602 -0.025473014 -0.14904355 0.03117652 -0.0014535993 -0.059637673 -0.0078103826 0.15014678 -0.1144935 0.035988778 0.00048725578 -0.08936205 0.1051092 -0.08167472 0.029491708 -0.08957264 0.048925254 0.12567277 0.06340308 0.0033400557 0.034221783 -0.08054261 0.007770384 0.022016734 0.0069019105 0.023236858 -0.046647385 -0.08332243 -0.011332109 0.05922018 0.046802305 -0.059498664 -0.078524835 -0.027771657 0.1724584 -0.01527515 -0.1159925 0.016109444 -0.008355275 0.07105908 -0.036006007 0.055303283 0.045445155 -0.12017092 -0.093222365 0.062150344 0.18056837 -0.12085015 0.13658436 0.042308066 -0.14898221 0.1146516 -0.12695807 -0.015513686 0.0061719595 0.04461315 -0.00460516 -0.06916741 -0.08158482 -0.10278012 -0.032528564 0.0773139 0.023368474 -0.012914902 -0.058891248 -0.08862071 0.14230245 -0.090938196 -0.1645239 0.121693626 -0.083732225 0.03612365 -0.12470641 0.15043528 0.02099811 0.05052176 -0.14312185 0.07161513 0.14604132 0.07095435 -0.10797818 -0.07171631 0.008129681 0.11766399 0.16616122 0.001321795
s 0.07364923 0.014867808 -0.15682295 -0.061658885 -0.070909075 0.049054265 -0.02994273 -0.018832296 -0.039312705 0.0027360984 -0.054650925 0.07373964 0.01515829 -0.14106227 0.017724885 0.08083246 -0.12348816 0.0115552 -0.10243879 -0.052645903 0.0018976511 0.13771746 -0.1140358 -0.00015509187 -0.038539372 -0.07555887 0.01599707 -0.033827536 -0.077198654 -0.025570637 0.104144804 -0.0061101564 0.037731282 -0.019100273 -0.0066300347 -0.02370387 0.08443701 0.075189464 -0.07434049 0.052634954 -0.046944663 0.014645256 -0.026009409 0.07015976 0.04023705 -0.14790274 0.029935652 -0.045241836 0.13826782 0.04152049 -0.10761962 0.014172671 0.032792352 0.016744722 0.035222623 0.031902306 0.033779837 -0.0018212115 -0.10996133 -0.0071993736 0.1897951 -0.037086364 0.10425279 0.067443654 -0.17821439 -0.034731086 -0.11678939 0.00072284567 0.018043501 -0.04020165 0.0038638427 -0.09927555 0.083876565 -0.0524078 -0.09807034 0.1541474 0.09019773 -0.025014106 -0.1195042 -0.08925015 0.05870047 -0.11868054 -0.12935264 0.09041827 0.0052397274 0.010449122 -0.11627589 0.1953036 -0.11796533 0.045464516 -0.10286998 0.06291989 0.062321153 0.082893774 -0.060635433 0.018341547 0.052229818 -0.018462637 0.09337149 -0.07032575
h 0.11380589 0.052392405 -0.07261348 -0.15319782 -0.11128848 -0.059786588 -0.16266948 -0.021358445 -0.0059032543 0.03387653 -0.049490366 -0.02665029 -0.05789899 -0.06500297 0.0796718 0.058391955 -0.07126614 0.09513425 -0.03923793 -0.077171415 0.0029669756 0.14077592 -0.2647294 0.010453505 -0.05007224 -0.032547373 -0.105614185 0.057377722 0.018712971 -0.104568854 0.046273984 0.1219333 -0.051870212 -0.013428205 -0.049042717 0.017956188 0.10901442 0.030703524 -0.14863187 0.09229732 0.02430888 0.040667016 0.04581748 -0.0039705858 0.04472499 -0.15572745 0.02239645 -0.001872363 0.13712525 0.008033872 -0.021031693 0.016745225 0.114468835 0.026194919 -0.012145709 0.06752353 0.05378594 -0.013343861 -0.053681374 0.05126741 0.14895676 -0.09512506 0.18201786 0.018128414 -0.20753615 -0.04670839 -0.24095333 -0.020416211 0.11895469 -0.030586675 -0.01028856 -0.14930825 0.015541839 0.011198632 -0.08616317 0.14105392 0.07446515 -0.08204721 -0.17200562 -0.028950388 0.10704845 0.008057091 -0.13174315 0.06626561 -0.012030346 0.004904677 -0.09938061 0.116793245 -0.011194785 0.0396297 -0.13101213 0.03996396 0.046819516 -0.09020266 -0.100686334 -0.0026819834 0.038400296 0.120735504 0.117571674 0.024313545
r 0.068369366 0.003834204 0.03343117 0.073417716 -0.020123275 -0.052031633 -0.1687579 0.00024734653 -0.12768586 -0.0123340245 -0.009720254 0.046453238 -0.10601357 -0.029383529 0.08037637 0.13956751 -0.11718274 0.11373656 -0.08795908 0.0013008039 -0.09531724 0.04755475 -0.031316593 -0.028433098 -0.010808065 -0.06642368 0.018440982 -0.0034153934 -0.034551084 -0.083813414 0.09485579 0.036352627 -0.042715352 0.02522237 0.036623124 -0.016785411 0.16897316 0.08265782 -0.0166528 0.041599322 -0.028963236 -0.048033774 -0.044625215 0.08842902 0.06378489 -0.07228743 -0.019163279 0.029764209 0.11146592 -0.030201504 -0.11853677 0.0014884195 0.059793055 0.026406737 0.089908734 0.005305104 -0.024407065 -0.008041645 -0.027136285 -0.0019993715 0.19242525 -0.013630654 0.07869274 0.051542085 -0.14918198 0.06614712 -0.11982215 -0.049163386 0.032160904 -0.018110434 -0.023804052 -0.08814153 -0.034489505 -0.016033785 -0.10884888 0.22421029 0.06323273 -0.06035663 -0.099385306 -0.08583612 0.1769678 0.014559886 -0.11944388 0.06332914 0.062048707 0.033264957 -0.13707161 0.12611723 -0.12305583 0.033763494 -0.1821424 -0.02626131 0.078955576 0.0760491 -0.17351072 -0.0067667677 0.033512548 0.088450015 0.1126296 -0.17418112
d -0.04529849 0.034263317 -0.05472366 0.031024607 -0.11277802 -0.063064635 -0.07348288 -0.039848022 -0.16680183 -0.010344689 -0.06880864 0.07599547 0.09471258 0.034223713 0.071838155 0.11981084 -0.108629264 0.1499063 -0.13925336 -0.22528785 0.057857595 0.1744258 -0.10758967 -0.016244661 0.036016263 -0.18923575 0.05406344 0.040836837 -0.062324926 -0.05496507 0.13386363 0.077413805 0.01581738 0.004114316 -0.0028927603 -0.033553876 0.077890545 0.171387 -0.022375645 0.07248682 -0.10494102 0.041420627 0.002794093 -0.0028295275 0.06462045 -0.04872936 0.0037518176 -0.019089052 0.15796067 0.07243542 -0.086245894 -0.036368836 0.018464383 0.01273309 0.07492758 0.07746662 0.0122292265 0.009039194 -0.09896695 0.032582358 0.15687166 -0.042212017 0.09976213 0.027360277 -0.134755 -0.016887184 -0.096584275 -0.056032382 0.0027506968 0.020111434 -0.022467647 -0.13554044 0.029196454 0.02665081 -0.08015256 0.050025333 -0.015400934 -0.03950045 -0.13622037 -0.02395991 0.09945524 -0.0068344097 -0.15875356 0.116512954 0.008447567 0.05186976 -0.04859454 0.1522564 -0.017051484 0.0026475012 -0.17709614 0.08217862 0.047518842 0.06271662 -0.031153481 -0.03716717 -0.06248685 0.0075284326 0.061787304 0.03381936
l 0.17682004 -0.031860404 -0.027218474 -0.026535233 -0.018563868 0.072991215 -0.032713406 -0.1414696 -0.1182787 0.089464314 -0.13184482 0.06511832 0.0941581 0.061354984 0.045690157 0.07011521 -0.20873812 0.14066191 -0.053559355 -0.11311686 0.017405888 0.117015876 0.000780856 -0.036762744 0.09115723 -0.11809092 0.06558889 0.065512255 -0.05341602 -0.057386294 0.025305543 0.103056185 -0.0032040935 0.053993743 -0.022206 -0.018568961 0.10306745 0.09487458 -0.019628508 0.05543538 0.0034450742 -0.02942009 -0.07524635 0.09177299 0.107393175 0.001009756 -0.00025925212 -0.00084825046 0.11604412 -0.06454901 -0.115958266 0.04566036 0.03793745 0.040246613 0.084017865 -0.02283396 -0.032456193 -0.023699421 -0.030273367 0.04086375 0.20629756 -0.099907346 0.09623021 0.10314199 -0.17426173 -0.02315369 -0.15999663 -0.054755468 0.0770397 0.12508649 -0.03868018 -0.15744418 -0.012283296 -0.09196871 -0.06987842 0.11180037 0.11518455 -0.030924268 -0.050341647 -0.091474 0.09760341 -0.042219806 -0.16397464 0.06893631 0.009814061 0.022675091 -0.11618262 0.06580672 0.0153263435 0.08349028 -0.03321872 0.019546311 0.056481503 0.032653593 -0.032536358 -0.0146366395 0.028388811 0.08082522 0.20582722 -0.009148315
u -0.05304463 -0.14207682 -0.117231786 -0.03848531 -0.069310986 0.04929397 -0.07317692 -0.042243823 -0.027566366 -0.00828247 -0.07020706 -0.05273148 -0.09143317 0.0033538286 -0.111489445 -0.09371795 -0.11266812 0.056072373 0.11973183 -0.10469478 0.027040934 0.07850346 -0.16357337 0.039971612 0.095843144 -0.10503778 -0.04030304 0.113874264 -0.10514025 -0.0067489976 -0.049209464 0.09612625 0.09210878 -0.060772333 -0.03465302 -0.11657145 -0.001786517 -0.013073896 0.0500682 -0.059611 -0.10482334 -0.041863713 -0.15462483 0.093566686 -0.048621964 -0.13741107 -0.029172266 0.081142955 0.15347534 -0.0089007635 -0.21692804 0.0016696684 0.046514016 0.0948555 0.103098154 0.0063832183 -0.085927844 -0.21187648 -0.17992775 0.067815766 0.26717278 -0.037156623 0.0005342148 -0.039232317 -0.19192116 -0.036196433 -0.086083665 -0.015428386 0.098760836 0.07022633 0.047436032 -0.06826332 -0.11044135 -0.26590344 -0.041391782 0.14545602 0.06705552 -0.058667663 -0.026198396 -0.13266397 0.13941064 -0.10945143 -0.058863696 0.038731974 -0.12214914 0.018452493 -0.0709821 0.053433474 -0.113294706 0.058362935 -0.08215551 0.060368687 0.09661561 0.023963565 -0.09691196 0.022250127 0.021888144 0.025710993 0.06760669 -0.017121425
m -0.055050902 -0.06035461 -0.17166226 -0.11216773 0.04868985 0.020407522 -0.098660424 -0.042312562 -0.15455395 -0.038326986 -0.05724953 -0.114389285 -0.03394656 0.009402095 0.04089034 0.13964926 -0.040039405 0.066294275 -0.041390777 -0.13060904 0.06332206 0.060177844 -0.07048555 -0.025070881 -0.01929325 -0.11679268 -0.02212201 0.039928734 -0.014853033 -0.06728256 0.09975323 -0.00031396298 -0.06743511 0.031603146 0.020620199 0.034506768 0.12208023 0.16472171 0.0068907747 0.059657115 0.079867005 -0.00054034125 -0.030600473 0.033728413 0.014305589 -0.077988416 0.03344396 -0.04101287 0.12218787 -0.012340663 -0.17727998 -0.017279394 0.008973096 0.12075541 0.15574598 -0.009464945 -0.053942546 -0.042082377 -0.08721017 0.012496653 0.24497971 -0.015580485 0.09026155 0.085734226 -0.19185385 0.042619865 -0.091508 -0.0726944 0.068529055 0.011357145 -0.02518512 -0.14548516 -0.0030625414 -0.022257831 -0.09656228 0.14219885 0.0004415754 -0.06195206 -0.117485836 -0.00041956335 0.029555041 0.067290865 -0.11753932 0.04150076 -0.03652452 0.07579944 -0.10901584 0.07223368 -0.025255347 0.027044276 -0.17487794 0.05263598 0.004268722 0.0390121 -0.09227497 0.022871492 -0.039358813 0.05274444 0.032505047 -0.040846247
c 0.037533153 -0.017719157 -0.09612147 -0.011271256 -0.01304525 -0.0445686 -0.015594524 -0.051318042 -0.013754698 -0.026064167 0.033689793 0.058549777 0.05070516 -0.10302341 0.082883805 0.05378909 -0.03053456 0.039255973 -0.10556733 -0.11495344 -0.003389704 0.09242852 -0.06975094 -0.035385296 0.03549863 -0.1023109 0.016184473 -0.015630092 -0.03925538 0.00570052 0.0037298638 0.018856075 0.036479272 0.10074458 -0.05044398 0.057880845 0.005715257 0.16055316 0.058030266 0.07758053 -0.08080985 0.0335613 -0.07108437 0.029461108 0.06000564 -0.060309544 0.011828905 0.024126943 0.11952439 0.05553065 -0.16780172 -0.03112766 -0.013354214 0.044535566 0.12775064 0.025259422 0.0016201877 0.007096199 -0.038610667 0.054233864 0.17531048 -0.011999969 0.13021228 -3.9993347e-07 -0.101581074 0.00026297395 -0.04402148 0.01447265 -0.0139272055 -0.017948346 -0.015492169 -0.102041796 0.027770754 -0.09010171 -0.07602698 0.14586596 0.07133609 -0.055230808 -0.12807152 -0.120654084 0.13176328 -0.095263034 -0.13985564 0.12727702 0.029072588 0.06903669 -0.10695275 0.14293472 -0.10487897 0.05224924 -0.22470424 0.12338114 0.09518006 0.13059342 -0.06764559 0.040119182 -0.00046601304 -0.009559758 0.14391156 -0.1064194
f 0.108490944 -0.10363329 -0.2608539 -0.117101476 -0.037330702 -0.09451222 -0.09805349 0.031137194 -0.048118614 -0.09406617 -0.02622686 -0.066621184 -0.053093597 -0.08778859 0.00048798768 0.06802855 -0.1388261 0.03834578 0.054805063 -0.027531775 0.061602917 0.1343553 -0.19855624 -0.07444244 -0.004637447 -0.07808815 -0.05385717 0.050467953 -0.038964413 -0.08678377 0.048114646 0.022429388 -0.10752546 0.035280377 -0.025885811 0.014638541 0.10236537 0.18534824 0.0018740689 0.09160251 -0.019692814 -0.014366763 -0.010440342 0.033613916 -0.08161604 -0.08675838 0.04139695 -0.010033606 0.036121722 0.00239038 -0.14372112 -0.030328548 0.032965 0.08030624 0.15107715 0.075132795 -0.06186552 -0.03900787 -0.024933826 0.05274834 0.0858457 -0.004864808 0.02311066 0.011287485 -0.13630375 -0.007197294 -0.024985371 -0.027049327 0.010443303 -0.00096271647 -0.056640398 -0.10426001 0.05405007 -0.09209786 -0.17720465 0.18714121 -0.026364429 -0.10917431 -0.08256046 0.02597729 0.09995441 -0.045717847 -0.08138232 0.071751654 -0.02462021 0.028090157 -0.16890486 0.16266716 0.015472181 -0.02159768 -0.13652922 0.1468435 0.05664371 0.08939682 -0.07659897 0.05262077 0.0382207 0.028800007 0.12635265 -0.09400393
w 0.031928852 0.116950326 0.004069997 -0.07242248 -0.037899416 -0.1055822 -0.06294556 0.0015860152 -0.002738453 0.03984357 -0.016060775 -0.024793858 0.11665033 -0.084093936 0.010368685 0.0055093584 -0.021768408 0.038077902 -0.058352645 -0.08409211 0.105299905 0.039341755 -0.15894528 0.0054729977 -0.0667802 -0.10548338 -0.04993178 -0.003602209 0.04072956 -0.019726818 -0.062067594 0.054056272 -0.018018682 0.08454466 -0.09579928 0.14735563 0.024516849 0.15567958 -0.022219395 0.10280854 0.013645292 0.08178543 -0.124292 -0.07372762 0.010348715 -0.08534143 0.10446169 -0.033615943 0.12647375 0.09056873 -0.12893866 -0.010517308 -0.015338672 0.07553102 0.17170459 0.038320877 -0.074412435 -0.08519946 -0.12990278 0.056489117 0.17341493 -0.02875943 0.14137049 -0.050180044 -0.12389919 0.047941264 0.018084845 0.045620777 -0.0063003683 0.035635605 -0.037211597 -0.1507961 0.007304688 -0.14424331 -0.08637128 0.1476018 0.09239246 -0.08309142 -0.10019365 -0.0035608935 0.13338771 0.008758701 -0.112391524 0.17590031 -0.08356364 0.012051483 -0.110664114 0.11619759 -0.0333356 0.103565134 -0.20847218 0.082491346 0.14985819 -0.022069328 -0.13018368 -0.044873644 -0.17106576 0.16279364 0.19826673 -0.10510623
y -0.03610335 0.019704826 -0.19980846 0.01706342 -0.082649775 -0.14214629 -0.034348264 -0.0005384336 -0.112298496 0.00038954534 -0.0409938 0.03985331 -0.014797411 -0.10538327 -0.042329594 0.11510271 -0.06708381 0.043535117 -0.11445368 -0.030175239 -0.043031175 0.13092363 -0.15420422 -0.029753404 0.14153138 -0.09152575 -0.013484051 0.078232884 -0.10463791 -0.046785247 0.081545785 0.0755879 0.038944636 -0.055679496 -0.012789049 -0.08055724 0.12436263 0.1264624 -0.04002573 0.16317098 -0.25117347 -0.012979905 0.0081208665 0.10198009 0.027570536 -0.18674202 0.06328549 0.009502942 0.07166041 0.03209818 -0.03133984 0.027308555 -0.022973746 -0.020413596 -0.0436386 0.02515576 -0.050979864 -0.04966076 -0.13539694 0.06849338 0.18507673 0.022386974 0.21002737 0.10046412 -0.2079167 0.007344294 -0.1013073 -0.019064503 0.025575927 -0.00826368 0.06374115 -0.020478297 0.06182006 -0.0855921 -0.05896692 0.12192842 0.04585354 -0.013317624 0.0044942475 -0.0482675 0.15447654 -0.1660998 -0.05797526 0.04374273 -0.0069500213 0.01905483 -0.100111425 0.12984858 -0.03871604 0.0025100177 -0.039762493 0.047119044 0.13687009 0.19756992 -0.0454966 -0.0507879 0.098872475 0.0077496343 0.17145158 -0.037624687
g -0.0881168 -0.044573728 -0.052863643 0.007316157 0.0029815657 -0.13083686 0.074356355 -0.066753626 -0.03757081 0.054006428 0.04895295 0.03179636 0.15176745 -0.025346417 0.0013225343 0.08031038 -0.03990264 0.05134394 -0.1317028 -0.052733626 0.11573143 0.17754543 -0.13785839 -0.10865415 -0.047200583 -0.19096267 0.006097322 0.010291087 0.057783563 -0.08112454 0.03544839 0.0766462 -0.034044582 0.1014024 -0.08549917 0.036212765 0.03433909 0.0168519 -0.03927657 0.042485576 -0.038550906 -0.013011825 -0.046833996 -0.005704996 0.06704922 -0.09161051 -0.037730493 -0.113970175 0.074443534 0.0198029 -0.15394111 -0.07387593 -0.083192416 0.022136824 0.08804551 0.1283418 -0.029590867 -0.023388736 -0.14740482 0.031154087 0.15713322 -0.007833876 0.15696608 0.024710668 -0.14381078 0.0037428248 -0.12217621 -0.093274586 0.043813817 0.012665967 -0.060702648 -0.15907985 0.0011148605 -0.08509109 -0.10832639 0.045658026 -0.0060848217 -0.11016782 -0.19541939 0.052689325 0.12036339 -0.012371307 -0.12802756 0.08689835 -0.02132551 0.1608745 -0.14323959 0.102435715 0.047170475 0.13316807 -0.22220726 0.13971442 0.021389348 0.14379834 -0.029987821 0.016679397 0.013097013 0.020412233 0.09183789 -0.097789556
p 0.042789746 -0.1467413 -0.18964195 0.034270305 0.041592646 0.09337381 -0.12973604 -0.018510193 -0.06887318 -0.16904102 0.00948992 -0.10679777 -0.01669976 -0.07034491 0.10727347 0.19188029 -0.078807004 0.029304512 0.02644101 -0.120525375 0.08338127 0.050497092 -0.12885232 0.019029377 0.021813571 -0.11284364 -0.010337744 -0.035028767 -0.029584454 -0.043915275 0.06744223 0.030368697 0.026054237 0.09807126 0.079041675 0.038495556 0.07892339 0.24466692 0.02957729 0.07018901 -0.035022575 0.11232686 0.0078403605 -0.0047530644 0.06508183 -0.04870102 0.0101351 -0.0373338 0.20456547 0.09324888 -0.1674843 -0.028126622 -0.013600465 0.12110536 0.17435677 0.014928304 0.0636351 0.08397629 0.06388402 0.080528 0.122318394 -0.013055839 0.11054296 0.066741 -0.11633908 0.078732856 -0.008920569 0.0456248 -0.035553522 0.06246269 -0.006481034 -0.105717525 0.07185833 -0.04600698 -0.114242435 0.14251557 0.06370437 -0.043568235 -0.15254118 -0.06386626 -0.02498529 0.015730716 -0.1835729 0.23175143 -0.0052200207 0.042496808 -0.12849627 0.207458 -0.05352919 0.00082146906 -0.17539455 0.118303694 0.078643054 0.053396624 -0.09234172 0.0025149828 -0.019780278 -0.049811747 0.06252268 0.038135935
<s> 0.07621812 0.086260654 -0.13776563 -0.27485603 -0.32463378 -0.1058256 -0.23561816 -0.011025944 -0.028580774 0.07669127 -0.08760317 0.17643829 -0.23252034 -0.28764054 -0.21551196 0.23542288 0.31454217 0.12026425 -0.06632041 -0.25281572 -0.09855144 0.07509712 -0.34483513 -0.38174337 0.03176178 0.04333485 -0.44739154 0.17748207 0.03482654 0.08204418 0.021191949 0.19572681 0.011634292 0.07919194 -0.18917753 0.2580371 0.14551266 -0.18243818 -0.11013165 0.028281135 0.16070653 -0.0012880756 0.0030208249 0.20555437 0.16613321 -0.10176831 -0.033457123 -0.20601404 0.20132147 -0.15351342 -0.29123 0.0064741205 -0.10811279 -0.0013095174 0.065080985 -0.12879345 -0.013840387 -0.13382286 0.08989498 0.14985542 0.33251715 -0.21955107 0.39660448 0.12938707 0.05337009 0.07315413 -0.09821961 0.06908294 -0.2595378 -0.24438815 -0.15105532 -0.095090404 0.12742278 -0.19511636 -0.05424024 0.19079676 0.25987336 0.044166964 -0.08222927 -0.25441948 -0.12944312 0.029025573 -0.02360036 0.3085583 -0.081901215 -0.19762887 0.080980614 0.22970758 -0.11540324 -0.07345317 -0.23385417 0.08183451 0.31725195 -0.10971501 -0.006533273 -0.05111067 -0.2822645 0.48786753 0.26032367 0.2883312
</s> -0.026750697 -0.0981174 -0.15639508 0.29476225 0.24459438 0.023317963 0.20441014 0.008387563 -0.23690298 -0.1841125 0.0066382256 -0.40286914 -0.116399996 0.13426425 0.09666078 -0.12249522 -0.08330467 0.13895866 -0.287863 -0.17379698 -0.11672128 0.31601787 -0.0030516395 0.046998553 -0.018756129 -0.014876286 0.041231453 0.044998057 -0.450297 -0.09031788 0.018875845 -0.2775241 -0.22609249 -0.0046595624 -0.12909195 0.164655 0.23600946 0.43349943 0.16825522 0.30458286 0.2530134 -0.37373912 -0.4676587 0.2788796 0.12319243 -0.14757854 -0.27144682 0.0020858576 0.43248582 -0.023509711 -0.0059863394 -0.41700146 0.19764262 0.051155798 -0.16692032 0.3954493 0.3523409 -0.11451028 -0.12509798 0.11774876 0.13169166 -0.19641681 0.3397161 -0.15168984 -0.19207959 0.41876954 -0.31694722 0.14620374 -7.275339e-05 0.004660593 -0.081426114 -0.01818519 -0.022624936 -0.22146323 -0.16878927 0.32089365 0.012895625 0.026159726 -0.10038216 -0.3840657 -0.19812387 -0.0994177 -0.17991023 -0.18496999 -0.01569081 0.23133129 -0.11876429 0.011709548 0.17597246 0.19268115 -0.21480384 0.21431215 0.0013419711 0.140309 0.25276753 0.09579324 0.39381126 -0.20451245 -0.25868738 -0.2415604
, 0.3710601 -0.16712977 -0.31341657 -0.067635134 -0.0026759347 -0.017123474 -0.057928234 -0.014744826 -0.054373246 0.14227042 -0.1581167 0.14077061 -0.016200952 0.03546201 -0.14298494 0.18048954 0.07505997 0.20476627 -0.12238552 -0.10291964 -0.02282328 0.013932957 -0.18136252 -0.04888071 0.10128916 -0.069162555 -0.13833694 0.034667816 -0.09766933 0.0009931908 0.009776355 0.17376414 0.003026706 -0.018692764 -0.049582284 0.08786505 0.1016875 -0.015226022 -0.01281117 -0.04864446 -0.07470402 -0.011386779 -0.014448013 0.032421976 0.12868221 -0.026883217 -0.0907744 0.023359966 0.20507744 -0.011235697 -0.10702867 -0.072807975 -0.054462105 -0.07989464 0.040188193 0.0074459417 -0.07219558 -0.086152904 -0.054903403 0.092338406 0.19431844 -0.092011236 0.23233527 -0.017950386 -0.04014572 0.045013256 -0.09553961 -0.09343559 -0.049457844 -0.027155066 -0.087577164 -0.17291375 -0.10398265 -0.10524337 -0.028799282 -0.019329559 -0.07331625 0.03383403 -0.047261015 -0.063540734 0.24404182 0.039275873 -0.15524611 0.19411305 -0.041284356 -0.000711404 0.043440297 0.2132048 -0.000969879 -0.045983613 -0.25824088 0.073157065 0.17373805 0.08361908 -0.0056667 -0.19606997 -0.108865924 0.03111205 0.05382835 0.13083273
b 0.15164346 0.010419761 -0.052759174 -0.19491968 0.032225244 -0.13167875 -0.08441406 -0.008937885 -0.15924872 0.03440187 -0.06875747 -0.028381681 0.004637645 0.05949427 0.005567211 0.074964106 -0.13228144 0.020701535 -0.035102636 0.015735323 0.06807237 0.16460338 -0.011980371 -0.14209665 0.095359005 -0.116846636 -0.021994267 0.15178777 -0.02070458 -0.117880486 0.06621557 0.07921483 -0.07309256 0.038056422 -0.051280055 0.022108827 0.10333319 0.1900931 -0.026041457 0.029899824 -0.10244112 0.027719522 0.04787049 -0.053887416 0.021141678 -0.07485085 0.02091707 0.0691669 0.16981557 0.047796525 -0.089830294 0.030536609 0.12278563 0.023399485 0.076123595 0.108387485 -0.058866236 -0.025688887 -0.15012337 0.0127670355 0.18837771 0.01696065 0.09081877 0.035659388 -0.15679803 -0.0035414852 -0.0007990432 0.05461054 0.013325261 0.06654063 -0.009030651 -0.0781156 -0.031917904 -0.06816222 -0.026640693 0.04306373 0.06622564 -0.0550927 -0.062420756 -0.019223519 0.15075766 -0.06017339 -0.08909553 0.1276988 0.028376162 0.036966242 -0.14835063 0.123376414 -0.032198984 0.13549548 -0.101104744 0.035991456 0.11729316 -0.009359304 -0.013962303 0.066380635 -0.019483427 0.08522922 0.18056554 -0.12090989
v 0.020087305 0.07955958 -0.026787696 -0.16907611 -0.062542416 -0.020223906 -0.11513478 -0.19114782 -0.15053599 -0.07404243 -0.12638418 -0.074717894 0.00343409 -0.045562208 0.11753635 0.13781732 -0.1741814 0.17438571 -0.02339946 -0.08607788 0.03950793 0.17993023 -0.16970722 -0.060782578 0.02486774 -0.21487308 0.026836826 0.06033139 -0.022555143 -0.016870536 -0.018732512 0.09653743 0.010911836 0.15241268 -0.038854934 -0.024241375 -0.023246141 0.19744366 0.07159128 0.12137374 0.012391367 0.003971198 -0.124335065 0.13749824 0.027900731 -0.1426409 -0.044800587 0.03315063 0.14185846 0.053880498 -0.19895795 -0.083306365 0.0940329 0.034184653 0.15917756 0.1568359 -0.027771626 -0.08072124 -0.10601989 0.08192334 0.22384177 -0.018510366 0.100708395 -0.025721632 -0.1268109 0.0111225145 -0.04225374 -0.15131313 0.033277284 -0.106762044 -0.009526449 -0.07651098 0.08586782 -0.051554076 -0.11315702 0.15480718 0.049037755 -0.06022234 0.0074893166 0.088703535 0.047270063 0.049305506 0.09068148 0.032698236 0.016715772 -0.029297158 -0.04947394 0.120821945 0.028971624 -0.050888527 -0.035991125 0.10727228 -0.059677646 0.11875418 -0.09679678 -0.038307782 -0.123061165 0.13422331 0.09642134 -0.009860878
. -0.06703576 -0.07219907 -0.24141662 -0.1361404 0.15132791 -0.19626604 -0.07020379 0.3070966 -0.08256467 -0.3423663 -0.08251412 -0.1717204 -0.14340419 0.15949395 0.28746647 0.08802286 -0.029519172 0.3821235 -0.012806322 -0.2991869 0.044126656 0.15406033 0.07557442 -0.000794108 -0.033442248 -0.0478242 0.27681303 0.022592666 -0.20875683 0.17544326 -0.18075165 -0.08120113 -0.13455598 0.052212223 -0.056258433 0.21030888 -0.065716475 0.16128631 -0.10578835 0.08984382 0.088375576 -0.1507078 -0.15895401 0.33291718 0.21983701 -0.097449645 -0.08441768 -0.19560197 0.09528222 -0.019984636 -0.1565274 -0.2754265 0.027039273 -0.2524077 -0.011823976 0.30714566 -0.2037196 -0.11574319 -0.0491554 0.027911596 0.023780035 -0.050259475 0.27000403 -0.08788518 -0.3090168 0.32371497 -0.14182544 -0.013017462 0.12736544 0.02246682 0.21117042 -0.0270449 -0.09741871 0.19740996 0.15509966 0.46401575 0.3730698 -0.01256252 -0.2733216 -0.22909549 -0.025770657 0.03309709 -0.23989394 -0.029835878 -0.13550813 0.15895118 0.06506963 -0.003336862 0.021211721 -0.034584627 -0.0981605 0.1571327 0.22352001 0.118087046 0.044175956 0.12796348 0.63466114 -0.31436175 0.1812276 -0.048591793
k -0.0023148225 0.064986706 -0.2068472 0.015576893 -0.103897 -0.04949756 -0.107777394 -0.14634553 -0.078350835 0.08861193 -0.1523429 0.014777073 0.18766859 -0.061589837 0.14179935 0.031459536 -0.13494223 0.04706575 0.025619607 -0.07420546 0.10790559 0.06236754 -0.15698496 0.009304476 -0.071169816 -0.13357279 0.044819288 -0.02085768 -0.0930676 -0.077939585 0.0072299535 0.10577098 -0.057053287 -0.11915536 0.015498132 -0.021492733 0.116014175 0.10912294 -0.13619895 0.091019206 -0.034505982 -0.10050478 -0.1048226 0.047278322 -0.016479041 -0.100330755 0.062009618 -0.096595086 0.12010707 0.027983448 -0.08140586 -0.057024643 0.08649991 0.064797334 -0.008025717 0.11416747 -0.087860346 -0.085835 -0.25546393 0.078444906 0.25169694 -0.062158745 0.028159875 0.0069675143 -0.03627593 -0.055385184 -0.12013486 -0.04688672 0.18965599 -0.05343276 -0.012139487 -0.15804446 -0.065610126 -0.02531302 0.04117499 0.20476463 0.087058656 0.00025873483 -0.062447526 -0.09207925 0.068894915 -0.007956891 -0.14875576 -0.013383962 -0.14355887 -0.04829381 -0.019652696 0.094080724 -0.065656416 -0.029543221 -0.105019785 0.06871769 0.08748238 0.04222597 -0.08445636 -0.025441332 -0.114597425 0.0792841 0.141128 0.013312528
; 0.7472136 -0.1576343 -0.36597285 -0.03461801 -0.012174714 -0.10431599 -0.11477156 -0.06787552 0.102074236 0.01020524 -0.16926177 0.1951875 -0.10517368 0.15351835 -0.18784243 0.25962487 0.083999254 0.36550012 0.067849174 0.011194696 0.03484122 0.052086234 -0.225145 -0.029468387 0.16647525 -0.1804922 -0.16137248 0.029385036 -0.257609 0.097228564 -0.16448055 0.20217961 -0.008533138 0.08999686 -0.12708187 0.257447 -0.059812263 -0.0767978 0.02335295 -0.104610674 -0.14632905 -0.01121272 0.038928308 -0.09743244 0.05943872 0.027495667 -0.10435735 0.029872285 0.111553594 -0.008607733 -0.18667397 -0.0866716 -0.1653295 -0.12374568 0.20547104 0.005286069 -0.24742553 -0.09316303 -0.017638277 0.10238788 0.056594085 -0.09161427 0.13663755 -0.11800842 0.004003464 -0.0006499444 -0.073720604 -0.25193426 0.0025676265 -0.09226218 -0.13135937 -0.2721259 -0.1764115 -0.15918432 -0.042792812 0.10160814 -0.18719403 -0.005300503 -0.069959976 -0.00053609576 0.3648687 0.10809195 -0.11849399 0.17450765 -0.021666186 0.008133396 0.1386537 0.19098468 0.05301909 -0.092874475 -0.35207245 0.12012396 0.10716776 0.112128496 -0.09284711 -0.29475942 -0.044042107 -0.15081647 -0.022820666 0.02735322
" -0.23146817 0.16738598 0.17705004 0.014364386 -0.14250973 0.07917423 -0.09418398 0.3288134 -0.3903899 -0.019633682 -0.18224627 -0.083233476 0.21757436 -0.027478449 -0.062692836 0.098016694 0.16693307 -0.042541802 -0.23442622 -0.47750133 0.0628028 -0.080807164 0.02038448 -0.19859615 -0.17857309 -0.05624819 -0.10261633 0.1424429 0.116735876 0.10340638 0.5300525 -0.15699826 0.082810394 -0.33224088 0.012558349 -0.1377811 0.283921 0.22401561 -0.07234677 -0.016615687 0.17851034 -0.091238536 -0.17693491 0.1844459 0.073024064 -0.51237273 -0.029250178 -0.11414467 0.36589578 0.18272561 -0.067059405 0.054929722 0.10179994 0.17653213 -0.12897994 0.06543457 0.07169779 -0.03161606 -0.33129588 -0.060609877 0.4306282 0.12559482 0.2139203 0.29918802 -0.3961805 0.4050525 0.16155465 0.13728164 -0.026663061 0.22154254 0.18935412 0.027103083 0.10289716 -0.1681213 0.10695799 0.034797255 0.32613796 0.15651938 0.045587488 0.01600217 -0.12032781 -0.14023554 -0.097369924 0.2819303 -0.15280855 -0.057953358 -0.2312109 0.35019562 -0.14164822 0.28936866 0.2557869 -0.108248234 0.1558859 -0.013405758 -0.035916515 -0.08368962 -0.023931513 0.20155472 0.13978547 0.034927562
x 0.033007056 -0.040250067 -0.15288591 -0.16069984 0.19461292 0.1054473 0.05960826 -0.011149969 0.03891861 -0.28322425 0.07198556 -0.042577807 -0.23489948 -0.14149097 0.16306667 0.075152405 -0.15934043 0.056084126 -0.009442131 -0.23597544 0.021816181 0.09596483 0.030144224 0.12762067 -0.04293985 -0.059927754 -0.037210535 -0.1068041 0.0957321 0.040857714 0.15527605 0.14955175 0.18411061 0.04582372 0.0955737 -0.09228187 -0.08714863 0.11184507 0.114918604 -0.012371407 0.0999585 -0.053098354 -0.070738114 0.19474123 0.1449803 -0.1383166 -0.1671956 0.13927226 0.16515248 0.085775115 -0.26521176 -0.015144255 0.019560993 0.07644494 0.118793994 -0.027274068 0.24379021 -0.0074139987 0.069187686 0.040118203 0.20197558 -0.22040516 0.15278465 0.029166525 -0.37736982 -0.018345289 -0.20719188 -0.11329915 -0.024229243 -0.12316006 0.06376652 -0.1580426 0.13651459 0.027327139 -0.14581764 -0.08018187 0.068323135 0.058298584 -0.08535202 0.00306701 0.16514297 -0.1512207 -0.023359444 0.24260975 0.10591623 -0.19181293 -0.0427837 0.34405872 -0.21223976 -0.19376166 -0.120755516 0.09820068 -0.031562094 0.097788475 -0.26333505 0.025285976 -0.0005191064 -0.05700194 0.1941488 -0.012258258
' 0.02463405 -0.0850284 -0.15537465 -0.048576247 0.15797994 0.35936895 0.014955718 -0.07726924 0.019726686 0.18408151 -0.12068685 -0.13446711 0.21295373 -0.24673367 0.06510717 -0.13398282 -0.20796634 -0.04450781 -0.006320306 -0.05727079 0.24020529 -0.044518273 -0.03838519 -0.15642391 -0.0076421034 0.026597174 -0.018797062 0.018661238 -0.13558464 -0.08943384 0.1589907 0.0050679375 -0.05060395 -0.2250501 0.015685504 0.15166432 0.16183491 0.1805364 -0.3246345 -0.17181411 0.024923991 -0.16243683 0.024242852 0.16601658 0.11382095 -0.40441906 0.093696564 -0.1124843 0.1101119 -0.08241866 -0.11456472 -0.08490889 -0.001446487 -0.10107677 -0.34252676 0.13564198 -0.17036328 -0.19645423 -0.37715062 -0.14974962 0.4128453 -0.037266787 0.40259683 0.06222653 -0.24462566 0.07763812 -0.016796328 0.41717634 -0.025778504 -0.053892337 0.05003408 -0.16481277 -0.13285838 0.043523878 0.049401402 -0.122104354 -0.060903385 0.12858808 -0.1505451 -0.024263272 0.18851095 -0.24604338 -0.23452802 0.10957516 -0.34069943 -0.09159967 0.012476966 0.19761416 -0.28202313 -0.020168178 -0.15625307 -0.049635287 0.32542682 -0.12223444 0.14759332 0.101981476 -0.22590886 0.09694432 -0.076650426 -0.1646781
q 0.33716378 -0.13057958 0.2149284 -0.06858728 -0.023847384 0.031428955 -0.029551685 -0.29776892 -0.089337364 -0.14468102 0.061927263 -0.11089573 0.24860018 -0.038250163 0.24651833 0.23219764 0.047182333 -0.11994167 0.09828822 0.03349357 0.16465907 0.23785493 0.08687484 -0.39792877 0.16305435 -0.2233439 -0.15799575 0.2376913 0.017686669 0.08158828 0.123700395 0.066162154 0.2630327 0.1922484 -0.21011657 0.18530427 -0.04791593 0.0011934161 -0.07774038 -0.07458095 -0.010173279 0.14766248 0.1382886 -0.03933366 0.20702495 -0.0495283 -0.21046573 0.08268106 0.22969775 0.034335013 -0.17703237 0.09899546 0.0029537978 0.027657455 -0.11820698 0.08742249 0.011956622 0.18528427 0.118121795 0.046049595 0.20484206 0.117515765 0.32 0.19088386 -0.15706423 -0.012919902 -0.11613324 0.16424331 0.123366795 0.078947626 -0.0290309 -0.08064186 0.016387464 -0.07610988 -0.029925229 0.122367695 0.038642757 -0.13325304 -0.21180569 -0.054330785 0.20501919 -0.27476615 -0.11877253 0.24578558 0.14844449 0.05321255 -0.27442995 0.18363973 0.033731148 0.16835232 -0.14782664 0.23968422 -0.19431663 0.19029103 0.06349289 -0.037792776 0.019206703 -0.06862914 0.26371685 -0.15803747
j 0.05642004 -0.08987188 0.05963552 -0.013854724 -0.06512501 0.002566308 -0.118038505 -0.16451828 -0.17217049 -0.061227813 -0.06700492 -0.116441466 0.12466887 -0.023474203 0.28045473 0.15860447 0.04671671 0.01819953 0.15819502 -0.19614606 0.07879232 0.07718513 -0.011013126 -0.32592222 0.05494053 -0.09174107 -0.12537956 0.17536439 -0.13131383 -0.018700242 0.24082096 -0.00064126344 0.013832593 -0.12795687 -0.085381426 -0.016057873 0.17831483 0.08913022 -0.04793952 -0.033101887 0.14218046 -0.13995154 0.03438323 0.08293628 -0.007597797 -0.050504077 -0.12866022 0.10613579 0.10028314 -0.1111746 -0.16660696 0.10532996 0.062398393 0.16549292 -0.11465366 -0.101429015 -0.11945582 -0.011166689 0.012127725 0.067146085 0.29651067 0.030836236 0.09876814 0.2268003 -0.07523412 -0.074338794 -0.120155655 0.012553056 0.2682202 0.0046514994 -0.048436876 -0.10379672 -0.14543305 -0.08026271 0.036068536 0.17232724 -0.11099251 -0.033605523 -0.016415296 -0.13202323 0.27445164 -0.23152842 -0.16717154 -0.003734281 -0.013888407 -0.0321154 -0.21632467 0.14043349 -0.076952636 -0.044471435 -0.14980888 0.11082683 -0.092430785 0.1899106 -0.045125473 -0.04379436 -0.060607377 0.036983352 0.13703403 -0.09709851
z -0.12053681 -0.030880302 -0.33696246 0.2534525 -0.3191212 -0.18844627 -0.11493402 -0.058444694 -0.20091538 0.14640744 0.046426125 0.22586912 -0.03769965 0.17099433 -0.045536153 0.42603773 -0.017055333 0.18732446 0.037068527 -0.11711228 0.4276404 0.2630572 0.15197249 -0.27952352 -0.058662407 -0.2732355 -0.002978673 0.15008378 -0.28689164 -0.23439762 0.20711741 -0.019266708 0.11939106 0.034129404 -0.22102919 -0.0680171 0.11907195 0.11074757 -0.12762488 -0.06896521 0.061460722 -0.0040140986 -0.3361148 -0.19421738 0.19911872 0.017927231 -0.16777973 -0.055632956 0.22095245 0.21770945 -0.02026762 0.075473204 -0.044261403 -0.025003059 -0.019833224 0.083892345 0.02800008 -0.18946931 -0.45316467 -0.14253144 -0.040519997 0.03732531 -0.02678879 -0.06195069 -0.4263023 0.17445776 -0.35465673 -0.0038877227 0.21263716 0.11057642 0.091410466 -0.060357604 -0.123762175 -0.12009078 -0.023937238 -0.092526905 0.3917967 -0.065612584 -0.16339858 -0.06357006 0.103477664 -0.054945033 -0.0102217635 -0.06159764 -0.07860325 -0.08549597 0.00822627 -0.060492955 -0.14790715 0.11777439 -0.05250966 -0.18207283 0.062355056 -0.055133123 -0.042900175 0.05231892 -0.31020224 0.11539156 -0.07768724 -0.07356688
? 0.1657441 0.03778827 -0.040844288 -0.102921695 -0.0015826346 -0.16254056 -0.10662065 0.5430479 -0.2294816 -0.28060296 -0.26351044 -0.017537523 0.09288601 0.22313245 0.21404518 0.07006924 0.2633266 0.413941 -0.11177229 -0.72561586 0.10560714 0.029858176 0.14582866 -0.18013375 -0.25546405 -0.029775277 0.101017244 0.1461149 -0.19987702 0.3398394 0.119476885 -0.13215016 -0.14392385 -0.28897807 -0.09243445 0.1542934 0.13140821 0.10516062 -0.2211207 -0.0035990393 0.1810282 -0.26060328 -0.12576316 0.3991671 0.21027945 -0.289767 -0.07630298 -0.399115 0.14088103 -0.009133567 -0.11156855 -0.20716518 -0.019480066 -0.27828148 -0.08995865 0.25236708 -0.27103266 -0.117438585 -0.21496773 -0.0016187961 0.1450532 -0.12180244 0.2784013 0.13597026 -0.30160728 0.4064897 0.053432215 -0.06932467 0.0028640977 0.08202344 0.20262156 -0.06444594 -0.08125565 0.196067 0.2627951 0.43595883 0.47800937 0.16230318 -0.22096704 -0.15137644 -0.07964748 0.050494403 -0.29119235 0.14297959 -0.21463196 -0.008769388 0.09677124 0.17896447 -0.023831088 0.033867758 0.09344073 0.009767073 0.33205393 0.00032372284 0.05014894 -0.020033415 0.47295368 -0.11799535 0.27734128 0.012770806
: 0.67766523 -0.22499365 -0.42860383 -0.18592426 0.02089066 -0.05336203 -0.08252831 0.1773689 0.005580774 0.00496484 -0.17209737 0.16408893 0.048192788 0.17691371 -0.17345957 0.16869572 0.3631499 0.13583612 -0.16190931 -0.40371984 0.089563325 -0.05822216 -0.11520655 -0.122261584 -0.023510655 -0.111680545 -0.32842755 0.08773347 -0.13811529 0.10283366 0.2391185 0.055316724 -0.07532517 -0.2668724 0.0016265487 0.11963862 0.17164552 0.13686928 0.0389429 -0.10569565 -0.044123624 -0.15862465 0.10145613 -0.008710374 0.06279568 -0.20281015 -0.15953487 -0.058436003 0.27890262 0.09448132 -0.059686355 -0.13114561 -0.069317274 -0.010348876 0.038662545 0.10690658 0.01739342 0.03479728 -0.20334625 0.07774939 0.20025091 -0.11732688 0.17199859 0.08927344 -0.15027039 0.20055586 -0.022112615 -0.24053185 -0.043827493 -0.0235427 -0.07009965 -0.2786064 -0.14547266 -0.054261796 0.049236502 0.0008011077 -0.17715764 0.21382405 -0.0801268 0.019929258 0.10231261 0.10591533 -0.24584386 0.17074428 -0.043118164 0.063412294 0.081978045 0.33153212 0.07658907 0.06440478 -0.19333567 0.048752837 0.08792318 0.065093316 0.029970834 -0.24861367 -0.10822515 -0.14791907 -0.19931446 0.009582504
é 0.10105992 -0.049751572 -0.07933341 -0.08529185 0.0498706 0.33318433 0.052020065 -0.03703695 0.068099774 0.11640914 -0.15809044 -0.015970826 0.2634828 -0.14564541 0.046047576 -0.18847674 -0.096424885 -0.030514939 -0.07168891 -0.15931495 0.10298552 -0.07830214 -0.03477918 0.015022592 -0.16196005 -0.036360767 0.045186535 -0.10366525 -0.14015962 0.06287713 0.22440591 -0.09018475 -0.013383383 -0.31127214 0.047988202 0.07013542 0.10300784 0.20270373 -0.19824313 -0.12412449 0.024920378 -0.20539594 0.044621203 0.18962237 0.0069999495 -0.49577054 0.08092282 -0.105151504 0.09341367 -0.028985351 -0.13775727 -0.08209677 0.037253298 -0.058910288 -0.24048285 0.1151738 -0.14752658 -0.120719686 -0.4031021 -0.16890235 0.43790865 -0.035987955 0.23643818 0.08242222 -0.27104124 0.013553124 -0.022959959 0.13151366 0.064464875 -0.11966325 0.08964415 -0.20106079 -0.12016932 0.09344973 0.08219713 0.055119712 -0.11300949 0.14007184 -0.14894629 0.032515574 0.17228675 -0.20787953 -0.23601387 0.024735529 -0.24181132 -0.029251693 -0.0072898646 0.27275202 -0.261685 0.0273075 -0.11330484 -0.0015971112 0.12548628 0.0031249002 0.048128616 0.027985066 -0.03988767 -0.032558337 -0.08329671 -0.22182451
æ 0.094974026 -0.06760165 -0.14553916 0.0745917 0.04616434 0.028787319 0.095403954 0.047419142 -0.124260515 -0.12273484 -0.025510773 -0.09576652 0.14902808 0.047919627 0.12519932 0.03771321 0.048950013 0.019965742 -0.17970438 -0.2792033 0.075370446 0.14472984 0.047368255 0.02621985 -0.024229478 -0.11665779 0.008036133 0.033298023 -0.2009307 0.051018644 0.20896704 -0.122427955 0.07930127 -0.1693419 -0.042529657 -0.012850096 0.10480699 0.24486156 -0.0124292085 0.11121895 -0.058012404 -0.09638536 -0.10864359 0.095021494 0.08403039 -0.23449625 -0.07230315 -0.027704729 0.22165918 0.12831964 -0.0005739977 -0.1170357 0.01872594 0.014797542 -0.12725401 0.16278395 0.1060044 0.010565827 -0.22995573 0.0019178605 0.17431031 -0.023072088 0.19942121 0.056121875 -0.3321963 0.16894887 -0.17055121 -0.017755898 0.092528135 0.04948714 0.07975719 -0.0947891 -0.012192285 -0.043026984 -0.024586424 0.13314477 -0.008496598 0.057049405 -0.14239076 -0.065675385 0.0672231 -0.1561981 -0.19653055 0.0069622626 -0.035189915 0.10373002 -0.077265844 0.14527108 -0.023070404 0.10294508 -0.09125125 0.077591024 -0.007193618 0.15156712 0.033605892 -0.050453644 0.121669814 -0.16998579 -0.07111964 -0.15323214
ê 0.031459223 -0.01938491 -0.1812923 -0.0057892264 0.028985737 0.05006421 0.02620175 0.009949426 -0.096852235 0.0645807 -0.109536335 -0.024292547 0.09569199 -0.021673024 0.058982756 0.013342697 -0.07814092 0.09110282 -0.124240845 -0.19064386 0.097392604 0.08271821 -0.035792135 -0.0042635035 -0.09298537 -0.068765916 0.047520105 -0.021259332 -0.1363111 -0.052322835 0.13955005 -0.034774393 -0.07631411 -0.127661 -0.009985795 -0.009029397 0.15059938 0.23696287 -0.07124343 0.06638315 0.058044706 -0.14499462 -0.115728 0.13168146 0.07777895 -0.21717502 -0.025549542 -0.0761433 0.19608799 0.04167552 -0.022113025 -0.10513857 0.08609387 -0.04648865 -0.08425664 0.175119 0.028214438 -0.08397167 -0.24741516 -0.0002720459 0.18359323 -0.102989964 0.2074169 0.025111204 -0.24492191 0.131026 -0.13982818 0.014565807 0.021330275 0.008119199 0.022082899 -0.10762356 -0.011586194 -0.0032585254 -0.047429092 0.099787466 0.08675844 0.059477285 -0.081460536 -0.05054107 0.029696144 -0.0599964 -0.13917404 -0.0058303415 -0.08261107 0.004841448 -0.036727153 0.14297241 0.0083743315 0.045830574 -0.058681596 0.022522202 0.11486487 0.048795205 0.059453927 0.011551478 0.051081337 -0.017248465 -0.0019407456 -0.0897799
ö 0.007368566 -0.009122543 -0.17808078 0.045601446 0.108783506 -0.08690609 0.04320245 0.0955423 -0.17014487 -0.14443912 -0.057412487 -0.19118667 0.01610834 0.046213575 0.15706429 0.024559902 0.011490899 0.14372306 -0.13705982 -0.2609035 0.040263347 0.17403845 -0.016386366 -0.013259105 -0.06995877 -0.04586578 0.029209917 0.03627996 -0.21057557 -0.009360249 0.050361883 -0.095387146 -0.13121897 -0.074867 -0.053949475 0.080522835 0.14870326 0.29133505 -0.022144454 0.19090769 0.08780444 -0.20031692 -0.17731796 0.20875338 0.11039628 -0.15183277 -0.09445805 -0.07853628 0.21339609 0.021535376 -0.026171729 -0.19110791 0.075876266 -0.03820018 -0.07944642 0.21811019 0.06762589 -0.06198244 -0.11270981 0.08576489 0.11476495 -0.12799995 0.28478265 0.015247636 -0.18304391 0.23126745 -0.14745955 0.012004156 0.015392485 0.010477392 0.0059100497 -0.076821715 -0.01632976 -0.021742534 -0.030216504 0.22098462 0.058009326 0.04578901 -0.10438448 -0.15175381 -0.028468609 -0.039240614 -0.17801934 -0.004683373 -0.048418153 0.08721485 -0.04848988 0.1160592 0.11120378 0.037968714 -0.11767298 0.13109125 0.098264314 0.109954596 0.1029914 -0.011462342 0.21088785 -0.09101849 0.011068241 -0.082961634
è 0.04953948 -0.007343639 -0.12792602 0.029069813 0.034084816 -0.06231092 0.02564353 0.084832266 -0.18804604 -0.12698467 -0.0864206 -0.1538262 0.07343173 0.017817885 0.12140038 0.039630838 0.042831663 0.069648996 -0.11043874 -0.2931792 0.0900322 0.14725755 -0.00089454243 -0.09341087 -0.053800054 -0.062411338 -0.022117777 0.10844121 -0.19217595 0.025286546 0.18231854 -0.10285534 -0.06739851 -0.13535392 -0.07782005 0.04799847 0.1616676 0.2684022 -0.04251222 0.1449751 0.09273944 -0.14067611 -0.14662234 0.13862701 0.09528272 -0.22107734 -0.09472744 -0.04719152 0.24678761 0.06673447 -0.015337417 -0.11507309 0.07783966 0.006281238 -0.109823845 0.19138065 0.073111475 -0.037577793 -0.1535913 0.053570528 0.15767653 -0.071998484 0.26716274 0.065584145 -0.24297468 0.21797666 -0.10947116 0.07558653 0.025832193 0.05899282 0.02777115 -0.04063908 0.045276105 -0.06614379 -0.024227612 0.15463752 0.09363008 0.05218155 -0.05954142 -0.10694179 -0.03649016 -0.11391773 -0.15097412 0.06174449 -0.042158037 0.014068832 -0.09801355 0.16883948 0.063622616 0.079903066 -0.019163305 0.10501178 0.08151858 0.07996501 0.09314115 -0.015782462 0.16432771 -0.07111947 0.049179226 -0.09295105
ë -0.033790067 0.0021607187 -0.12263352 0.03375388 0.1326316 -0.029793667 0.05987408 0.058699023 -0.14250527 -0.1360387 -0.04910647 -0.13410403 0.01880496 0.06562043 0.1347682 0.07224165 -0.051804397 0.1411081 -0.12840159 -0.21461654 0.05655919 0.15615001 0.01072232 0.016277062 -0.016753059 -0.09105866 0.10188878 0.012181639 -0.18944117 -0.020516269 0.08523923 -0.05587974 -0.06311203 -0.04841 -0.024052704 0.025000354 0.104629904 0.24721369 -0.009110049 0.14226043 0.04010171 -0.12987015 -0.15985088 0.14093678 0.10402057 -0.13922414 -0.07421105 -0.04839373 0.20667644 0.06796885 -0.057227 -0.13960128 0.03466719 -0.0136501435 -0.034325298 0.1596962 0.06074439 -0.050348777 -0.15183586 0.04367036 0.13502067 -0.064956635 0.2059825 0.014187093 -0.23975293 0.14680268 -0.13561976 -0.015767977 0.051224664 0.050562106 0.065457895 -0.07888534 -0.0004064799 -0.021080889 -0.027996166 0.12950422 0.08890079 0.03309211 -0.10038832 -0.11305786 0.02787656 -0.075168185 -0.17446409 0.029557046 -0.040349588 0.068818375 -0.077830315 0.13699746 -0.0006372993 0.048418306 -0.08023621 0.082443304 0.08682003 0.11992371 0.012605638 0.0059070583 0.18733588 -0.13480502 0.023673687 -0.08807867
à 0.0021877664 0.0034050362 -0.103373565 0.013124675 0.026218005 0.008589812 0.031779557 0.063707985 -0.13502443 -0.033897128 -0.06070516 -0.071457975 0.070263214 -0.024254544 0.058638476 0.022729762 0.009941856 0.05570023 -0.13836318 -0.23508757 0.054405723 0.10807897 0.007967694 -0.057074785 -0.08130662 -0.07307424 0.0030418679 0.043594413 -0.12785077 0.0019867604 0.1893708 -0.07819566 -0.022425953 -0.122813426 -0.03576555 0.007632004 0.13930988 0.20001523 -0.048823208 0.07894342 0.07371796 -0.12987114 -0.10762197 0.12766083 0.08626263 -0.23777008 -0.055203836 -0.0613566 0.20731083 0.056046262 -0.045702547 -0.07113475 0.049784515 0.004875457 -0.10498146 0.13509965 0.05976333 -0.048881155 -0.1838139 0.011404372 0.20613202 -0.07532936 0.24748121 0.07555495 -0.24427056 0.17385516 -0.1010417 0.051971406 -0.0049285837 0.020847445 0.029363235 -0.07578677 0.006909688 -0.054161225 -0.013545632 0.09800032 0.0881991 0.04863152 -0.098517336 -0.08220104 0.015605958 -0.09393488 -0.15434243 0.090399124 -0.069669664 0.013048706 -0.077470236 0.16884822 -0.023297597 0.085256286 -0.06965623 0.042829674 0.09758272 0.051270228 0.044295892 -0.024629029 0.10007849 -0.01555092 0.04546563 -0.09844343
ô -0.054179754 -0.012558141 -0.10403659 0.016785694 0.13162108 -0.040083196 0.058759667 0.073161155 -0.1491865 -0.16538554 -0.025615275 -0.19142334 -0.026524426 0.06545353 0.17241754 0.057459228 -0.057340875 0.14131583 -0.117239594 -0.23527232 0.0339966 0.17808102 0.032116152 -0.004785222 -0.031505175 -0.077780694 0.095746055 0.028036445 -0.19424863 -0.029781632 0.05013677 -0.08440512 -0.059429605 -0.017024333 -0.043899544 0.024063678 0.101682216 0.26539892 0.015717888 0.17412731 0.098746695 -0.1324856 -0.21455792 0.174736 0.122224316 -0.121198 -0.11831741 -0.009138752 0.22517781 0.059886422 -0.03763227 -0.15510397 0.092427276 -0.0033507333 -0.044971414 0.20007956 0.11610344 -0.055193942 -0.08790352 0.06408519 0.087326676 -0.0838095 0.22430746 -0.0006248434 -0.2518802 0.2039342 -0.157675 0.031886406 0.067599975 0.038113903 0.0649021 -0.039149556 0.024010656 -0.027133398 -0.052653987 0.18556471 0.13636634 -0.001338671 -0.10163828 -0.15433943 -0.0316179 -0.082666874 -0.13431987 -0.0061662197 -0.0033011164 0.091136456 -0.09485795 0.097837746 0.055548843 0.06858821 -0.06913657 0.12136803 0.042422757 0.14031105 0.06400458 0.04673723 0.24538594 -0.14146896 0.019473102 -0.11167235
ñ -0.024042452 0.00103281 -0.13237469 0.10319491 0.07741645 -0.091451034 0.06951275 0.14055233 -0.23324038 -0.15131901 -0.04613074 -0.15563482 0.049018815 0.11156721 0.12332229 0.10251321 0.06734306 0.12616517 -0.16676435 -0.3262486 0.093300246 0.1884995 0.05347286 -0.094147764 -0.08242432 -0.0929032 0.012318209 0.0743964 -0.2217921 -0.019021438 0.18197413 -0.11931479 -0.10021172 -0.12770528 -0.076706976 0.05723356 0.18277273 0.283071 -0.022983968 0.13674961 0.1366346 -0.20809862 -0.1993222 0.13732116 0.15800345 -0.18834239 -0.14685565 -0.10481957 0.29012278 0.082945466 0.002680128 -0.15529339 0.049392525 -0.01821396 -0.13828272 0.21595132 0.11493817 -0.056319896 -0.19889946 0.03266201 0.122113734 -0.09197538 0.2795923 0.050924446 -0.2985137 0.30418155 -0.1718976 0.031780496 0.052776232 0.07143313 0.061575133 -0.04459216 -0.014148713 -0.034610786 0.019015545 0.13180225 0.13613755 0.07082953 -0.103216596 -0.12570615 -0.03909435 -0.08355656 -0.1825573 0.040277146 -0.05729789 0.053174827 -0.0763212 0.13415678 0.06501571 0.117519215 -0.051096782 0.06290297 0.096592166 0.09627453 0.098371685 -0.016747558 0.17636473 -0.0824946 -0.022889456 -0.09531087
ä 0.0035522014 -0.022475246 -0.11453854 0.012439972 0.092620626 -0.04164187 0.03943784 0.040071793 -0.13600227 -0.08960383 -0.053157177 -0.1308197 0.04034177 -0.0029073344 0.14087686 0.02850099 -0.05155673 0.093960755 -0.07358407 -0.19013494 0.06687499 0.163357 0.013482775 -0.04895272 -0.026424393 -0.07168885 0.030471386 0.06998819 -0.16996965 -0.01867181 0.07746446 -0.041233502 -0.04679842 -0.04132545 -0.058792707 0.061285738 0.1201065 0.20535822 -0.05573863 0.13069214 0.06515378 -0.13100617 -0.14146997 0.16919245 0.10991391 -0.12151801 -0.08148433 -0.03130161 0.2004468 0.004291199 -0.07451927 -0.12805857 0.05875309 -0.03421184 -0.06986703 0.15988159 0.034103375 -0.059280273 -0.098830655 0.05273892 0.16428328 -0.10389357 0.26268467 0.04204303 -0.1923333 0.15676776 -0.122181326 0.06953622 0.012425177 0.03274927 0.0057590157 -0.061353486 0.009372118 -0.045352943 -0.04193389 0.15629652 0.08395535 0.0014269031 -0.09345715 -0.13658518 0.019923124 -0.10965807 -0.15808083 0.046102453 -0.033638414 0.026208622 -0.078858964 0.12017357 0.050485246 0.025189014 -0.09739951 0.12386714 0.08015312 0.097249776 0.07486162 0.003910255 0.18489134 -0.06345242 0.08433943 -0.10627587
ï -0.0389262 -0.024741119 -0.1077632 0.04151822 0.11157655 -0.020627448 0.04643754 0.029307844 -0.1679288 -0.10877184 -0.033899855 -0.16620857 0.0028224946 0.04080108 0.17241766 0.038398497 -0.06992052 0.117851 -0.11026578 -0.19834103 0.027050255 0.17552151 0.017622 0.0070968224 -0.022060247 -0.08396327 0.09089579 0.015823247 -0.18984936 -0.043615684 0.0648816 -0.062318504 -0.07738657 -0.011917942 -0.037918553 0.022836203 0.106191374 0.24901043 0.02529298 0.16244137 0.07252803 -0.12553953 -0.1977431 0.17040706 0.11665728 -0.08765771 -0.10265417 -0.0012023522 0.21588294 0.036720656 -0.05724554 -0.15468876 0.08719118 -0.00010852919 -0.028601866 0.17873666 0.09629296 -0.038767453 -0.08120373 0.0662856 0.1088427 -0.08832061 0.20984872 -0.0036144108 -0.21160387 0.16490571 -0.18098961 0.016373876 0.061360266 0.040057387 0.03555331 -0.047305625 0.027665595 -0.029128248 -0.079843834 0.17816797 0.099165045 -0.019534308 -0.094155736 -0.14725637 0.0008565482 -0.08483044 -0.1512894 -0.010060738 -0.0048073484 0.07264803 -0.10078109 0.08718869 0.05920601 0.043516688 -0.092983626 0.1258567 0.033381104 0.13951902 0.04633147 0.044856064 0.24272536 -0.11844817 0.05941089 -0.12119075
â 0.034471054 -0.03716091 -0.11202936 0.006540124 0.09511595 -0.00801684 0.05100787 0.084236875 -0.15316889 -0.09015266 -0.07466808 -0.12260032 0.036421746 0.07343361 0.11143349 0.022715745 0.018098505 0.123991646 -0.13489269 -0.27618337 0.05851561 0.13066812 0.029553315 -0.04111867 -0.059120696 -0.0790805 0.03885558 0.034985755 -0.19537063 0.0026026496 0.116181724 -0.06402247 -0.07449767 -0.11081323 -0.047347732 0.045416214 0.1256974 0.22143807 -0.023626009 0.097061984 0.0783214 -0.17587174 -0.13163315 0.15803218 0.101744436 -0.17657161 -0.112402216 -0.06431063 0.21078692 0.039425917 -0.04669918 -0.14081523 0.048546553 -0.020859838 -0.08106591 0.1577877 0.06467668 -0.048201907 -0.17822967 0.030059908 0.16627002 -0.10018924 0.2185175 0.023315389 -0.22188745 0.18345816 -0.12837449 -0.005711367 0.044211645 0.024485495 0.031790078 -0.07172535 -0.040185615 -0.026567169 0.00979362 0.11758805 0.08728375 0.05240713 -0.11298095 -0.10267996 0.013185917 -0.07472426 -0.18470709 0.02891526 -0.062210843 0.05739619 -0.04499724 0.14767016 0.002484726 0.0727992 -0.092917696 0.07443437 0.07906746 0.08624816 0.061042048 0.003637352 0.16899207 -0.09051146 0.0030048839 -0.09259573
ü -0.041002285 -0.0041918205 -0.108753346 0.03756959 0.07287902 -0.050554905 0.04520056 0.065225996 -0.18109447 -0.1035934 -0.055639815 -0.124477066 0.021493686 0.05405639 0.12950504 0.06594109 -0.02500023 0.12844978 -0.119139634 -0.24216688 0.05412952 0.14745982 0.019523246 -0.0263334 -0.040104866 -0.08019397 0.06905699 0.038540743 -0.18482628 -0.02677131 0.10017132 -0.054623496 -0.042122025 -0.043063212 -0.054459296 0.0006728509 0.11330162 0.23500909 -0.008677752 0.13320598 0.06257548 -0.12449358 -0.17938414 0.15513426 0.10909797 -0.12993102 -0.08480797 -0.029725088 0.2006444 0.05422743 -0.06609624 -0.11521589 0.043282144 -0.023433356 -0.034555376 0.15100253 0.05280916 -0.059931558 -0.13114469 0.038839895 0.13464038 -0.082483284 0.21746762 0.036080644 -0.22999482 0.1576851 -0.14459147 0.01299897 0.050100528 0.04932122 0.041342653 -0.05260349 0.0072140726 -0.04038921 -0.035287146 0.167223 0.1264061 0.0028285016 -0.09994426 -0.13325144 0.031090613 -0.10076015 -0.15079857 0.040561885 -0.035268664 0.05109362 -0.0790985 0.10450715 0.014845851 0.049910016 -0.07244068 0.08212927 0.08066494 0.12504022 0.024014397 0.022983717 0.184344 -0.07553447 0.06033252 -0.09597565
ο -0.012174862 -0.04143153 -0.12347606 0.0069292756 0.07795213 -0.0052740257 0.028535642 0.046222027 -0.13738902 -0.08348112 -0.060085528 -0.11252237 -0.005838027 0.038546238 0.11991368 0.03514045 -0.10031708 0.12614284 -0.13040169 -0.18069297 0.03485306 0.1626743 -0.0059117884 -0.005091317 -0.027005263 -0.094633244 0.08326879 0.003345754 -0.16829596 -0.03652206 0.060555276 -0.041707277 -0.065378286 -0.028354613 -0.031833474 0.01691758 0.09732474 0.23296672 -0.00046438797 0.12100196 0.052826524 -0.12708981 -0.17006502 0.15142329 0.10999238 -0.14018355 -0.09039454 -0.020868918 0.22407937 0.044649 -0.07686056 -0.13327967 0.075025745 -0.005309204 -0.02810869 0.1601701 0.054336336 -0.07773259 -0.13424082 0.04204902 0.17062266 -0.07583718 0.20810619 -0.009581735 -0.22525723 0.16173813 -0.14410958 0.023973603 0.054785296 0.039573655 0.038124077 -0.0803414 -0.015693031 -0.0565417 -0.0606674 0.17643216 0.10402415 -0.0027246114 -0.10085365 -0.13048021 0.039285548 -0.07691186 -0.1704959 0.021103384 -0.033402104 0.07067795 -0.08998677 0.13013093 -0.009407744 0.07616398 -0.10330581 0.09173235 0.06896356 0.09978895 0.028500684 0.031296644 0.19081828 -0.09062521 0.03388155 -0.10996842
ἶ 0.025693558 -0.07008963 -0.12926562 -0.007771852 0.069290906 0.0069809523 0.032358952 0.0045139426 -0.10564515 -0.035112344 -0.03419697 -0.071225114 0.010896538 0.046653904 0.100978516 0.021571627 -0.10986396 0.10079787 -0.11112338 -0.118891746 0.03319615 0.13209417 -0.027268019 0.014596157 -0.0071780034 -0.10281353 0.10962871 -0.018561943 -0.14318572 -0.043178927 0.0470839 -0.028704097 -0.045192156 -0.0062439744 -0.019065373 0.0017846844 0.06726689 0.21632403 0.027412152 0.070277736 0.025521422 -0.09397442 -0.12332213 0.10914416 0.06594124 -0.116011605 -0.06791665 0.0111724315 0.17307557 0.032823473 -0.08137735 -0.10840063 0.08166034 -0.013645438 -0.004043963 0.14586456 0.038336985 -0.043089353 -0.11802555 0.030710181 0.14517516 -0.054256327 0.14864203 -0.029228197 -0.20635195 0.096872024 -0.13182975 0.009598105 0.063623525 0.027132683 0.029343436 -0.076665156 -0.035156164 -0.0389963 -0.04059959 0.1319904 0.06645536 -0.01869605 -0.1091497 -0.0907656 0.081799336 -0.060142297 -0.14909157 -0.00086704886 -0.031087225 0.084587134 -0.08928922 0.08835913 -0.012181214 0.07908395 -0.098991476 0.07925973 0.064304024 0.10212687 0.010973848 0.034382954 0.13968036 -0.07624824 0.031684656 -0.11458411
δ 0.036438454 -0.054903284 -0.12198652 -0.008524655 0.06891906 0.011088411 0.009117792 0.0054707606 -0.10283743 -0.053536437 -0.044123717 -0.057708535 0.008132834 0.046720874 0.10278305 0.031320285 -0.113451734 0.124773845 -0.112250485 -0.1347087 0.02478818 0.12927665 -0.032632217 0.0063004843 -0.005616879 -0.1096767 0.09289063 -0.023353735 -0.1483909 -0.032462437 0.024566166 -0.04700975 -0.048661172 -0.007619503 -0.013599506 0.015738245 0.052631356 0.21997757 0.04016688 0.07482435 0.0139592765 -0.106934346 -0.119954295 0.11381438 0.07330616 -0.13363026 -0.066764064 -0.0028502382 0.168827 0.040368225 -0.0775368 -0.09957293 0.05855137 0.0037544055 -0.011595979 0.14303115 0.037150893 -0.05582131 -0.13052684 0.019809002 0.14623226 -0.03819054 0.13741963 -0.014213796 -0.20923868 0.12314978 -0.12818152 -0.0051620346 0.07428457 0.026974535 0.027685916 -0.08603405 -0.044635277 -0.051477086 -0.04265141 0.13925995 0.057568826 -0.00012567325 -0.09378859 -0.09141952 0.074595846 -0.06506644 -0.15713319 0.0104408935 -0.029534793 0.10525667 -0.09568913 0.09981512 -0.014320819 0.07873723 -0.11983592 0.0696979 0.06451345 0.09543783 0.008835073 0.032061428 0.12837265 -0.091172665 0.0072017317 -0.11188272
α 0.03507181 -0.055487696 -0.126046 -0.009123102 0.06986716 0.013822232 0.030560082 0.007824719 -0.10475315 -0.049640935 -0.051552143 -0.08633747 0.01742845 0.026947122 0.11483363 0.014963285 -0.105107255 0.122130394 -0.112888284 -0.13855228 0.02412941 0.15231754 -0.0179782 0.010038101 -0.008555501 -0.08609211 0.111448154 -0.015487457 -0.15521695 -0.03902817 0.025074031 -0.054407254 -0.055097573 -0.0018215126 -0.019618522 0.008714478 0.06409108 0.21641017 0.028502053 0.0877874 0.014403657 -0.10576991 -0.12043703 0.1253402 0.07420874 -0.112351455 -0.07725165 -0.00922986 0.16082145 0.021877304 -0.06421894 -0.11878105 0.06272937 -0.022106957 -0.009803525 0.14816253 0.03953837 -0.06163624 -0.12646997 0.027470708 0.13124263 -0.061514102 0.15091364 -0.016182145 -0.20874397 0.11703482 -0.13502929 0.010331396 0.06424563 0.027363677 0.025169507 -0.077514455 -0.031379003 -0.041892406 -0.045159098 0.15260872 0.085928865 -0.021521896 -0.11128057 -0.1013439 0.06927308 -0.057176173 -0.15037292 -0.0019314858 -0.033270027 0.085172705 -0.10188267 0.09036285 -0.016675122 0.071198344 -0.10849084 0.075130925 0.07009615 0.10307398 0.019025045 0.032683197 0.15517327 -0.06836859 0.023465328 -0.124174476
π -0.023122685 -0.022963606 -0.07637017 0.022999126 0.07490424 -0.013401044 0.03439558 0.022552505 -0.09287318 -0.07903723 -0.032307122 -0.10099219 0.0015412149 0.017933821 0.11057763 0.03391389 -0.07779768 0.08744237 -0.08712726 -0.1241514 0.020003876 0.13510984 -0.009428487 -0.0047568707 -0.021787075 -0.063766174 0.056520797 0.007823993 -0.1228243 -0.027683996 0.049670886 -0.038904585 -0.033406146 -0.007914497 -0.03063176 0.0218817 0.07658095 0.179992 0.0053942148 0.09237934 0.049426224 -0.09124368 -0.12334401 0.10777038 0.07676952 -0.09927916 -0.06741562 -0.012149355 0.15332468 0.029185586 -0.053262647 -0.09578418 0.059918154 -0.0017030617 -0.033804905 0.13211033 0.048198864 -0.04755702 -0.078742646 0.03628292 0.10705193 -0.048601985 0.1457163 -0.0029540723 -0.17089207 0.10859349 -0.106428735 0.017905943 0.026451234 0.024533592 0.029376224 -0.049782354 0.006515731 -0.02764171 -0.0328361 0.120767176 0.077139966 -0.001423831 -0.07540618 -0.093825325 0.021604327 -0.058430772 -0.11147591 0.025700796 -0.031204132 0.062048096 -0.06757808 0.08380566 0.0102304565 0.034360725 -0.0743654 0.07987691 0.05711042 0.09033435 0.019738628 0.030902587 0.13852362 -0.07005156 0.041635565 -0.08127005
ν -0.024848254 -0.017686734 -0.07703688 0.013160821 0.055156182 -0.021352462 0.030317686 0.05850918 -0.11598141 -0.08283679 -0.05458667 -0.09859877 0.0015052386 0.022578932 0.0860242 0.033151496 -0.049127106 0.10291898 -0.094178 -0.15843791 0.024302429 0.11681476 -0.00611623 -0.0032394181 -0.023111554 -0.06477018 0.06765596 0.012538194 -0.13101135 -0.011610324 0.040020216 -0.03935464 -0.03867853 -0.026822444 -0.020626782 0.021323044 0.07611629 0.16646512 0.0007798176 0.107893 0.054846883 -0.09145433 -0.13678567 0.11750253 0.08291908 -0.0976147 -0.058544006 -0.023622973 0.16861075 0.017945906 -0.044879 -0.103627175 0.050976332 0.001493597 -0.031069968 0.12619738 0.03211919 -0.057312407 -0.08305989 0.04357746 0.105846494 -0.051793043 0.14479584 0.008963184 -0.15380388 0.13386162 -0.10254776 0.020416256 0.025082853 0.032302357 0.029129077 -0.03286579 0.012686584 -0.043437332 -0.022890499 0.13270235 0.09342932 -0.0013972585 -0.07149807 -0.102625504 -0.002104113 -0.06238709 -0.11204707 0.019628048 -0.03703621 0.04079837 -0.07567389 0.08440702 0.02332246 0.043447986 -0.052442178 0.07026319 0.069979526 0.0870411 0.031574044 0.01010688 0.15142372 -0.06380153 0.03457458 -0.05858781
υ -0.014785214 -0.008303749 -0.084160045 0.020985816 0.07679341 -0.008616433 0.041169893 0.026767226 -0.11311803 -0.074301 -0.041712135 -0.108534 0.015279919 0.01625914 0.09932378 0.017610064 -0.067773364 0.095467135 -0.086317815 -0.13968323 0.033928808 0.119138435 0.004781716 -0.0071705827 -0.032860328 -0.048157077 0.054585688 0.0049088667 -0.13855596 -0.01291764 0.046539277 -0.040273163 -0.050809428 -0.023317069 -0.02690401 0.017314296 0.08184366 0.18800016 -0.005032933 0.09915056 0.057760548 -0.09910674 -0.12252203 0.12840004 0.07302259 -0.11682094 -0.05670932 -0.03600426 0.16999348 0.014463622 -0.058438186 -0.113242984 0.055866066 -0.021801429 -0.027554633 0.12076387 0.05310039 -0.042162947 -0.09363358 0.04554817 0.11722084 -0.069515884 0.18009247 0.013218982 -0.16754977 0.13069308 -0.1083929 0.01550146 0.020185983 0.019592496 0.013982023 -0.054616414 0.012815324 -0.038725186 -0.038125057 0.124455266 0.06384326 0.00932746 -0.0727811 -0.101429746 0.014712702 -0.056599032 -0.122371756 0.015004954 -0.039365806 0.0391118 -0.060462393 0.09962757 0.024922656 0.038940627 -0.07608799 0.08285434 0.051224615 0.071956545 0.04310323 0.008069483 0.14859447 -0.076564424 0.036237657 -0.08116284
ς -0.02732342 -0.0002546099 -0.06867884 0.024738764 0.06394306 -0.026109807 0.045290716 0.06295544 -0.108520314 -0.09924005 -0.033499457 -0.113053665 0.0031757073 0.014796091 0.10143849 0.02797076 -0.04020469 0.08063887 -0.082338735 -0.14625688 0.025955945 0.107712746 -0.0028332493 0.001996654 -0.030139295 -0.033716604 0.04648163 0.016932204 -0.11706064 -0.0034185662 0.054050572 -0.060990654 -0.040842958 -0.027783653 -0.022114081 0.019738916 0.0729349 0.16248201 -0.005249482 0.11061806 0.03944872 -0.086088434 -0.12871782 0.11254335 0.077157 -0.09507013 -0.06746251 -0.03387902 0.14196046 0.021605488 -0.029880492 -0.08802701 0.047715012 -0.011562845 -0.02713088 0.106626354 0.0639495 -0.03833062 -0.07174669 0.04180565 0.07955007 -0.060388118 0.14459097 0.004317903 -0.15581614 0.12181941 -0.08650865 0.013563701 0.019758334 0.019096345 0.022070616 -0.024328358 0.008650694 -0.032496206 -0.030572064 0.12201666 0.08328545 0.0150679415 -0.06680074 -0.0827652 -0.018629888 -0.05426917 -0.08493922 0.017737344 -0.028926423 0.04599617 -0.07084396 0.06506975 0.017628724 0.029631585 -0.04022307 0.07157411 0.043902434 0.069414236 0.029015426 0.010635289 0.13791808 -0.06890352 0.031219777 -0.058975514
å -0.019728 -0.0071144537 -0.048647154 0.008727174 0.04733974 -0.012527733 0.025508212 0.03082145 -0.09133267 -0.06687811 -0.019238988 -0.08116636 -0.0076568113 0.029550133 0.07984364 0.027532281 -0.039054748 0.07613518 -0.07266182 -0.10465788 0.0099082645 0.08539759 0.00048828055 0.003758629 -0.01621263 -0.049682584 0.05927779 0.020837354 -0.09188241 -0.016684666 0.031677827 -0.04478171 -0.03677067 -0.009218215 -0.016161596 0.0050075827 0.067588046 0.12263694 0.012164501 0.07062207 0.04012522 -0.074009106 -0.09479745 0.10035009 0.06264415 -0.07782447 -0.06349916 -0.008984512 0.1243694 0.028536493 -0.03495556 -0.07882963 0.0493169 -0.014763062 -0.021018337 0.100554764 0.035833266 -0.028308181 -0.063827 0.018686615 0.065247595 -0.041228227 0.10887664 0.0044801505 -0.13165759 0.11142208 -0.07972824 0.018126154 0.030452754 0.022665858 0.018619753 -0.0137099745 0.0073270826 -0.029994342 -0.019947253 0.11287254 0.0768851 -0.0060705175 -0.055305958 -0.07658074 0.009300959 -0.046619255 -0.08924822 0.010611299 -0.0037022834 0.04505423 -0.06212031 0.052514628 0.012997191 0.044041794 -0.043313023 0.050516248 0.027577074 0.06553456 0.03233402 0.016869325 0.12523377 -0.059855927 0.034156095 -0.05959476
ç 0.023674263 -0.035989396 -0.083249174 -0.00032675313 0.06496121 0.011754879 0.020099513 -0.004258532 -0.06753709 -0.0578306 -0.019119576 -0.05894645 -0.005533639 0.021558221 0.10494794 0.023268169 -0.06370087 0.087998755 -0.08051634 -0.08930028 0.00042467 0.09914414 0.00056590606 -0.008267596 -0.0039065345 -0.062476967 0.066802666 -0.017477311 -0.110702395 -0.023197426 0.015636988 -0.043911524 -0.035579525 0.013087851 -0.02474482 0.0013349631 0.04850933 0.15036689 0.02471097 0.07551533 0.017037569 -0.0658487 -0.07334302 0.091949545 0.06598099 -0.07512182 -0.06760068 0.0078763515 0.122060314 0.016587464 -0.04100349 -0.0781948 0.047376994 -0.018040093 -0.025896287 0.10097032 0.041575585 -0.016305361 -0.06819993 0.028585814 0.086891286 -0.032756116 0.12258561 0.0075257556 -0.13403468 0.072482176 -0.11442017 0.006926825 0.045180988 0.0062394547 0.018923763 -0.041097596 -0.004612336 -0.02756909 -0.036750775 0.10688846 0.0483999 -0.01034627 -0.07806616 -0.08945505 0.047173258 -0.07076995 -0.10769935 0.007096577 0.0012108549 0.07707721 -0.06847773 0.06692538 0.0059070457 0.050703146 -0.06699268 0.076021925 0.039755173 0.09715064 0.019020101 0.026162282 0.12787248 -0.0625304 0.023152951 -0.0926343
î -0.017348312 -0.0078120693 -0.053045943 0.028884511 0.04912879 -0.022600032 0.028979667 0.047208156 -0.11331406 -0.08667584 -0.034969095 -0.096802935 0.0071866675 0.015241748 0.09802305 0.029858723 -0.026969993 0.06532549 -0.08878859 -0.15592207 0.023252903 0.10229497 0.010886968 -0.00031629772 -0.03611139 -0.05079126 0.035416663 0.022321336 -0.11718826 -0.004556558 0.062393166 -0.05988227 -0.025604442 -0.043337546 -0.032455154 0.024050418 0.07609124 0.15729588 -0.008248906 0.10055579 0.06565492 -0.08960417 -0.1047908 0.110072345 0.069896564 -0.08634474 -0.06151975 -0.02919848 0.13179208 0.039973315 -0.036912914 -0.08749304 0.048719782 -0.008413778 -0.034915812 0.10429621 0.04006128 -0.01694961 -0.08011558 0.03714251 0.08500286 -0.031071788 0.14145558 0.010010485 -0.14973381 0.11770744 -0.07060288 0.026634242 0.026652902 0.027564032 0.032664765 -0.025177468 0.0104955 -0.026039861 -0.0075320364 0.11421793 0.06343031 0.015979636 -0.051057726 -0.09351887 -0.0052247997 -0.04670382 -0.10185361 0.021858813 -0.023941543 0.049488846 -0.06204389 0.08230776 0.031496402 0.032425236 -0.043877758 0.054730803 0.044258304 0.08084088 0.028052611 0.0017827095 0.1252867 -0.06626151 0.02591269 -0.06807474
