60 50
_ -0.0069901436 -0.14084016 -0.007896453 0.2368883 -0.06885305 0.026358481 0.03497247 0.10440705 0.0015738998 -0.042305686 -0.12605508 -0.15051328 0.30062017 -0.0132220145 0.057561345 0.009702311 -0.038614668 -0.07766648 -0.117029816 -0.064694494 -0.070268884 -0.05613486 0.12546252 -0.06409496 0.025457166 -0.13521524 -0.09090189 -0.1564669 -0.030525254 0.058565814 -0.08560692 0.16451396 -0.10031445 0.10392463 0.05375952 0.053026877 0.07517001 -0.13375089 -0.04219926 0.00016671386 -0.15765543 -0.0839639 -0.082351156 -0.2761657 -0.21779628 0.02854082 0.09148131 0.15890686 0.015008565 0.16012911
e -0.04680984 -0.2588365 -0.112791404 0.07687708 -0.11180861 -0.047483172 0.0064204927 0.18153253 -0.032732744 -0.14967929 0.07111519 0.009155289 0.20973404 -0.07501478 0.07553222 -0.12665091 0.11370926 0.013963385 -0.122632414 0.02376853 -0.031516947 0.020926623 0.12174549 -0.022354295 -0.060948655 -0.17107928 -0.13116524 -0.2482208 -0.073490284 0.06685692 0.025656633 0.1431991 0.041405298 0.21818426 0.08511565 0.03835267 0.10616176 -0.2501844 -0.12915465 -0.11868091 -0.15874001 -0.09456911 -0.0044895364 -0.1711445 -0.073559776 -0.014747582 0.08570156 0.14677157 0.051674206 -0.056240264
t 0.11583281 -0.0019674904 0.08837166 0.10023562 -0.042419925 0.02788154 0.03163178 0.15284997 -0.009441689 -0.09828818 -0.04060637 -0.040350527 0.21762182 -0.067532934 0.12033091 -0.03899774 0.027561137 0.025599668 -0.15495194 0.060786504 -0.120938286 -0.024192546 0.021557594 -0.10820593 0.008095402 -0.13420781 -0.05600568 -0.21035647 -0.08150927 0.018353704 -0.057304244 0.093933076 -0.021402942 0.267981 0.1314318 0.109332904 0.028346261 -0.17913346 -0.09520798 0.005115714 -0.19433089 -0.060578406 0.0057488084 -0.26409224 -0.023806902 0.052356504 0.13931394 0.18577954 -0.05247754 -0.059424125
a -0.06787606 -0.051780533 -0.08009553 0.19976231 0.108682744 0.024920095 -0.012793929 0.099879324 0.016871216 -0.12380961 0.0070094173 -0.043402135 0.12895928 -0.10477761 0.068275854 -0.064282194 0.089518994 0.0012005226 -0.08160276 -0.021528682 0.023992522 0.027334526 0.1071303 0.039518744 -0.07679591 -0.05973656 -0.2146806 -0.14570796 -0.014124992 0.07762994 0.003993491 0.13330467 0.0048062056 0.17553379 0.19678868 0.07742687 0.048610184 -0.097872525 -0.1640548 -0.09265972 -0.16635968 -0.19637558 -0.114846915 -0.18859251 -0.23124976 -0.013093184 0.21541277 0.1831474 -0.0018731166 0.0287782
o -0.14129679 -0.104791395 0.14532536 0.15477116 0.11441106 -0.016210552 -0.0008095265 0.10651717 -8.0850485e-05 -0.13665909 -0.026757434 -0.07301177 0.25171804 -0.1924494 0.11542247 -0.1250531 0.024837052 0.09369777 -0.13848417 -0.0009679195 -0.12784354 0.011321381 -0.026271926 0.055202443 -0.05877337 -0.100427724 -0.1684014 -0.08488822 0.013317181 0.07552325 0.024873147 0.120556064 -0.005080997 0.23727107 0.21968803 0.08274144 0.04146234 -0.21111758 -0.11510761 -0.052583292 -0.1590669 -0.15936957 -0.055563796 -0.1518879 -0.17471832 -0.04350509 0.12921135 0.07759419 0.0068342537 -0.07933582
n 0.0053506494 -0.063335784 -0.058205098 0.014649796 -0.1773178 -0.032438323 0.009189957 -0.06141793 0.00760682 -0.0995341 -0.03907781 0.013096442 0.17445333 -0.110811956 0.06449882 -0.018034603 -0.051481806 -0.04153809 -0.068136096 0.021346556 -0.03394918 -0.07828148 0.11799667 -0.067127824 -0.041716572 -0.13008654 -0.21096 -0.16030557 -0.056293566 0.06597507 -0.069905266 0.08898955 0.002353525 0.20598625 0.17874984 0.3797517 0.1184187 -0.12669423 -0.0257217 -0.0026071242 -0.09262383 -0.09881428 -0.0111087 -0.291957 -0.15961318 0.09679057 0.15705529 0.13291615 -0.022430135 0.026915545
i -0.09490636 -0.14998025 -0.15036641 0.016704697 -0.042219013 0.03381881 0.039416555 0.16083975 -0.07643544 -0.040771462 -0.11552175 -0.008341757 0.1549127 -0.031513676 0.02509639 -0.12783168 0.12076603 0.044535447 -0.13685283 -0.04917415 -0.07293497 -0.0042605624 0.07710898 0.08999931 0.0029112909 -0.12192484 -0.11291718 -0.17077743 -0.007153248 0.025021225 0.09235089 0.11769878 0.033421922 0.18444233 0.22817466 0.1613093 -0.0730673 -0.1387146 -0.10986566 -0.15296221 -0.13964945 -0.10802025 -0.06880453 -0.26932257 -0.20115176 -0.05033782 0.1410869 0.2813654 0.10883068 0.09525576
s -0.0013193854 0.102426544 -0.05998514 0.14172612 -0.10107153 0.016955663 0.0050244424 0.022298174 0.01979019 -0.12606128 -0.014525388 -0.11166479 0.28343204 -0.05199229 0.072692975 -0.012173867 -0.018333867 0.013293313 -0.15774508 -0.026576262 -0.08351634 -0.05181266 0.06734554 -0.12815149 -0.07122771 -0.0953446 -0.18101773 -0.16225645 -0.028487975 0.046090882 0.022849977 -0.00015693673 -0.024031771 0.28998685 0.13830104 0.10474683 0.029193252 -0.16396606 0.00030058413 0.030924251 -0.25880152 -0.119794205 -0.10334446 -0.16327617 -0.07993233 0.08076683 0.12691146 0.12913199 0.023987176 -0.08355483
h -0.12140816 0.074210145 -0.13641416 0.09570312 0.016268997 -0.10145228 -0.1601037 0.011583929 -0.027095757 -0.09929394 -0.077528395 -0.0071545616 0.27633604 -0.16809973 0.13233064 -0.091055095 -0.08827648 0.05985727 -0.10774779 -0.07528113 -0.04505339 0.026978144 0.0024038746 0.03313898 0.003387396 -0.149303 -0.23725124 -0.030232877 -0.13169104 0.06183787 -0.06921739 -0.042989448 -0.053574804 0.07265709 0.09216185 0.17796205 0.0969181 -0.16853873 -0.21143267 -0.108688034 -0.20439987 -0.13009733 0.019086353 -0.30049384 -0.19866413 0.10731025 0.098054275 0.22668937 0.050494406 0.03800589
r 0.0002932141 -0.069971934 -0.02056635 0.019768694 -0.11441616 -0.09064678 0.14683712 0.06436704 -0.0034488384 -0.20540683 -0.033351157 -0.034993563 0.31685957 -0.13499084 0.1010272 -0.0687118 -0.16276063 -0.06890031 -0.11023246 -0.08161893 -0.045848284 0.09589217 0.03296629 -0.08103621 -0.041830763 -0.15319647 -0.16513501 -0.17210715 -0.005434836 0.07820962 0.0031644637 0.00832261 -0.13830246 0.14792663 0.072784446 0.08023868 -0.09899928 -0.1994423 -0.005573808 -0.0908696 -0.25731012 -0.10423724 -0.015505685 -0.17002907 -0.046743993 -0.06301338 0.093355834 0.25862253 -0.05004914 0.01708528
d -0.053580556 -0.1220476 -0.013697524 -0.00070485094 0.059633043 0.025660165 -0.0010770183 0.15507774 0.026726821 -0.12548131 0.0019568321 -0.12327886 0.32983458 -0.03872172 0.13560389 -0.013700596 0.00739522 -0.039001107 -0.089206 -0.100179076 -0.045028847 -0.05487658 0.0097528435 -0.10299014 0.050149724 -0.13314869 -0.13746847 -0.20745912 -0.05366808 0.034263033 -0.090271845 0.007019864 0.04552958 0.19742015 0.04006013 0.1193044 0.015281281 -0.030989137 -0.11030626 -0.07657134 -0.14990363 -0.034465633 -0.038080648 -0.20547292 -0.10567592 0.054681487 0.13721913 0.21297413 -0.048648767 0.035323527
l -0.11911496 -0.17632194 -0.0689287 0.07757902 0.050387092 0.10326771 0.1531627 -0.07275339 0.13927627 -0.09451086 -0.06348787 -0.05719663 0.30634555 -0.10217152 0.09262028 0.049412854 0.044677924 -0.027261596 -0.20328131 -0.05831764 0.013050962 -0.051892087 0.2552582 -0.08920936 -0.008852261 -0.10840443 -0.15060644 -0.09262374 -0.13786662 0.029919872 -0.090252995 0.03964316 -0.020579573 0.17177969 0.11571416 0.1192241 -0.05187675 -0.068460226 -0.07501881 -0.051514804 -0.2138699 -0.106436685 -0.0027985282 -0.213711 -0.083121166 -0.050232314 0.21406658 0.19213049 -0.2162007 -0.018255446
u 0.080304824 -0.11160826 -0.15730497 0.19352219 0.06578491 -0.124241665 0.04912216 0.1850549 -0.031806134 -0.115245685 -0.012558543 -0.027298395 0.15223597 0.09840883 -0.1867225 0.02419565 -0.070670135 0.06254731 -0.032383297 -0.06306528 -0.08680676 -0.07097364 0.24369359 -0.02502575 -0.06199435 -0.20428623 -0.039368633 -0.20541583 0.0646947 0.05092909 -0.03393889 0.1422605 -0.08646885 0.21809687 0.16451423 0.16059135 -0.008151799 -0.23604046 -0.062011737 -0.10275914 -0.0024039582 -0.23730779 -0.039294414 -0.1570139 -0.28816804 -0.06080259 0.14157274 0.18555024 -0.10977535 -0.096876636
m 0.008764691 -0.1827247 0.06079395 0.15970984 0.18327206 -0.09982537 -0.029916106 0.099991016 0.11939895 -0.20002699 -0.0075357957 -0.062356777 0.17903626 -0.073773034 0.09881267 0.05632487 -0.08071479 -0.022978332 -0.15686594 -0.14421591 -0.041924763 -0.01155812 0.079973064 -0.2235887 0.0146383885 -0.18896638 -0.1123669 -0.09966974 -0.081142165 0.121528715 -0.052742217 0.01632833 0.02128054 0.15040286 0.1562403 0.1772425 0.059855238 -0.112535454 0.043721296 -0.08686052 -0.24535379 -0.048221868 -0.019754332 -0.21670437 -0.003077053 -0.016964218 -0.010579815 0.25157848 -0.041060068 -0.069138415
c 0.030575296 0.0035932553 0.026061118 0.0144093335 0.06484454 0.07052557 0.013829626 0.11091547 -0.010865192 -0.030879335 -0.02890031 -0.093884505 0.3160827 -0.11115546 0.05034471 -0.050932515 -0.0487225 -0.021407232 -0.10319059 0.03710835 -0.15804403 -0.07009923 0.058376726 -0.117869385 -0.094320975 -0.14011833 -0.104083985 -0.19134088 -0.056469865 0.070544824 0.029563185 0.029027576 -0.014084876 0.2630416 0.07964731 0.13985981 0.10591823 -0.18659951 0.019449005 0.07315245 -0.16542801 -0.053693675 -0.15276536 -0.17424774 -0.13938424 0.094945975 0.07028315 0.21085632 0.045744844 0.073259056
f 0.16109632 0.039328966 0.03864563 0.1872414 -0.012435969 0.05840616 -0.021693755 0.19329397 0.020848535 -0.1744349 0.07170948 -0.06480117 0.12578185 0.03309913 0.072586 -0.17286947 -0.05837076 0.04394511 -0.0533861 -0.009195274 -0.13906203 -0.09632862 -0.008090865 -0.08988896 -0.034907937 -0.24591266 -0.17080252 0.06666425 -0.007994207 0.010855279 -0.23642863 0.0889385 -0.0012285548 0.26007342 0.17099056 0.18534896 0.16927528 -0.05116455 -0.018629238 -0.024728546 -0.12354093 -0.10361639 -0.07248107 -0.25898305 -0.04428095 -0.094100975 0.097875684 0.2960576 0.021700177 0.018635921
w 0.18487543 0.122109815 -0.060814887 0.16236274 0.10293461 0.1229282 -0.09392232 0.14345025 0.020222878 -0.057469368 -0.04485372 0.11208058 0.26438746 -0.087298684 -0.04029438 0.0033928712 -0.04376545 -0.023537517 -0.13526997 0.13486728 0.018821748 0.19810615 0.14716606 -0.03355822 0.015547579 -0.12549609 -0.16259433 -0.16528401 -0.1538594 -0.02111205 -0.06724787 0.08528954 0.108968824 0.22653544 0.1791015 0.15068541 0.17703247 -0.08624957 -0.1530262 -0.11035865 -0.13205193 -0.12364228 -0.18811855 -0.31537166 -0.0070641185 -0.040665895 0.054240793 0.2776751 -0.016354598 0.030136326
y -0.08608314 -0.032460507 -0.029163541 0.052982785 -0.039698955 0.010248209 0.09336368 0.10016557 0.09487019 -0.06644598 0.10485958 -0.0607519 0.4212707 -0.031198138 0.18137048 -0.06529214 0.10514399 0.05891849 0.0922214 -0.12596437 -0.09368204 -0.09028958 0.16579847 0.14488144 -0.045213293 -0.16404958 -0.24943537 -0.16754001 0.1288157 0.056761518 -0.19303834 0.22481441 0.041568607 0.28623194 -0.035767008 0.08057622 -0.05538231 -0.28325137 -0.06777058 -0.082898505 -0.0043095187 -0.037325844 -0.01382714 -0.2061448 -0.15693551 -0.011158001 0.013027271 0.1392379 0.08908458 -0.09708917
g -0.08552482 -0.01924198 -0.014551698 0.079146914 0.15007204 0.27463594 0.0050856783 0.19242114 -0.05457857 -0.1812268 0.019688461 -0.11715114 0.37629113 -0.064379044 0.050217774 -0.025814677 0.016518857 -0.09907514 -0.124220565 0.007926448 -0.10333958 -0.07489697 0.066181205 -0.07686188 -0.001705923 -0.14438917 -0.28318518 -0.2325267 0.030488305 -0.0907342 -0.012620627 0.0048675262 0.14033361 0.15918703 0.24631752 0.14433719 0.09603266 0.027246265 -0.058654975 -0.08526902 -0.14843401 -0.059244893 -0.11084828 -0.23946498 -0.05675551 0.03535336 -0.076393045 0.086369015 -0.07760204 0.118741505
p -0.0154388845 -0.017872306 -0.03944291 0.11292688 -0.02246569 -0.11622813 -0.1880702 0.15869358 0.014679697 0.04653915 -0.084284514 -0.017461834 0.31902698 -0.024352167 0.11080054 -0.12187853 0.07304347 0.024385665 -0.08534425 -0.05419004 -0.12309911 -0.1896753 0.06579377 -0.28916416 -0.16256358 -0.115803696 -0.058101665 -0.03089886 -0.022100216 0.09536278 -0.028086476 -0.053506255 0.07925831 0.27697003 0.114338644 0.1535995 0.0847766 -0.0073762005 0.096024424 -0.04907203 -0.13083495 -0.12819839 -0.19746947 -0.12766497 -0.022074144 -0.06438967 0.15349294 0.3531101 0.07310842 -0.016119938
<s> 0.1629438 0.17425728 -0.3232535 0.38442197 0.40830666 -0.003681418 0.05027541 -0.024225108 0.29847693 0.36284783 -0.43794277 -0.046477847 0.35906985 0.040660292 -0.00037818676 0.02400163 0.19212912 0.34081727 -0.64148504 -0.10770684 -0.25202265 0.19628397 0.3209658 -0.02004111 -0.08435219 -0.24503656 -0.28719673 -0.13262899 -0.11789545 -0.15897115 -0.1826919 -0.15927699 -0.076667525 0.033338536 0.06351916 -0.09085261 0.21758144 -0.55758536 -0.25649947 -0.1715524 -0.18637536 -0.14371581 0.15445943 -0.50201946 0.4511641 0.38709438 0.0044103265 0.26752096 0.28834122 0.066631936
</s> -0.06253969 -0.045445982 0.2347052 -0.055349782 -0.25562724 -0.54804075 0.6147578 0.6607392 -0.66626227 -0.39013913 0.2667267 -0.25082666 0.20091301 -0.19828667 0.4049088 0.17383827 0.049937956 0.27892846 -0.22345908 -0.5137537 -0.34379002 -0.34633318 0.3198382 -0.44297105 -0.076283224 0.03703627 -0.19639225 0.23035112 0.08749473 -0.08266863 -0.11606446 -0.18581825 0.3531583 0.17083229 0.22110282 0.12602907 0.5663766 -0.22767825 0.027500136 -0.25277784 -0.28896782 -0.016278338 -0.18998899 0.14935374 -0.029586744 0.013886611 0.31239477 -0.19218092 -0.409358 0.51894486
, 0.20417899 -0.05022067 -0.13192251 -0.023636062 0.31363794 0.11563066 0.015061649 0.10572764 0.35293055 0.07457708 -0.20981796 -0.19121425 0.23446843 -0.02373494 -0.020167833 -0.19302882 0.23970626 -0.086186774 -0.18383259 -0.16047524 0.11010069 -0.017565746 0.06894542 -0.15308467 -0.07127998 -0.16740282 -0.19083275 -0.20620652 0.023122886 0.10382719 -0.13352446 0.05831349 -0.04896713 0.19292012 0.11080851 0.16185528 0.27982092 -0.16150132 -0.21504998 -0.08459803 -0.019903338 -0.15791334 0.1130619 -0.14991987 -0.20186864 0.10194622 0.16016454 0.12419457 0.018682273 0.2819011
b 0.21658611 -0.23542567 -0.039929476 0.2071246 0.09986535 0.16328022 0.051797803 -0.008480634 0.082506046 -0.08208944 0.072365716 -0.05562247 0.28404507 -0.097906716 0.16564885 -0.07939917 -0.16833857 0.16449575 -0.13550074 -0.054765042 -0.13748579 0.04605819 0.050589617 -0.002038877 0.04002402 -0.12838483 -0.2511969 -0.0052724127 -0.10049144 0.11049599 -0.10618572 0.04582369 -0.0062856744 0.18133375 0.09488035 0.20377256 0.029855184 -0.0083161 -0.12086838 -0.09817595 -0.098571815 -0.093125395 -0.22801201 -0.14170289 -0.15428546 -0.08626467 0.21082063 0.13958073 0.008835651 0.006723357
v 0.19851586 0.087914854 -0.1273091 0.24815717 0.13596001 0.022561364 -0.10987937 0.07290699 -0.05871977 -0.07417395 0.042321306 -0.0061768503 0.27524886 0.020547012 0.23624997 0.008645309 -0.040862106 0.09270553 -0.018385509 -0.02427002 -0.11573812 -0.15658087 0.11480365 -0.2648328 0.014331403 -0.15256932 -0.23416322 -0.17909008 -0.08141374 0.054619547 -0.24871835 0.011821283 -0.011892108 0.098580636 0.09246868 0.0784742 -0.04353271 0.09501665 -0.22393316 -0.14323965 -0.18539003 -0.092429385 0.02736306 -0.2475765 -0.068952486 -0.027081432 0.1484684 0.18995798 -0.16706155 0.0028706088
. 0.050376236 -0.010557889 0.296549 -0.22890419 -0.15392047 -0.262189 0.17257409 0.33044684 -0.28136057 -0.41080883 0.26966068 0.017934337 0.22281852 -0.13853388 0.365484 0.018153192 0.48240587 0.37754488 -0.38921875 -0.31866077 -0.0593243 -0.38369396 0.5466752 -0.1904498 -0.24289827 -0.3314696 -0.1269088 -0.029346375 0.13933578 0.22013557 0.08984082 -0.1682593 -0.34852493 -0.14853477 0.5023838 0.19053973 0.16274455 -0.04268578 -0.21130383 0.12111302 0.05492487 -0.36446586 -0.3521566 -0.07731321 0.021187412 0.12522832 -0.12524262 0.08370804 -0.12242993 0.050525267
k -0.08452818 0.14693888 0.057826232 0.02705313 0.05874568 0.03677876 -0.03869771 0.1543157 -0.015837079 -0.081152566 -0.0009950591 -0.116279505 0.21594632 0.06916641 0.02792875 0.2324218 0.007450586 -0.08430643 -0.053677116 -0.15408598 0.16606581 0.06519915 0.049958203 0.020814355 0.071491234 -0.117194474 -0.10194389 -0.060877837 0.0512167 -0.07641291 -0.17282791 -0.08299608 0.019559488 0.29511228 0.15665767 0.12081057 -0.008151171 -0.12510546 -0.2644854 -0.04630542 -0.2568217 -0.10979085 -0.18200427 -0.25684232 -0.29427952 0.11345499 0.1548481 0.32572815 -0.06373181 -0.053372238
; 0.4042601 -0.06272534 0.00030602497 -0.02026034 0.46168897 0.22712754 0.13610585 0.21523999 0.4365169 0.09036809 -0.1599035 -0.25442725 0.17823754 -0.20151019 0.07263775 -0.47141045 0.16457732 -0.30216512 -0.019899322 0.011337214 0.16668607 -0.045981318 -0.020434603 -0.21375637 -0.34206495 -0.2932021 -0.23270783 -0.18456633 0.064956784 0.099764965 -0.19037023 0.0016988764 -0.26064098 0.069541365 0.018918958 0.09774344 0.4452346 -0.20032282 -0.3786318 0.020834822 0.085557655 -0.24516624 0.1603028 -0.0012603259 -0.42729345 0.09411226 0.06837159 0.24883048 -0.12297588 0.3853986
" -0.086694404 0.15497954 -0.24958743 0.08660209 0.047634184 -0.4961004 0.033654246 0.12878837 0.313849 -0.3124198 -0.06885081 -0.20915732 0.4140003 -0.0916482 0.10153949 0.52801144 0.20067616 0.35190675 -0.2283053 -0.66626287 -0.14605027 0.36137486 0.48978102 0.10045106 0.17789786 0.425242 -0.24480116 -0.39999458 -0.08107288 0.26811367 -0.11736267 0.3568925 0.46835512 0.33918622 -0.07531918 0.19899948 -0.21871369 0.020147644 0.363081 -0.14075282 -0.02887893 -0.119005375 -0.3492063 -0.32784048 0.5429148 0.033006847 0.266465 0.11420975 0.13548069 -0.13728014
x 0.21816242 0.032232728 -0.23209654 -0.076060526 0.03459351 -0.1531861 -0.25196633 0.037623756 -0.21910502 -0.033097323 -0.14692903 -0.14851591 0.087170534 -0.08121107 0.098619714 -0.1993621 0.14253505 0.21616729 -0.039478067 -0.19684172 -0.27605784 -0.19654767 0.11264763 -0.51136076 -0.24004379 -0.15653588 -0.20148747 -0.41156083 -0.1768036 0.32852402 0.15015922 0.084672324 0.021154512 0.2748175 0.012355035 -0.0011348078 -0.14222178 -0.12364247 0.12832902 0.013508946 -0.36723015 -0.045166615 0.17865565 -0.0058079246 -0.18830088 -0.14452536 -0.025722632 0.29571682 0.17219736 0.09038918
' 0.0864122 -0.1888924 0.41458386 -0.07694817 -0.24430929 -0.16040103 -0.3674888 0.10003827 -0.027041009 0.059029154 -0.3942084 -0.27821472 0.41691083 -0.014919172 -0.24580543 0.41865212 -0.055067807 0.16427709 -0.24628383 -0.38917664 0.04527484 0.54211 0.09322427 -0.06104005 -0.14873818 0.07206632 -0.26780316 -0.2752135 0.22295195 -0.052264925 -0.27108628 -0.14088596 0.27019945 0.43492615 0.1883966 0.10119209 0.25954393 -0.2564455 -0.30297536 -0.031226417 -0.02539214 -0.36974156 -0.37215292 0.04806752 -0.1259137 -0.0066581503 0.13924538 0.022327127 0.12524319 -0.08719092
q -0.14940658 -0.24249122 -0.15556535 0.08543464 0.0970965 0.45802736 0.028235616 0.1624456 0.117592596 -0.091397986 -0.1825201 -0.42733204 0.44403931 -0.304219 0.12452977 -0.24943052 -0.26154214 0.29587555 -0.17659302 0.0745959 -0.4986086 -0.16835748 0.1241793 -0.041633796 -0.28845054 -0.09382203 -0.42716506 -0.004000375 -0.28209648 0.057050392 -0.063976526 -0.17346248 0.15879196 0.07705422 -0.022588924 0.28687474 -0.04687529 0.27748916 0.022646207 0.23705347 0.1162653 -0.069392204 -0.22063345 0.10514283 -0.13415909 0.12541503 0.21826696 0.296752 0.039769847 -0.06867201
j -0.030450586 -0.17732969 0.0010442126 0.19337024 0.09406919 0.061060816 0.02189764 0.3476203 0.14501247 -0.31017748 -0.14864403 -0.4789449 -0.08610649 -0.082690604 0.057169337 0.099496685 -0.2761878 0.18622929 -0.13548638 -0.15731348 -0.30804157 0.1120442 0.18496269 0.0431535 -0.16580056 -0.033195995 -0.23352376 -0.14969833 -0.16405733 0.12204209 -0.095662065 0.0032438005 0.10427866 0.08587538 0.0751663 0.082215525 -0.12966062 -0.10091977 -0.12635127 0.03311571 -0.2321987 -0.06943301 -0.07508351 0.019620782 -0.15850703 0.1367715 0.1896018 0.3837568 0.039250966 -0.14235404
z -0.026907066 -0.080946915 0.09654822 0.3662574 -0.022189988 0.13485162 0.29610896 0.17599508 -0.21001016 -0.21530172 0.006967227 0.0020150577 0.15001349 -0.3148419 0.18172081 0.31775475 0.29701045 -0.15948696 0.08808193 -0.45276234 0.32287765 0.09453006 0.0843344 -0.07287279 0.082779184 -0.062364593 -0.56159055 -0.45208207 0.1431364 -0.242039 0.08778757 -0.09068721 0.36224198 0.028653013 -0.02071606 0.48131374 -0.16384621 0.21912403 -0.05563801 -0.097912446 0.30296013 0.018164659 0.09939133 -0.42176563 -0.35022417 0.32381538 -0.05518201 0.41796222 0.008074322 0.0030004256
? 0.2311327 0.24247076 0.22189415 -0.30749813 -0.012757636 -0.35330728 0.22151491 0.3436244 -0.03649907 -0.60898924 0.07218282 -0.26476252 0.4990206 -0.20176499 0.19012678 0.2783998 0.7121973 0.54932 -0.6903374 -0.62030435 0.26429373 0.10889279 0.7684063 0.020881154 0.117854476 -0.13572371 -0.20149268 -0.10159851 -0.14025094 0.28967682 -0.07178795 0.03541856 -0.38703966 -0.16067676 0.21742994 0.10350738 0.14601332 0.179305 -0.16270497 0.2900048 0.24725865 -0.47032633 -0.3544665 -0.28870812 0.29667315 0.17919491 0.046217784 0.007098739 -0.04603588 0.028411126
: 0.42636132 0.0502881 -0.093973495 -0.13324201 0.47106695 -0.04841874 0.02326432 0.2242361 0.62891674 -0.09276049 -0.3425015 -0.39382145 0.30740505 -0.19435209 0.035411533 -0.124895036 0.2727742 0.039633673 -0.046331316 -0.6008091 0.027675604 0.015820874 0.20976557 -0.16402765 -0.14242382 0.0062118843 -0.26861593 -0.28491378 0.046329305 0.34648055 -0.2853005 0.22092193 0.12349654 0.08564745 -0.086780995 0.17667252 0.252199 -0.09714822 -0.04844176 -0.080738835 0.15021239 -0.1542739 0.21842149 0.07325891 -0.22132255 0.048130944 0.0922828 0.15912682 0.04740324 0.3871496
é 0.17739795 -0.11648569 0.08779611 -0.12586844 -0.15210986 -0.27092737 -0.25726154 0.06083443 -0.016859548 -0.032638323 -0.38975814 -0.3637434 0.35502705 0.06066793 -0.12780939 0.20665652 0.030621136 0.4091668 -0.25526124 -0.30403554 -0.12737411 0.18293467 0.15522178 -0.15445462 -0.10779941 0.09167679 -0.15604922 -0.23636413 0.08307755 0.1638758 -0.13463582 -0.0057564867 0.07169087 0.45319587 0.12988696 0.11577311 -0.0037502104 -0.08352756 -0.0805987 0.054514684 -0.043582745 -0.37941223 -0.19522268 0.13650578 -0.1798283 -0.07881994 0.3814054 0.0600769 0.15158466 -0.18738255
æ -0.046172164 -0.11860499 0.058596127 -0.04872892 -0.053904682 -0.16932169 0.08882046 0.29513767 -0.1255963 -0.29449546 0.016014446 -0.2991357 0.36161232 -0.1025503 0.04204025 0.09788729 0.10626882 0.23358335 -0.12222074 -0.38766986 -0.098853126 -0.07501062 0.36816412 -0.110376656 -0.07721711 0.011564021 -0.19791041 -0.045009367 0.015171014 0.17942646 -0.09116695 0.032661293 0.122323416 0.24711949 0.08011287 0.15515691 0.13320862 -0.065273374 -0.031462863 -0.047520492 0.06696192 -0.18845272 -0.14841455 0.094443776 -0.15077016 -0.081052415 0.24782048 -0.019740624 -0.105948254 0.016352307
ê 0.042444717 -0.045701046 0.07179364 -0.023657072 -0.18015428 -0.2308965 -0.0010933104 0.20611155 -0.05717702 -0.22438113 -0.055758078 -0.20876463 0.32363707 -0.09601246 0.100630276 0.124341 0.12808883 0.12140458 -0.12572236 -0.3545255 0.029517645 0.04981882 0.24741185 -0.100594886 -0.03937382 0.027643407 -0.22272292 -0.17912897 0.031620566 0.18461455 -0.10419503 0.08566886 0.07470449 0.17530902 0.085378364 0.13516861 0.08478149 -0.055679213 -0.10018792 -0.08133331 -0.0370651 -0.18578294 -0.12918295 -0.028495379 -0.14605647 -0.03929879 0.18779793 0.027156422 -0.01799153 0.033582937
ö -0.055868734 -0.069863774 0.12911893 -0.03236264 -0.18794963 -0.20012262 0.08243061 0.29864216 -0.20800948 -0.32429886 0.09724729 -0.20880999 0.32046208 -0.1184392 0.17459385 0.16224538 0.22265024 0.22517082 -0.26320943 -0.3951709 -0.011665847 -0.04676024 0.4055856 -0.17060216 -0.035823934 -0.02357936 -0.19427472 0.04851224 -0.006666235 0.119689554 -0.10150598 0.0013670574 0.09326437 0.13610272 0.18007152 0.072273776 0.2459615 -0.04374259 -0.037979405 -0.06720194 -0.051799342 -0.1792912 -0.2667268 -0.01621287 -0.054253932 -0.08204262 0.13699849 0.026040364 -0.06339845 0.15373959
è -0.035842225 -0.046137225 0.098434895 0.044185497 -0.11552954 -0.18062063 0.11825522 0.28674978 -0.21824075 -0.30450934 0.09463022 -0.24984902 0.38236845 -0.12185785 0.15540437 0.06545233 0.13398111 0.27539787 -0.24216847 -0.33143315 -0.093109034 -0.02913714 0.28770342 -0.10442299 -0.022790818 -0.039213102 -0.2179853 0.0064081885 -0.057632066 0.08763879 -0.07254629 -0.03911683 0.11871304 0.17830047 0.06252417 0.073107146 0.21737795 -0.04956591 -0.048628055 -0.042020287 -0.052593138 -0.14291494 -0.20330343 -0.008887186 -0.034382388 -0.031212853 0.18310693 -0.034947556 -0.05563862 0.078754276
ë -0.0030723796 -0.04530268 0.13112165 0.032028854 -0.1699792 -0.07244769 0.110915095 0.21686427 -0.27802527 -0.31382695 0.14761907 -0.12393614 0.24030282 -0.10851703 0.1658969 0.10439844 0.1375847 0.19738193 -0.16695386 -0.29634497 -0.067550935 -0.12744863 0.2989994 -0.17771068 -0.07253383 -0.11079045 -0.26856655 -0.0027320706 0.0484449 0.05259203 -0.0433098 -0.08714117 0.042409115 0.07167602 0.22717404 0.16336839 0.11790007 -0.028331676 -0.0930172 -0.04963944 -0.11172592 -0.14967537 -0.20229726 -0.04930459 -0.08897019 -0.0036159367 0.028579148 0.077332504 -0.13010865 0.05081886
à -0.0034166814 -0.09202223 0.05996374 0.028329482 -0.102872305 -0.1582524 -0.03138143 0.17829715 -0.0027156582 -0.20709983 -0.055584658 -0.25058934 0.38108575 -0.088086866 0.0020028763 0.106390394 0.1297022 0.14563324 -0.19005808 -0.32718816 -0.01669273 0.11369642 0.26112312 -0.034295537 0.008511026 0.039842024 -0.18095185 -0.18334648 -0.0012285797 0.16772851 -0.06199578 0.12263209 0.111861646 0.26780102 0.023564365 0.08076282 0.066208154 -0.083308466 -0.018046014 -0.023866436 -0.018485377 -0.16925822 -0.15808097 -0.07465381 -0.12514538 -0.07086468 0.23291156 0.04768018 -0.0028252983 0.006583484
ô -0.055742547 -0.0349389 0.092926025 0.014014565 -0.22470959 -0.21194094 0.15368438 0.25995362 -0.3274604 -0.34511432 0.18071736 -0.12344859 0.2521616 -0.10112972 0.25048378 0.09439867 0.14161323 0.258433 -0.19980413 -0.2699801 -0.14599477 -0.13776098 0.33935288 -0.16348267 -0.031983625 -0.06785902 -0.17438523 0.01866337 0.0040777046 0.11400272 -0.037540507 -0.022731505 0.07092162 0.12921107 0.16867353 0.10847403 0.12525187 -0.05057985 -0.025725326 -0.055989895 -0.112758115 -0.12975913 -0.22106166 -0.057086315 -0.039033297 -0.057206385 0.1141658 0.017515242 -0.15242048 0.09306534
ñ -0.053906254 -0.059933297 0.11195563 0.061312128 -0.18390863 -0.20982443 0.19584116 0.31387827 -0.2985249 -0.3749188 0.109047525 -0.20979704 0.2963309 -0.15950194 0.22300117 0.17410089 0.2248522 0.24044776 -0.17384098 -0.4624297 -0.0048293783 -0.014845637 0.36919376 -0.09320022 -0.004357599 0.023230232 -0.30958307 -0.01878256 0.03981804 0.06450163 -0.046454575 -0.018679742 0.17784944 0.08689894 0.11332966 0.15443869 0.16186357 0.016578233 -0.06079938 -0.098124005 0.021736745 -0.13703622 -0.21745433 -0.070485584 -0.05683124 -0.02656633 0.14785458 0.047850087 -0.080459826 0.115531586
ä -0.019880999 -0.043379262 0.090274945 0.034382362 -0.18632528 -0.15467207 0.038184628 0.20996761 -0.27490893 -0.25068656 0.05065 -0.16650009 0.27279097 -0.035115533 0.14200123 0.104811855 0.12242943 0.23458207 -0.19436812 -0.28995126 -0.09054194 -0.07309968 0.3128349 -0.1747456 -0.07216243 -0.076392315 -0.21243049 -0.023270749 0.03949771 0.09187393 -0.073798634 -0.05683867 0.08207207 0.1343842 0.15973236 0.1080918 0.14301904 -0.04436091 -0.07389408 -0.07390614 -0.066066794 -0.173675 -0.19407734 -0.026328677 -0.080643184 -0.06081065 0.12459055 0.06803919 -0.062802054 0.060549777
ï -0.00019655914 -0.04556555 0.13999969 -0.015233306 -0.18466675 -0.15187097 0.14623053 0.25744298 -0.25103182 -0.29178613 0.1493669 -0.09405796 0.24179704 -0.10167999 0.2327289 0.042325515 0.12621237 0.15220143 -0.11020631 -0.2623962 -0.08350356 -0.16719258 0.27370518 -0.19490561 -0.09724238 -0.08911781 -0.19751807 0.004672662 0.054760784 0.08038066 -0.033597697 -0.030234473 0.044105396 0.10615189 0.20757265 0.11773132 0.15855445 -0.023738837 -0.06562383 -0.062672414 -0.09849844 -0.124705695 -0.181179 -0.047847096 -0.113909066 -0.084641576 0.097747095 0.085384026 -0.13648063 0.098743655
â 0.045738798 -0.05579304 0.1153366 -0.027279837 -0.10302728 -0.17510575 0.116897956 0.26801962 -0.16349784 -0.29095685 0.05672834 -0.18289304 0.27304414 -0.09210078 0.14902356 0.07015245 0.20005865 0.22466613 -0.1861273 -0.3310874 -0.083756275 -0.06885284 0.2925038 -0.14935534 -0.043070946 -0.071068555 -0.19027638 -0.044569273 0.0069272257 0.13562705 -0.06149189 -0.0050556725 0.080325276 0.13753496 0.13972796 0.10064693 0.12276474 -0.03013216 -0.056392223 -0.037073184 -0.047482423 -0.17136374 -0.17407297 -0.056085825 -0.0565565 -0.031496953 0.14102879 0.05148156 -0.043710824 0.09998263
ü -0.020537501 -0.06986375 0.11406713 0.007239413 -0.15663962 -0.12936811 0.16602252 0.27005368 -0.23486935 -0.32014698 0.1354543 -0.12729499 0.24468987 -0.0846529 0.16136394 0.05944342 0.14707592 0.19586246 -0.17030984 -0.24702884 -0.10918376 -0.14236183 0.26706856 -0.13329782 -0.08038631 -0.108335674 -0.18866244 -0.038598023 0.030982874 0.06725123 -0.031438947 -0.0086905155 0.05395486 0.13915858 0.18771662 0.12018455 0.1439058 -0.0646295 -0.05763534 -0.04842936 -0.07252578 -0.14459787 -0.16279654 -0.08879178 -0.06459695 -0.033658702 0.14789863 0.057098877 -0.09710996 0.06657661
ο -0.0065266285 -0.06874656 0.09143697 0.0015456863 -0.10333269 -0.13294606 0.12448289 0.26962775 -0.16258709 -0.2657039 0.11953727 -0.123722464 0.2719204 -0.106306 0.18501633 0.05371844 0.068751305 0.09804613 -0.1384056 -0.23318517 -0.104779184 -0.14273597 0.24515179 -0.1543331 -0.043621235 -0.09530741 -0.16832231 -0.085010976 0.016024193 0.11767637 -0.020887895 0.048076782 0.03898857 0.20692733 0.20050201 0.17179656 0.10188293 -0.060688972 -0.014766104 -0.032008614 -0.13577932 -0.15531331 -0.19474818 -0.098315954 -0.13147792 -0.0639904 0.15334764 0.088016786 -0.10207748 0.07225637
ἶ 0.017797032 -0.08039221 0.064383425 -0.0132144615 -0.0635241 -0.09903092 0.073841214 0.21162802 -0.09532967 -0.21002829 0.06154975 -0.06842715 0.2273444 -0.08650127 0.13048527 0.023359261 0.06083523 0.06250095 -0.09052783 -0.18620935 -0.08999459 -0.13626124 0.14405896 -0.14689822 -0.048914142 -0.10762279 -0.14310583 -0.13196033 0.025212439 0.12574498 -0.022118397 0.06754391 -0.010197652 0.17124307 0.17527278 0.18531287 0.0763528 -0.073781334 -0.025326831 -0.050512966 -0.13156901 -0.13394845 -0.13772655 -0.106356785 -0.19235663 -0.05527035 0.11772382 0.10891892 -0.111829065 0.068260714
δ -0.015605624 -0.09052161 0.03878862 -0.007774615 -0.056190208 -0.10879268 0.06976299 0.19450556 -0.121979386 -0.22773178 0.08766645 -0.09574851 0.22022954 -0.079896376 0.15604433 0.028671607 0.057735786 0.029919824 -0.08518191 -0.17357007 -0.10423018 -0.1411022 0.136516 -0.1248101 -0.046990365 -0.10673546 -0.14526844 -0.11940587 0.021595435 0.117492415 -0.0030549623 0.084130995 0.01737539 0.19036849 0.16097295 0.16775505 0.059756782 -0.04854555 -0.025410093 -0.021151882 -0.13856572 -0.11878285 -0.1298791 -0.10824764 -0.16909766 -0.051881127 0.0917235 0.13532175 -0.10964373 0.06755661
α -0.02500956 -0.08979689 0.05063089 0.011015377 -0.058155112 -0.08345095 0.10432809 0.1872723 -0.12840769 -0.20752336 0.076489314 -0.06337284 0.22242385 -0.09259836 0.13076586 0.011456059 0.053764824 0.044877354 -0.07464567 -0.17222112 -0.072562434 -0.13450022 0.17262891 -0.11902045 -0.07185394 -0.12351555 -0.13364193 -0.102408394 0.025216216 0.12016734 -0.010631614 0.061963417 0.013876804 0.18218832 0.17195627 0.17860554 0.028944204 -0.057597075 -0.025533807 -0.022755994 -0.105089374 -0.12083052 -0.15400454 -0.09939046 -0.15423153 -0.037585467 0.11441848 0.10293848 -0.07858886 0.049355835
π -0.01954194 -0.03386769 0.087262094 0.0102890795 -0.13809742 -0.120397136 0.09071645 0.16985331 -0.21254534 -0.23939309 0.09396534 -0.11259499 0.19954641 -0.08717349 0.13296165 0.055246178 0.09811695 0.15316279 -0.15530908 -0.20764467 -0.08299293 -0.10874676 0.21654819 -0.12019618 -0.048665326 -0.08538469 -0.13483152 0.007423321 0.006611753 0.08514858 -0.028097559 -0.0152579155 0.03514524 0.11159085 0.14670084 0.08116401 0.09326934 -0.023552513 -0.03413446 -0.045873325 -0.07404965 -0.12392045 -0.16093697 -0.062322628 -0.064530805 -0.045804948 0.10505783 0.046251714 -0.06862134 0.060845155
ν -0.0073530646 -0.018166844 0.086250156 -0.009506611 -0.10878513 -0.11793013 0.11588979 0.16937602 -0.16244914 -0.21160622 0.12516099 -0.100838006 0.17712279 -0.07523398 0.15380125 0.043011107 0.08537851 0.12231365 -0.11649755 -0.18364468 -0.09793152 -0.087803714 0.2005022 -0.10399801 -0.047789827 -0.06776365 -0.15963337 -0.0069608632 0.010224879 0.058506552 -0.020848863 -0.032614708 0.041358314 0.07463258 0.13438167 0.08816176 0.08956834 -0.003371884 -0.006879453 -0.05750566 -0.10206228 -0.093303874 -0.17499106 -0.044007305 -0.05063784 -0.023763724 0.050047956 0.042608958 -0.08485417 0.07165261
υ -0.020264653 -0.049867257 0.11706971 -0.025069548 -0.14095366 -0.13793851 0.10440937 0.18380208 -0.22633198 -0.22204138 0.09903646 -0.11753171 0.20850775 -0.0801091 0.14895417 0.06028264 0.08551913 0.17578632 -0.14708954 -0.237335 -0.0782528 -0.10454973 0.25607634 -0.15364696 -0.06881285 -0.08740258 -0.16467041 0.0072892793 0.027753023 0.059460167 -0.04493189 -0.050019387 0.04728628 0.098232 0.18232404 0.0713947 0.099757485 -0.039750423 -0.022551103 -0.04179685 -0.08675382 -0.11570059 -0.16108678 -0.042600457 -0.037864882 -0.030758588 0.08663494 0.031777695 -0.10597763 0.045347538
ς -0.005358978 -0.0519816 0.04044448 0.013000165 -0.105432585 -0.07951784 0.080885045 0.12979582 -0.12088168 -0.16119455 0.059782732 -0.074323945 0.19268143 -0.04812113 0.09770844 0.041158993 0.07340053 0.08486012 -0.08373932 -0.14721435 -0.048515785 -0.09014127 0.15969671 -0.07189029 -0.019149715 -0.07389343 -0.115504324 -0.037645753 0.007717882 0.070906125 0.00053887675 0.022646777 0.049366545 0.0962411 0.108749144 0.103305094 0.07214877 -0.04451285 -0.031847026 -0.04327876 -0.103759505 -0.067588374 -0.109756336 -0.082947455 -0.06871766 -0.015825769 0.090961605 0.046144236 -0.0632177 0.06081865
å -0.05244908 -0.03193418 0.060036935 -0.009178597 -0.11191473 -0.110623464 0.08728194 0.1510612 -0.18370576 -0.17820568 0.11060852 -0.0794664 0.14823762 -0.0666599 0.11555689 0.03470661 0.058629118 0.11453277 -0.09426164 -0.15535843 -0.061097674 -0.11309847 0.21784711 -0.082616664 -0.032657504 -0.07446836 -0.12136406 0.0022214132 -0.007973184 0.060657706 -0.015368268 -0.028336452 0.015248735 0.075217806 0.117214546 0.07050001 0.098456144 -0.030960117 -0.031135287 -0.051193547 -0.072951846 -0.07163779 -0.14331336 -0.044695895 -0.046025217 -0.037380185 0.046355136 -0.0050024143 -0.07697853 0.07657886
ç -0.029252393 -0.050620895 0.07673759 -0.031194843 -0.0658726 -0.08475989 0.076594695 0.16567543 -0.1480696 -0.18943311 0.08791924 -0.07381942 0.16249506 -0.06285649 0.161903 0.021057537 0.058975883 0.06746664 -0.08336373 -0.16741577 -0.07876375 -0.12055423 0.14391883 -0.0913448 -0.025185106 -0.050584957 -0.104411356 -0.014107901 0.028227527 0.06430318 -0.037318345 0.01760907 0.005550989 0.08504904 0.163055 0.09844183 0.066276096 -0.024749568 -0.021123143 -0.0066635585 -0.10243435 -0.08765463 -0.11959897 -0.019062618 -0.08221281 -0.028669735 0.04971263 0.06450519 -0.10255747 0.038472433
î -0.008363022 -0.0039348295 0.05567162 -0.0060663577 -0.11441933 -0.13616103 0.10605517 0.15974578 -0.15707222 -0.19303417 0.0998233 -0.09160218 0.17993726 -0.0478175 0.13195725 0.060347803 0.108229384 0.16676974 -0.16485487 -0.18870775 -0.053039193 -0.046041075 0.2140751 -0.10744393 -0.03619586 -0.051568888 -0.11158467 0.037454654 -0.0010910318 0.058269866 -0.051014107 -0.038932063 0.032878976 0.06220027 0.10486153 0.07094099 0.092121884 -0.021705305 -0.019853592 -0.049685646 -0.071345136 -0.061738227 -0.11337291 -0.01617065 0.03706291 -0.012342223 0.064874746 -0.0114622805 -0.07838623 0.056599185
