60 100
_ 0.09797121 0.0033203603 -0.0012694573 0.0019111341 -0.035537228 -0.069687344 -0.1367489 -0.07621182 0.13115841 0.0655045 -0.013837808 0.14688352 -0.07664385 -0.071578674 0.04457665 -0.0016870874 -0.04868756 0.05077309 -0.053023513 -0.15203112 0.012164014 0.32342204 0.036895614 -0.071147 -0.025230905 0.10636134 -0.023350779 0.029405188 -0.14116739 0.08307518 -0.15100564 0.019946821 -0.12568504 0.13542601 -0.0772366 0.17793953 -0.032183908 0.017653788 0.01603736 -0.02888044 0.018275479 0.031973775 -0.049918775 0.012432954 0.05099646 -0.106499046 -0.1651319 -0.008526283 -0.016508115 -0.06633456 -0.033854667 0.00839651 0.07104051 0.029210497 -0.012207063 -0.010391743 -0.071865045 -0.0020809355 -0.015261594 -0.00065654627 0.05196163 -0.09969006 0.08343331 -0.0030580112 -0.012509567 0.023599489 0.00087412354 -0.10767409 -0.028320266 -0.08559546 -0.13461004 -0.030524055 -0.08307987 -0.035886016 -0.042466115 0.025175618 -0.14191362 -0.020836784 -0.03455549 0.023023298 0.26104996 0.071583316 0.021755574 -0.019347385 -0.027285824 0.08119844 -0.059444107 0.10463777 -0.07664353 0.14371681 -0.17080422 -0.04448672 0.043720756 0.033065643 0.024807531 -0.08910361 -0.05083281 0.10304899 -0.09457056 -0.09828997
e 0.04022363 0.001043665 0.08035375 0.101693064 -0.0023938257 -0.0048012757 -0.11620905 -0.057574958 0.12063376 0.02828753 0.02896217 0.023820974 0.020815114 0.027035164 0.07255688 0.009563602 0.05260915 0.0946046 -0.08311728 -0.12798014 -0.024354648 0.10626384 0.012010308 -0.07444263 0.028246183 0.16411385 -0.009144459 0.027773757 -0.053151518 0.014566557 -0.04771495 0.030311318 -0.053995065 0.11737219 -0.00772219 0.21369892 -0.023173934 -0.038533717 -0.04591142 -0.011523623 0.052728985 0.036423657 0.0026374264 0.047901027 0.052229594 -0.04537121 -0.16250463 -0.061387178 -0.027368763 -0.12666552 -0.0041980115 -0.13454585 0.062459487 -0.04663714 -0.10832027 0.029559715 -0.07390777 0.025758866 0.034560338 -0.04614085 0.051821068 -0.081241846 0.08065834 -0.0144669395 0.07542784 0.0003078484 -0.055942208 -0.088725574 0.028648917 -0.039637916 -0.10949923 0.016773857 -0.22697519 -0.0051841578 -0.10544404 0.0420599 -0.1782174 -0.14066778 0.0035536105 0.047011323 0.188978 -0.023518598 0.03438262 -0.11231551 -0.07534132 0.13175294 -0.032170407 -0.027250255 -0.09530042 0.04919702 -0.23517726 0.05629938 -0.013947014 0.00074729795 -0.06726828 -0.04659573 -0.14322098 0.12995258 -0.13147603 -0.0154792555
t -0.08414345 -0.014107481 0.024334354 0.13520987 0.0018063962 -0.06659618 -0.007965709 -0.04871864 0.039455853 -0.015368796 0.052231543 -0.02011233 -0.105254315 -0.011993702 0.08563546 -0.00045206404 -0.026056968 -0.047130246 0.08864904 -0.06910999 0.07986368 0.19318822 0.097038925 -0.0047043795 0.018137945 0.1246898 -0.096177965 0.066577815 -0.17945513 -0.008096875 -0.15427275 0.07574864 0.0111027 0.12098817 0.06094943 0.11263294 -0.08172177 -0.043444805 0.036055546 0.058990672 -0.0023708327 -0.051369544 -0.0245945 0.045142755 0.030841729 -0.115844786 -0.07894925 0.021033954 0.08390842 -0.09595909 0.014044784 -0.077702306 0.08052833 -0.015026316 -0.014116754 0.1156142 0.0009686251 -0.025383195 -0.028117118 0.07603073 0.013539039 -0.1065823 0.09715871 0.013661815 0.040263325 0.006069312 -0.04711444 -0.06605139 0.04362216 -0.03689062 -0.11435036 0.017762532 -0.18806052 -0.06392819 0.0027612846 0.08047083 -0.17022216 -0.053573236 0.059118822 0.0751893 0.19183011 -0.014339639 0.09950576 0.0142522575 -0.104970634 0.14796408 0.011294152 0.06216477 -0.04266021 0.11059883 -0.1527427 0.09034771 0.13411976 0.027230738 -0.026840257 -0.046338577 -0.09384771 0.21485461 -0.12524015 -0.07299208
a -0.047550913 -0.013083828 0.099235244 0.024720836 0.0014720055 0.012149865 -0.044221092 0.008767091 0.06674692 0.080266386 -0.01901623 0.09715909 0.02590965 -0.003613181 0.06398181 -0.033288382 0.069012634 0.06338926 -0.094506465 -0.17647974 0.13615312 0.13413265 0.005490392 -0.12861973 -0.0043641157 0.11281291 0.0057384525 0.033415556 -0.10188093 0.027465424 -0.03329235 0.043599997 -0.04433514 0.01871594 0.04189643 0.24053638 -0.06437831 0.06515038 -0.0752087 -0.019652575 -0.01460627 0.056580108 0.05626206 -0.06741546 -0.005745844 -0.09973478 -0.15626739 0.026225481 -0.014616435 -0.07640979 -0.057465784 -0.01947561 0.14044501 0.020242536 -0.031971656 0.061991584 -0.012289605 0.019959433 0.003841475 -0.023938077 0.041911192 -0.12879981 0.08224656 -0.041212372 0.038270302 -0.026207853 -0.10325021 -0.050647836 0.045646645 -0.105205245 -0.078899875 -0.046869263 -0.20111978 0.008855932 -0.11009744 0.08150824 -0.12501644 -0.09882222 -0.06792787 0.04883496 0.16157854 0.05480629 -0.026725665 -0.022315575 -0.06299375 0.10144873 -0.037925087 0.14860229 -0.029617213 0.07424301 -0.20481807 0.017056081 -0.0489116 -0.118619785 -0.074230075 -0.08872721 -0.16272801 0.1553403 -0.041273 -0.0071774963
o -0.088824615 -0.02869118 0.0044006053 -0.05358905 -0.051986057 -0.02571934 -0.02405428 -0.041947782 -0.01383538 0.07138096 -0.059391085 0.03175427 0.023206133 -0.049848247 0.069343746 0.035632376 0.0009141059 0.069444 -0.07973119 -0.17603967 0.06661512 0.19272508 -0.026608847 -0.04473813 -0.0003875428 0.099970095 0.046142958 0.021194497 -0.19493833 0.045031607 -0.057272993 0.005673134 -0.005037068 -0.0023791317 -0.009535672 0.19462629 -0.051326852 0.07193632 -0.12821262 0.030770233 0.019262532 0.035121992 -0.003620014 0.030944208 0.0261603 -0.099622026 -0.15445471 -0.0045833173 0.040631875 -0.07950384 -0.021940688 -0.050681934 0.088853605 0.012337193 -0.010297968 0.14297345 -0.03307247 -0.00995506 0.07118309 0.023750164 -0.008558081 -0.09772884 0.052674934 0.010276479 0.10428532 -0.035725243 -0.052162554 -0.07728115 0.10840734 -0.1274549 -0.13356914 -0.041148428 -0.23797283 0.0041897716 0.017813466 0.043803714 -0.26151285 -0.056670103 -0.09099634 0.09606894 0.12870616 0.024464896 0.01871998 -0.0034367908 -0.08700155 0.13000661 -0.00616731 0.08925178 0.0048842668 0.13426329 -0.188497 0.07574921 -0.026763584 -0.04743963 -0.021121953 -0.07628764 -0.11630375 0.20085418 -0.07963376 -0.016479338
n -0.018556695 -0.037150566 -0.06876137 0.09085701 0.11812336 -0.053856876 -0.10591079 -0.13918675 0.030450325 0.07469149 -0.10263593 0.02679056 -0.006953752 0.074459 0.19288385 0.034218956 -0.03101521 -0.008857615 -0.007923463 -0.08358908 0.013246166 0.1731608 0.06870369 -0.11204235 -0.07217314 0.040242665 -0.15618654 0.10546709 -0.08691644 0.037669655 -0.112609565 0.010912375 -0.111492 0.07267058 0.005951655 0.061746173 0.0061404747 -0.048327953 0.08113622 0.03291928 0.082209475 -0.020143801 -0.09805667 0.04738339 0.034126848 -0.021738986 -0.11311137 0.0123737315 0.073787786 -0.095680684 -0.013626677 -0.076173835 0.14305338 -0.03283358 0.0011461412 0.11623106 0.0110851405 -0.038044143 0.035840653 -0.013969608 0.06561847 -0.13040073 0.1052773 -0.0706151 -0.0040827757 -0.016005466 -0.089344606 -0.08447526 0.03992813 -0.060548447 -0.09424295 -0.0146924555 -0.2679975 -0.10998893 -0.15625696 0.08566972 -0.095052674 -0.091712214 -0.002557251 0.09498307 0.22107086 0.005668764 0.007407634 -0.07685377 -0.07095244 0.16165626 -0.17081298 0.099550836 -0.07812272 0.093626 -0.020957349 -0.029978074 0.00082926644 0.054932643 -0.117755994 0.0016656452 -0.10596007 0.14755042 0.004275716 -0.02465989
i -0.08217997 -0.02742944 0.09210846 0.070751436 0.050384533 0.04068939 -0.07288858 0.0077592353 0.082556896 0.15524176 -0.0693883 0.1084982 -0.05686574 -0.013448571 -0.023035645 -0.00517129 0.018385679 0.07757941 0.02155048 -0.09280098 0.100542106 0.12519188 0.07082433 -0.08272043 0.04514032 0.14552103 -0.08949679 0.03576179 -0.07450543 0.068347126 -0.03847895 0.074037485 -0.04232243 0.14394759 0.019584874 0.29283875 -0.1029312 0.06216027 -0.047781385 -0.03105805 -0.021011952 0.06597563 -0.025215598 -0.026887009 0.055209834 -0.092964664 -0.1715025 -0.0024200724 0.0589116 -0.11162957 0.007637861 -0.14819418 0.15052384 -0.054380335 -0.029816281 0.12821768 -0.038902692 -0.020168329 0.01738381 -0.0074707256 -0.004844186 -0.11078861 0.14532483 -0.0743352 0.113197446 -0.035844058 0.0076345275 -0.055643193 0.0056793895 -0.042065296 -0.12548253 -0.00021736798 -0.20708331 0.003088067 -0.10789679 0.062402837 -0.11930563 -0.12971805 -0.040603124 0.012908509 0.15505575 0.024946945 0.045385372 -0.0019566428 -0.07393982 0.1211346 -0.02077648 0.04995266 -0.029023843 0.026671682 -0.1775766 0.08815556 0.03270811 -0.0644161 -0.04903759 -0.04665942 -0.041408427 0.1625343 -0.025322668 -0.06056353
s -0.02666837 0.0070956172 0.024627447 0.094307095 0.0075469995 -0.009260344 -0.07793586 -0.10368542 0.05323492 0.07713369 -0.015995216 0.011312872 -0.020210106 0.016301481 0.11870512 -0.0061516315 -0.0999305 -0.035975028 -0.03576729 -0.12181493 0.039052065 0.21872231 0.03443662 -0.07468626 -0.039759744 0.06541488 -0.057926238 0.076073825 -0.18071407 -0.038135447 -0.12511769 0.022358816 -0.02356773 0.07512434 0.055758182 0.08742874 -0.05524142 -0.009815673 -0.055722382 -0.024873797 0.028445665 0.0014870613 -0.010457826 0.029894369 0.0007390093 -0.117991775 -0.059002366 -0.0033338214 -0.01616483 -0.052459367 0.0352705 -0.07288919 0.100846455 -0.035227504 -0.028432952 0.02424495 -0.00274781 0.05234274 0.04236067 -0.0058605894 -0.028764317 -0.116461 0.051787194 -0.012178757 0.055688046 -0.083920024 -0.05687972 -0.026276974 0.014251815 -0.05286783 -0.14286341 0.019639047 -0.1581647 -0.069709554 -0.04761125 0.076001674 -0.08501699 -0.040363867 0.018488549 -0.020475594 0.10589032 -0.057035998 0.0011817658 -0.034851693 -0.12195094 0.12727635 -0.039902285 0.053532336 -0.020890338 0.16126943 -0.17361613 0.082330614 0.002310124 0.007908087 -0.032781057 -0.107204735 -0.014834594 0.30804932 -0.05658924 -0.012358719
h -0.009857384 -0.025604611 -0.025872977 -0.0012336153 0.038978234 -0.0785959 -0.07797274 -0.056971803 -0.064518884 0.037661932 -0.05782148 -0.06107051 -0.21280892 -0.038024988 0.19337656 0.029822797 0.011862039 0.057480007 0.00021810524 -0.12519385 0.092406474 0.15192296 0.11629808 -0.14944394 -0.08144188 0.03291459 -0.07810874 0.026205977 -0.045185346 0.047746155 -0.12247882 0.06263041 -0.07779772 0.031340547 -0.032353994 0.16935377 -0.022915063 -0.06856999 -0.033635844 -0.028830564 0.036855552 0.073814996 -0.06777653 -0.025436813 0.05390011 0.025916526 -0.08530581 -0.018423034 0.019336369 -0.052430388 -0.05884147 -0.021911941 0.0880583 -0.026972918 0.03741889 0.045370355 0.002952055 0.05685514 0.080875 0.017135398 -0.0026869345 -0.14739661 0.077241644 -0.00407118 0.025647184 -0.03724576 -0.022503499 -0.07295428 -0.0546428 -0.08497791 -0.15541504 -0.01529286 -0.09391205 -0.04082946 -0.14597112 0.029048618 -0.034329087 -0.045855958 -0.041266255 0.05056103 0.18228862 -0.01267818 0.06834477 -0.014158129 -0.106032215 0.09786165 -0.14568013 0.11204958 -0.09133461 0.1392955 -0.15705165 -0.021069026 -0.06012116 -0.042561386 -0.11813168 -0.12919283 -0.14565536 0.36752287 -0.054760914 -0.009592841
r -0.064072445 -0.03147337 0.03142967 -0.0133706005 -0.08050749 0.02478354 -0.117266364 -0.051795185 0.047008198 0.019107483 -0.0026857534 0.10812828 -0.06038153 0.031312607 0.035993267 0.03757387 -0.045283753 0.031955577 0.011519898 -0.08601676 0.076025836 0.1540469 0.07419398 -0.026216201 -0.027685849 0.039639227 0.05382035 0.03662589 -0.1082751 -0.0459735 -0.14466561 0.05887492 -0.045283478 0.111792035 0.04476368 0.03479625 -0.05497462 0.010934092 -0.010555238 -0.014396187 0.011011029 -0.0042111324 -0.09629283 0.075772166 0.0005813756 -0.1138089 -0.11110754 -0.004502102 0.052164476 -0.042235214 -0.006366413 -0.050140917 0.098772965 -0.06464305 0.01664772 0.0363705 -0.05007425 0.027616443 -0.01956659 -0.042334616 -0.0105575295 -0.08717962 0.08023305 -0.032905072 -0.00400753 0.076080635 -0.057557456 -0.09204178 0.0052757277 -0.07339683 -0.1363682 0.010390922 -0.2902657 -0.093224846 -0.119452044 0.10726647 -0.109871335 -0.10340638 -0.055374965 0.017114522 0.11385018 0.029223995 -0.04529559 -0.02394033 -0.082155064 0.16346093 -0.108726956 0.1007823 0.019998752 0.10726504 -0.121024 0.074618116 0.042569716 0.05139272 -0.022053232 -0.07636418 -0.0069804187 0.36680564 0.0048941947 -0.1324158
d 0.03300058 -0.035308734 -0.012907895 0.12493932 -0.016902294 -0.0049004643 0.000373051 -0.010764876 0.08719766 -0.030137515 0.031772707 -0.030777548 0.00037974308 0.05928603 0.054684248 -0.0021801817 -0.028720295 -0.04100192 0.032985695 -0.07088882 0.1118869 0.19291785 0.030534554 -0.006440226 -0.037350032 0.05661588 -0.0749529 0.023195187 -0.109048605 -0.0028934386 -0.124174334 0.024655018 -0.048728377 0.11699428 0.047181193 0.2264642 -0.11788507 -0.012530253 -0.008441096 -0.1019611 -0.07003917 0.055958048 0.026386844 -0.012755596 0.019043112 -0.1721215 -0.13805972 -0.016939618 0.035425823 -0.05081342 0.0012993538 -0.037330624 0.09119721 -0.036037195 0.09137082 0.083672814 -0.03320108 0.061977997 0.0069794334 0.01567995 -0.039748438 -0.07616258 0.04557007 -0.02931693 0.00931957 -0.05964424 -0.0928262 -0.039406955 0.03340394 -0.061593078 -0.10410149 -0.009124895 -0.16907437 -0.012400352 -0.07139904 0.13155372 0.004697812 -0.047705915 0.015531299 0.038361635 0.10255299 -0.01985929 0.08592804 -0.026111629 -0.11463817 0.10236288 -0.045743514 0.062774196 -0.08940867 0.116030246 -0.10994195 0.09281259 0.047163256 0.042361613 -0.12177181 -0.12139067 -0.08019032 0.24978636 -0.085055985 -0.090121
l 0.08581196 0.0009841408 -0.010257402 0.070362486 -0.031894196 -0.016430598 -0.052149687 -0.04250124 0.021706477 0.009115094 -0.014521079 0.047183454 0.0837955 0.028201716 0.055171877 0.014706049 -0.027944162 0.045826558 -0.07473755 -0.16890346 0.08477865 0.16055542 0.03922501 -0.15525033 0.013423735 0.030515417 0.014013484 0.08510067 -0.1951573 -0.05880688 -0.092835605 0.063794725 -0.08289525 0.09530005 0.08487355 0.12915538 -0.1373763 0.09647752 0.038206823 -0.004799908 0.04617502 -0.034842882 -0.08696226 0.06986837 0.028457137 -0.14776015 -0.18792452 0.016223911 0.021772146 -0.090792425 -0.03763512 0.0078711305 0.16335833 -0.05902539 0.10311882 0.0160227 -0.07079268 0.03924064 0.05410426 0.018069278 -0.037890214 -0.14356314 0.045241572 -0.06692337 0.022180278 -0.025924 -0.1115061 0.0027692835 0.017398411 -0.06889161 -0.13137062 -0.0066414378 -0.23074263 -0.03493415 -0.11947584 0.08983915 -0.059234604 -0.10868619 0.07315628 0.067429475 0.15591651 0.0391357 -0.00010228298 -0.08426389 -0.036205087 0.10247748 -0.07483151 0.056091536 -0.11339604 0.033803843 -0.053740583 -0.05211849 0.093595795 -0.0074029113 -0.121485695 0.005743254 -0.055306494 0.21393421 -0.024772527 -0.09567163
u 0.09023616 -0.07886894 -0.096061364 0.059387155 -0.048979457 0.026419085 -0.100007355 -0.11517492 0.042069547 0.06697461 -0.02532987 0.18487446 0.04012381 0.08728623 0.058758084 -0.003376351 -0.010520343 -0.014216902 0.0018924344 0.012422114 -0.02553503 0.08815067 -0.009582919 -0.01136235 0.08696049 0.07442098 -0.09594352 0.09247137 -0.14561792 0.06058585 -0.031111898 0.07352457 0.002123466 0.15448217 0.0015922411 0.1982307 -0.12451724 -0.020538066 -0.0073034866 0.14530957 0.11653948 0.030766757 -0.094618015 0.07878679 0.114484236 -0.12599707 -0.17646213 -0.027038038 -0.03336959 -0.081647225 0.05772268 -0.07171841 -0.012271291 0.024190275 -0.18690763 -0.017379543 0.13281177 -0.0028758 -0.018402766 0.024008125 0.086614065 -0.15061796 0.109623544 -0.0964802 0.07699792 -0.13114755 -0.057885114 -0.11505859 0.033113696 -0.1032146 -0.12109411 0.022960035 -0.18519591 -0.057964206 -0.04877769 0.14340262 0.0063503375 -0.059195247 0.05648281 0.0013677714 0.26454228 -0.04990139 0.03789462 0.03249449 -0.20519897 0.16534434 0.07651626 0.12218543 -0.08687449 0.04092373 -0.27603307 0.13656391 0.03177375 -0.13293341 -0.056059852 -0.11050536 0.0046236413 0.11594909 -0.09004941 0.13545147
m 0.0832071 -0.07553587 -0.07274065 0.013771892 -0.0746149 -0.016177887 -0.062735625 -0.054893453 0.1109502 -0.09002395 -0.027120221 -0.09933012 0.08683709 0.025854187 0.044355236 0.035700675 -0.01784955 -0.01843498 -0.04679565 -0.11153492 0.09695315 0.19478132 -0.0051525887 0.058755133 -0.04276211 0.056451023 0.008532505 -0.0087642735 -0.0913787 0.02031571 -0.030568222 -0.030883579 -0.087314494 0.080390155 0.036323328 0.17276676 -0.041619044 0.013185715 0.12177498 -0.020168042 0.048774187 -0.010656504 -0.016724665 0.051375113 0.018351441 -0.16029434 -0.15776284 0.023431161 -0.038942784 -0.09466274 -0.014867678 0.023904165 0.06017832 0.0064962376 0.06290828 0.0041052666 0.0078662075 0.035257563 0.0068138847 0.0036095455 0.02323902 -0.09253889 0.13296743 -0.050776377 0.0030519941 0.005449725 -0.0774244 -0.012434131 -0.005689838 -0.23376997 -0.09707221 -0.042709555 -0.18617095 -0.010511477 -0.0847632 0.07896139 -0.07834973 -0.0691834 0.05921698 0.019771898 0.14295441 0.06320109 0.10782509 -0.09306493 -0.104861476 0.113785416 -0.057431623 0.124764934 -0.057142727 0.07003904 -0.13616197 0.056456994 0.08504328 0.038956396 -0.012717777 -0.023372557 -0.027691647 0.2788825 -0.10092475 -0.17419682
c -0.028904248 -0.055495895 0.029832063 0.018057667 0.12641497 0.008110678 -0.07970031 -0.074612595 0.11487339 0.052873127 0.011925202 0.0156067135 0.040657364 0.07573913 0.047472015 -0.024547216 -0.12595595 0.054912686 -0.025707413 -0.09419731 0.0044373814 0.24211515 -0.014126117 -0.05165732 0.03385141 0.089514196 -0.045169428 0.067372166 -0.23102356 0.0016186478 -0.14568551 0.05919563 -0.054027203 0.1245437 0.012732378 0.15684459 -0.006373989 -0.02120651 0.035713885 -0.072961904 0.070185184 -0.063386895 -0.041533347 0.075622104 -0.014047057 -0.12721865 -0.11734625 -0.032021694 0.012740959 -0.07414313 0.034806047 -0.05394424 0.05027256 -0.013975413 0.0062602656 -0.012745912 -0.07111821 0.008605908 0.027450748 0.024320265 0.0042436915 -0.0839522 -0.0005232709 -0.0059473063 0.09462114 -0.008586386 -0.085714325 -0.03595362 0.061706964 -0.071653344 -0.17369226 -0.0125424955 -0.10766853 -0.048348483 -0.00557539 0.028007157 -0.1669227 -0.051389348 0.028211838 -0.06795844 0.076651916 -0.005363664 -0.120001145 -0.05197226 -0.12505701 0.07620433 -0.0045031607 0.09456087 -0.031088702 0.12915069 -0.21320176 0.059040166 0.07246908 0.058198415 -0.023262883 -0.11129214 -0.07796601 0.22562103 -0.14224857 -0.052124746
f -0.022027023 -0.037667733 -0.03437086 0.10339615 -0.025205074 -0.034746073 -0.046048257 -0.06314065 0.13433896 0.03826719 -0.051952254 -0.03375813 -0.025589935 0.017829405 0.18167649 0.0012497534 -0.11861209 -0.0136705665 -0.041868694 -0.10596074 0.17257234 0.29249904 -0.03776407 0.10997065 -0.10305414 0.056826703 0.0014230569 -0.0454154 -0.13429177 -0.01873395 -0.17078865 0.004416715 -0.06862421 0.08022026 0.026845284 0.1868417 0.045999575 -0.10249759 0.06886183 0.015905859 0.0065948092 0.042076647 0.111678064 -0.013046969 0.054743905 0.008457447 -0.04571818 0.030029634 -0.034567084 -0.14939582 -0.04803496 -0.06559071 0.022138236 -0.023345651 -0.00985216 0.06182397 0.05077048 -0.0072558657 0.078612134 0.028644161 0.09705078 -0.13978791 0.10798839 -0.025800455 0.07015771 -0.08843632 -0.11290597 -0.01718722 0.011411669 -0.119082846 -0.07250232 -0.08628858 -0.119353086 0.011445601 -0.07223953 0.115449645 -0.013524736 -0.05258617 -0.007979168 -0.03163503 0.15580797 -0.02128193 0.020558238 -0.07186132 -0.17569532 0.14166762 -0.048162103 0.10945506 -0.00029183243 -0.0188235 -0.1638538 0.15634738 0.029601257 0.002983236 -0.034822486 -0.041455265 -0.13880906 0.17245607 -0.052810524 -0.02616841
w -0.089068696 -0.01286518 0.12674652 0.10968154 0.03913673 -0.07870303 -0.0053579896 0.048217762 0.14928053 0.008329316 0.087817706 0.026349317 -0.123859525 -0.021749701 0.120515876 -0.08705557 0.025407158 0.04948058 0.008276836 -0.16424426 0.16336763 0.15819794 0.15180475 -0.009519283 0.04655576 0.22151685 -0.060278174 0.034694266 -0.07859498 0.014784993 -0.10885029 0.11948627 0.041643076 0.105331615 0.06125678 0.18305248 0.04472279 -0.12595652 0.117860325 -0.038450416 0.009044909 -0.024671525 0.030078504 -0.0050129937 -0.01905791 -0.08023683 -0.09178751 -0.010435663 -0.022671022 -0.12533323 -0.018033845 -0.035153653 0.04501465 0.07837788 0.014700139 -0.00999444 0.0756094 -0.035238538 0.04855222 0.094027124 0.06671391 -0.1365337 0.030274624 -0.021492563 0.030751895 -0.024839036 -0.19428214 -0.0155954445 0.047915887 -0.0881712 -0.08859792 -0.05078 -0.017449012 -0.009069676 -0.12541357 0.025740113 -0.07715073 -0.08644828 0.01357169 -0.04501871 0.22341633 -0.0039675743 0.0029838467 -0.054538544 -0.17305683 0.100799434 -0.017243283 0.16629009 -0.11613229 -0.0042790123 -0.21308854 0.08237529 0.108753726 0.049184155 -0.08884877 -0.06428402 -0.23312096 0.12625822 -0.18000337 -0.094906084
y -0.07180927 0.17039096 0.08261105 0.21366516 -0.13855179 -0.020341538 -0.094725974 0.048708495 0.021603825 -0.017918475 -0.0072733327 0.14962229 0.013315172 0.09879196 0.13395292 0.0332686 -0.0008491652 0.031507786 -0.119883284 -0.098985955 0.04928646 0.26879337 -0.016009303 -0.086781226 0.008725129 0.09453375 -0.048695054 0.0982995 -0.17833029 0.012642235 -0.11790063 -0.029807534 -0.07176525 0.02619457 -0.018110022 0.22073722 -0.006925712 -0.026543463 -0.061643586 -0.01626423 0.093780026 0.06253708 -0.008256462 0.08749051 0.021450102 -0.12247902 -0.1250861 -0.10125357 -0.012325205 -0.075094976 0.04626391 -0.086179875 0.026318522 0.0074754925 -0.08729028 0.039129816 -0.009194352 0.05705587 0.01448885 -0.037116542 0.01736413 -0.046120424 -0.028670112 -0.023405882 0.12447857 -0.084217705 -0.032514557 -0.09394208 0.0562786 -0.0045300904 -0.19951575 -0.038986042 -0.26979694 -0.067141026 -0.1053455 0.1412128 -0.13272522 -0.07331046 -0.0028246883 -0.00025902246 0.08270633 -0.13053349 -0.0028971345 -0.057456613 -0.13477387 0.074965134 -0.0988854 -0.04153558 -0.033929106 0.082691096 -0.0562118 0.12846653 -0.07374738 -0.06292591 -0.06409766 -0.11012859 -0.083428845 0.22366244 -0.016417086 0.10572916
g -0.018125065 -0.0377474 0.09481222 0.026078992 0.12256744 -0.091596626 0.086204246 0.041190904 0.16794743 -0.048596144 0.07127214 0.024245849 0.08846259 0.08133326 0.042135607 -0.033655953 -0.07236256 -0.014706874 -0.03783756 -0.10992491 0.06625698 0.19012788 0.08173192 -0.016816419 0.017832207 0.15161616 -0.012817022 -0.033358883 -0.09742351 0.057056077 -0.1206763 0.05271707 -0.18647328 0.09501695 -0.0126912445 0.21902357 -0.01865672 -0.05877022 0.079732314 -0.07996984 0.010461236 0.05173667 0.05714131 -0.017839773 0.0587898 -0.054086987 -0.23718154 0.06463909 -0.016812183 -0.08810782 0.046502482 0.0020032248 0.18262257 0.008195665 0.046244387 0.07392381 -0.049689047 0.06514034 0.054214377 0.020231398 -0.056327812 -0.12826957 0.052506257 -0.008654464 -0.009777614 -0.11537476 -0.14257471 -0.02336296 0.03452532 -0.060581338 -0.14809817 -0.050577346 -0.043974724 0.05858369 0.0009254803 0.08030377 -0.096753016 0.03916747 -0.02057031 0.008477064 0.10773134 -0.055671696 0.009641907 -0.07398249 -0.13238266 0.056344446 -0.043684896 0.067114554 -0.062027987 0.26242274 -0.15916461 0.02546238 -0.031224614 0.05187463 0.036421977 -0.15474223 -0.1899465 0.17514154 -0.19221953 -0.19939888
p -0.018946558 -0.026511924 0.006267477 0.1250718 0.082960404 0.00734279 -0.095389165 -0.05321915 0.1281198 -0.057600405 0.0013509347 -0.11266759 0.07138892 0.08299579 0.055608984 -0.032316066 -0.089232475 -0.080550745 -0.0026922857 -0.098834485 0.0548164 0.26324072 -0.06308555 0.10594427 -0.16329569 0.034021653 -0.1042443 0.040944878 -0.21499068 -0.016086835 -0.1050401 -0.054750327 -0.057690598 0.1536064 0.016016815 0.13922796 0.015565446 0.020456886 0.0016961771 -0.032461524 0.039832566 0.006600584 -0.016801408 -0.0051669395 0.032472238 -0.12233189 -0.08688598 -0.06583161 -0.010175605 -0.05690702 0.014314956 -0.012324763 0.013643586 -0.045124415 0.06584217 -0.02115679 -0.02507375 0.06529424 0.057202354 0.03719096 0.030970981 -0.05685792 0.055246577 -0.0015581999 0.07968088 0.034356285 -0.08784579 -0.032110788 -0.014877965 -0.07121785 -0.0862538 -0.0583609 -0.09188983 -0.119877934 -0.098772384 -0.10372793 -0.097584225 -0.124517314 0.043870166 -0.02664997 0.22240813 0.0918211 -0.061872374 -0.049138904 -0.13876773 0.162642 -0.033188812 0.19442762 -0.093025014 -0.027696518 -0.22755788 0.029323537 0.10742742 -0.060992874 -0.108264126 -0.03224029 -0.07325085 0.24281082 -0.04023922 0.0010138432
<s> -0.06563855 0.16618374 0.25171298 -0.15058772 -0.09148827 -0.31123906 0.046197385 0.28526354 -0.16782935 -0.17786461 -0.013962308 -0.05569235 -0.38930827 -0.165623 -0.087198876 0.102486886 0.22533534 -0.029202422 0.038803644 -0.37896937 0.031077195 0.19409138 0.2623529 -0.45933548 -0.14176354 0.34506062 -0.43314883 0.22457045 -0.067189455 0.20752926 -0.042261112 0.07124016 -0.09557288 0.06619694 0.1353912 0.24101159 -0.010377553 -0.19075397 0.09820701 -0.067218475 0.17418242 -0.1584694 0.12502372 0.07020923 -0.055376567 -0.11915322 0.037478372 -0.032302193 -0.1459602 -0.26393723 -0.07200955 -0.018277686 -0.059586145 0.010619163 0.10422082 -0.21446711 -0.049218424 0.029251972 0.19622514 0.18329865 -0.016486768 -0.3114765 0.09284303 0.16824213 0.34214693 -0.025087193 0.15179722 -0.038470954 -0.30814224 -0.172674 -0.338788 -0.06449412 -0.032606017 -0.07127003 -0.10154203 -0.033642348 -0.27972147 -0.10546711 0.15238877 -0.08531512 0.31975916 0.12339552 0.25282332 0.15673587 -0.0010867186 -0.006301895 0.0941894 0.2375182 0.1017202 -0.0132980505 -0.1737995 0.050495606 0.26339936 -0.22489035 0.10738607 -0.10239139 0.048382502 0.49824396 0.10717959 0.06485944
</s> 0.044518724 -0.035920374 -0.11898041 0.21950689 0.15074526 -0.086416215 0.060413484 0.09338215 -0.11654591 -0.17999047 -0.008107144 -0.3019071 -0.034631513 0.24062234 0.12514979 0.081474856 0.15755403 0.1183644 -0.28119358 -0.31231096 0.12832564 0.38253528 0.06508807 -0.021524431 -0.0928842 -0.14453976 0.0018032945 0.33297893 -0.45948887 0.09001471 0.040835503 -0.26734668 -0.17975628 -0.10664687 -0.1857151 0.35241768 0.17108987 0.29955655 0.025027039 0.22526605 0.32872874 -0.082628 -0.42637613 0.21878877 0.30438396 0.037628572 -0.4563977 -0.02163078 0.34068164 0.080648676 0.03366314 -0.30537128 0.24748181 -0.3197108 -0.17943193 0.35277364 0.110351205 0.031397756 -0.066539995 0.029749956 -0.020166148 -0.12988883 0.35398632 -0.24750361 -0.13414657 0.3340752 -0.34322926 0.074869804 0.18921097 -0.25921986 0.03858162 0.022987995 -0.22177671 -0.029795663 -0.08536739 0.3481135 0.1569433 -0.10908931 -0.0029270272 -0.40171522 -0.42171282 -0.004735792 -0.028502433 -0.22650045 -0.18615437 0.11416191 0.0850665 0.0742433 0.26377288 0.14581256 -0.42941394 0.378968 -0.0075940825 0.18452659 0.32551438 -0.061618373 0.25441062 -0.039210215 -0.1892926 -0.09054168
, 0.22292049 0.02491341 -0.0832908 0.04572835 -0.04236436 -0.052105155 -0.054994248 0.068162926 0.068964325 0.032116048 -0.08261433 0.15202974 0.018365921 0.08603307 -0.027485643 0.103338555 0.030321388 0.07022846 0.072031096 -0.12610567 0.12205536 0.16366181 -0.11883786 -0.15232481 0.0022261052 -0.03128989 -0.27425763 0.1040015 -0.16975453 0.08896291 -0.10625131 0.13964628 -0.06012326 -0.0879134 -0.03161945 0.22940218 0.06725812 -0.0685226 -0.040222682 -0.17654961 -0.051042125 -0.010246185 0.0970215 -0.06878089 0.012010874 -0.16810569 -0.09321594 -0.059134945 0.13834894 -0.07175707 -0.15623282 -0.032053716 0.028684411 -0.061748706 0.22510035 0.049036976 -0.23549174 -0.045367967 -0.020215359 0.120724715 0.07070677 -0.20469579 0.12770867 0.06318401 0.13186863 0.041888 -0.03935308 -0.052358106 -0.08617605 -0.044479426 -0.2367172 -0.1066098 -0.19763505 -0.12584013 -0.0216542 0.10250668 -0.12512662 -0.0308271 -0.03726848 -0.10911453 0.18804444 0.09888307 -0.035743203 0.13583252 -0.09257167 0.0074891816 0.010487418 0.22621982 0.016514853 0.041610822 -0.13594 0.038268067 0.1220069 -0.031661343 -0.04905674 -0.27337602 -0.21107371 0.14489836 0.02378481 0.10140896
b 0.020855444 -0.05559031 0.009424496 0.045466844 -0.07888037 -0.025941793 -0.15791911 -0.11128331 0.14772822 0.049686022 -0.024207655 0.008389198 -0.037945203 -0.054003857 0.21675384 -0.04563353 -0.024250088 -0.052845363 -0.004788 -0.11894986 0.10159871 0.22684957 -0.020385334 -0.10260668 -0.053024836 0.12160618 -0.040420625 0.07912895 -0.032921836 -0.03612396 -0.122796535 0.002632046 -0.045601644 0.054816492 0.05828603 0.23107831 0.0027781273 0.018796531 -0.048700806 -0.029687475 -0.010380659 -0.032708604 -0.007957958 0.06521897 -0.05295188 -0.21446687 -0.09338322 -0.022953266 -0.08210933 -0.10194039 -0.06970805 -0.0003015842 0.034124672 0.103744954 -0.01344562 0.002198113 0.06476515 -0.022010267 0.025560627 -0.017863013 0.114621714 -0.12205997 -0.0074839336 -0.002994516 -0.012697783 -0.031738047 -0.15839618 -0.035793144 0.061046395 -0.14179733 -0.026525345 -0.009149131 -0.119097896 -0.03594995 -0.1678042 0.17693113 -0.022968981 -0.03462798 0.0023678765 0.044469986 0.11816036 -0.02000111 0.0006657034 -0.103242956 -0.059166476 0.106136605 -0.14043903 0.17187352 0.063034214 0.018732503 -0.0863319 0.12819992 0.016035218 0.08408302 -0.0807412 -0.03758832 -0.10616605 0.18267162 -0.053365085 -0.07435938
v -0.027518421 -0.05890808 0.052098107 0.081636265 -0.03462227 -0.03320597 -0.048486385 -0.026158674 0.075893946 -0.2061018 0.11319368 -0.15255521 -0.11124604 0.03534529 0.17555492 -0.051629707 0.0061683618 -0.10209106 0.038421582 -0.07673985 0.11211137 0.25670287 0.021397483 -0.02916244 -0.08211321 0.0850873 -0.036318976 0.00743308 -0.14742315 -0.010416697 -0.24052712 0.048716974 -0.054007266 0.12304555 0.04281265 0.15748493 -0.11579814 -0.027088532 0.037449278 -0.0022647267 -0.03245106 0.06425915 0.13765405 -0.06444885 0.047321532 -0.136129 -0.09193371 0.025644854 -0.0572697 -0.0693373 -0.019663576 0.10486046 0.10685247 0.01695452 0.053813882 -0.022988066 0.028172353 0.12503324 0.020566128 0.060203847 0.020649817 -0.12963651 0.12387698 0.0022649968 -0.0823185 0.0045328764 -0.1300854 -0.061737373 -0.004985201 -0.10938086 -0.06589754 -0.039763827 -0.18628024 -0.038782418 -0.12513556 0.22607964 0.12944672 -0.043262232 0.024607908 0.050435264 0.24222016 0.074941106 0.08505868 -0.006376868 -0.08138761 0.14524855 -0.045753863 0.18273222 -0.078952536 0.13001595 -0.16508655 0.06771669 0.032810085 -0.038513206 -0.07621075 -0.12376256 0.043338384 0.07955568 -0.028609004 0.01311425
. -0.00062126445 -0.043727584 -0.15803313 -0.07156403 0.38030648 0.02652525 0.09370582 0.2803366 -0.051480807 -0.2283661 -0.11747425 -0.10604672 0.14173177 -0.010666125 0.2696294 -0.12289607 -0.1570195 0.113590054 -0.035847735 -0.42207664 -0.04577384 0.18099476 -0.09201283 0.07946484 -0.19460653 0.11522458 0.17918718 -0.07720977 -0.2507874 -0.008255976 -0.2504003 -0.0060350774 -0.16377424 0.15188976 -0.08632115 0.4079496 -0.040719874 0.13905045 -0.28504458 0.14489874 0.27428833 -0.19188185 -0.19452576 0.589367 0.26895967 -0.34835336 -0.18397819 -0.34641245 0.16945586 -0.0985898 0.13042022 -0.4122599 0.11597308 -0.15216053 -0.25089082 0.22640964 0.032226864 -0.13438153 0.22856417 -0.04742947 0.026552904 -0.34768486 0.48757493 0.016540185 -0.09418204 0.16088857 -0.052134037 0.054605298 -0.11626775 0.046918474 -0.06540875 0.22329648 -0.093450084 0.14852124 0.061173312 0.25871515 0.1716446 0.117646374 -0.1627828 0.0049086614 0.04791377 -0.018154508 -0.2855089 0.05181952 -0.11366446 0.16277398 0.0058373827 0.02694197 0.008474661 -0.0034757594 -0.12447514 0.2135622 0.113807574 0.13096945 0.03269426 -0.10945421 0.11586315 0.030611947 0.06899795 -0.0034316317
k 0.07144739 0.06561233 -0.10904605 0.11899968 0.040347945 -0.01622135 0.1075359 0.037407324 -0.020900045 0.110908724 -0.0078925425 0.15189168 -0.08916424 -0.06382449 0.116921276 -0.0880724 -0.10680394 -0.027324267 -0.07017846 -0.1645201 0.20131943 0.17043132 0.1614045 0.020191785 -0.028167225 -0.046971716 -0.017889597 0.039909963 -0.2325087 -0.027980337 -0.10295038 0.0571536 0.048933823 0.01734015 0.093794346 0.12573211 -0.113324285 -0.0063365325 0.013114941 -0.07187851 -0.027325325 0.046212554 -0.049732905 -0.052408468 -0.024694774 -0.14474149 -0.037522946 0.03537285 0.0055954317 0.015965976 0.03477206 -0.08045447 0.16496827 0.017257417 0.03007725 0.069008134 0.1272094 0.0086753545 0.029859716 0.017107686 -0.07032441 -0.19527079 0.14549778 -0.1403531 -0.037007444 -0.2040932 -0.11976305 0.046770934 -0.008760449 -0.14677621 -0.12491065 0.021907141 -0.049980007 0.0028349892 -0.08158901 0.04715019 0.04590866 0.006061307 -0.040909033 -0.067356095 0.16379036 -0.032418128 0.05624898 -0.0053991973 -0.18351279 0.09318272 -0.02295341 0.10464586 -0.21691701 0.13037328 -0.1589635 0.0037077086 -0.0020750007 -0.021814236 -0.13911228 -0.14607748 -0.095843494 0.26972088 -0.10068703 -0.07169665
; 0.49984092 0.017127588 -0.20106025 -0.057207156 -0.06873527 -0.038082317 -0.06617637 0.023727167 0.106057756 -0.084655434 0.01936841 0.2070815 0.1203136 0.095624074 0.09991781 0.12865214 -0.047146004 0.13179183 0.24415556 -0.0066401362 0.166663 0.05377646 -0.1905459 -0.1766102 0.12073214 -0.12600671 -0.13675806 0.057151277 -0.16531882 -0.033812825 -0.2639775 0.3181793 -0.06787821 -0.17327997 0.0012669242 0.2106567 0.085429795 -0.0937882 -0.11592549 -0.11475158 -0.100613415 -0.12280017 0.16923602 -0.024705287 0.04018552 -0.0040207813 0.02135617 0.024245882 0.15603803 -0.1360756 -0.3018224 -0.005680603 -0.026358498 -0.08208936 0.31914482 0.032005165 -0.3820238 -0.09233247 0.0057010935 0.23246028 0.111238025 -0.36170658 0.18222278 0.18621218 0.14691028 0.06407398 -0.13954933 -0.05291911 -0.12295379 -0.032510318 -0.29990104 -0.117760286 -0.28788888 -0.06464133 -0.0014500127 0.2955182 -0.19877721 -0.017961621 -0.039651714 -0.08404721 0.22797464 0.11758009 -0.08284973 0.14394335 -0.05367665 -0.0115064 0.043510064 0.27866828 0.17707041 -0.008112111 -0.16442624 0.12753849 0.1863073 0.027156929 0.03125763 -0.32787713 -0.36555216 0.08148855 0.008039321 0.05509341
" -0.1377769 0.043800224 0.349119 0.4039462 -0.19661985 0.03293038 -0.12280751 0.10896264 0.132628 0.07983532 0.040293083 0.11532993 0.10312703 0.15946512 -0.09502491 -0.09371155 0.5020183 -0.21945502 -0.33504978 -0.4931828 0.07187485 0.22360347 0.19929282 -0.15430188 -0.24543819 0.36508688 -0.3620343 0.3062361 -0.055414863 0.2766442 0.3631233 -0.37144372 0.03860437 -0.07364375 0.12621333 0.17385568 -0.023979852 -0.19168067 0.10488133 -0.05537075 0.19443764 -0.028042404 -0.05077267 0.15226866 -0.10139825 -0.5231631 -0.29877645 -0.3188921 -0.051700905 -0.06805936 0.2760796 -0.10198076 -0.021523332 0.06387014 -0.29657248 0.030499985 0.34449446 0.15948626 -0.05023824 -0.10611064 -0.0041681062 -0.029960258 0.098789476 0.06930326 -0.13584584 0.25741607 0.06286577 0.0029109693 -0.037530005 -0.037217457 0.0964033 0.13152388 -0.13606405 -0.1631703 -0.16870616 -0.08468596 0.16328448 0.049249608 0.18470317 0.18558182 -0.13891268 -0.111617 0.17510018 0.03811097 -0.32453212 0.186511 -0.1000773 0.17057195 -0.18690725 0.22125138 0.12665893 -0.0390586 0.12551148 -0.12115681 -0.20783682 -0.04480806 0.120620884 0.54178655 -0.13523029 0.062350165
x -0.104696944 -0.009499781 0.15174219 0.16964173 0.2647105 0.1935008 -0.19419359 -0.2082093 0.13332744 -0.047472924 0.014262447 -0.27993223 0.03523412 0.02425501 0.053039093 -0.062263504 -0.03941484 -0.03301732 -0.052939996 0.18196526 -0.08825669 0.16562384 -0.14877774 -0.122981854 -0.077872336 -0.06658172 -0.06273098 -0.07440491 -0.18438154 -0.06750972 -0.18173622 0.044411782 -0.13522272 0.14452316 0.011375753 0.1288494 -0.1206602 0.18056244 0.06656772 -0.007447185 0.022322947 0.027140487 0.14210144 -0.1247448 -0.021562394 -0.15759782 0.048780367 -0.0027768356 -0.05794426 -0.060990877 0.11399988 -0.06567428 0.06515416 -0.3100628 -0.18715373 -0.059545714 -0.10426774 0.19534956 -0.15015616 -0.07899451 0.015723145 -0.12993805 0.31240863 0.015630923 0.10776481 0.16140327 0.12241492 -0.14522305 -0.2044022 -0.17997102 -0.1779352 -0.079477645 -0.22677779 -0.046026155 -0.10240536 0.044059407 -0.10655629 -0.06803894 0.07294204 0.09316386 0.097711034 0.13921073 -0.042399794 -0.013835768 -0.004556245 0.14741386 0.09480964 0.14923035 0.046796374 0.15845588 -0.34754688 -0.051567707 0.0940634 -0.20091562 0.06311499 -0.10839673 0.048308205 0.3504769 -0.0100377165 -0.03032223
' 0.093963236 0.4230501 -0.021526147 0.28781328 -0.13304222 -0.17006221 0.17908858 0.37495947 -0.18982284 0.041399635 -0.15796004 0.11965452 0.014059032 -0.31952024 -0.21071753 -0.121614754 0.0101903165 -0.31779423 -0.15038362 -0.23380877 0.07907975 0.07841725 -0.15480159 -0.097975954 -0.14035445 0.013709234 -0.19825348 0.08982562 -0.061921045 -0.073228605 0.24589376 -0.21298353 -0.09034637 -0.10480113 0.030387208 0.18660887 0.09801806 0.23485377 -0.09179516 0.009221508 -0.002176026 -0.14149253 -0.20733 0.13596706 -0.10064475 -0.5645956 -0.08749824 -0.07988103 0.010814963 0.05216274 -0.001053107 -0.052165817 0.15784913 0.22025114 -0.21620218 0.05843683 0.1564355 -0.18796493 -0.37790093 -0.1402351 0.2602941 -0.12424794 0.13190515 -0.0986111 -0.14074309 -0.033452988 -0.1185354 0.03524077 -0.04916672 -0.18775092 -0.07752502 0.013703089 0.004261804 -0.23612565 -0.117910475 -0.0051065283 -0.24949549 0.1280168 0.13824128 -0.07013801 0.24674894 -0.12494985 0.0058751255 -0.059861712 -0.17076188 0.07566474 -0.117722936 0.21580198 -0.075471446 0.16690956 -0.24959445 -0.010528825 0.101653874 -0.0018442667 0.084597565 -0.101377726 -0.3998989 0.3903487 -0.2710169 -0.18261448
q -0.009279111 -0.18891194 0.018043885 0.24911295 0.09258 0.0054528234 -0.27882016 -0.28952605 0.23189904 -0.01774167 -0.034478538 -0.31716865 0.32774168 0.09918526 0.24117276 -0.044204604 -0.06953213 -0.19009025 0.16360533 -0.10448748 0.1740511 0.37413615 -0.024586486 -0.13590977 0.05530361 0.20493999 -0.15408748 0.1997632 -0.22957727 -0.018767126 -0.06924471 9.758507e-05 -0.24715878 0.008633946 -0.010602348 0.40777248 -0.056791387 0.28807124 -0.20150575 0.18230762 0.019539526 -0.06555431 -0.120378226 -0.009135725 0.09795172 -0.1461772 -0.27842784 0.10112984 -0.0099960845 -0.13779391 -0.05831505 0.19416288 0.15343364 0.17917597 0.1718259 0.09867829 -0.06366163 0.104352854 0.1128738 0.17924996 -0.03343733 -0.1488743 -0.064913265 0.2255707 0.11845831 -0.054342736 -0.016499696 0.09205057 -0.012943268 0.04312923 -0.13831532 0.016864883 0.11253466 -0.016570797 -0.05271045 0.02459599 -0.117413126 0.08626204 0.23531139 0.24224196 -0.02033191 -0.04540497 0.089929804 -0.058907453 0.05552405 -0.07662616 -0.22399902 0.16503064 0.20584151 0.09382317 0.13106604 -0.04599946 0.042457968 -0.13398893 -0.012993494 0.032873414 -0.18601523 0.36585882 -0.08787569 -0.18105315
j 0.23211898 -0.08477379 -0.14497629 0.18080135 -0.21321413 0.020310024 -0.1927586 -0.21475473 0.19644132 0.021662857 -0.015840104 -0.03078235 0.18615542 -0.02997013 0.1224078 0.0025984775 0.0035439113 -0.17419894 0.026689917 -0.18805873 0.16494185 0.22111902 0.08286688 0.11849453 0.0026862642 0.10614241 -0.049518492 0.1692547 -0.1633976 0.008604262 0.10857052 -0.10432466 0.012035636 -0.04925144 0.104057446 0.20712596 -0.087051675 0.11010152 -0.13567238 0.14139405 0.074445315 -0.08273808 -0.1059846 0.05439757 0.019231502 -0.19472618 -0.111949265 0.0823722 -0.10222567 -0.08819704 -0.016412415 -0.05178609 0.07404884 0.15721224 -0.025742779 0.038294826 0.067695566 0.036698386 0.023511436 0.02247848 -0.025074834 -0.12999037 0.18212353 0.02529388 0.07234537 -0.10952465 0.060397804 0.094935186 -0.041125618 -0.19987266 -0.06257405 0.12805155 -0.15617311 -0.0060242796 -0.0049216924 0.023657102 -0.24015288 -0.050655194 0.14585263 0.048592705 0.13880035 0.01865355 0.30238712 -0.06147704 -0.041552406 0.0733696 -0.061210804 0.0707694 0.03642843 0.015724987 -0.073162146 0.09596785 0.045198537 -0.09942106 0.02213687 0.03340487 0.03832099 0.37443435 -0.087641664 -0.124780394
z 0.24613824 0.14867367 0.06902437 0.1110446 0.015671054 -0.12677771 0.21001421 0.10525777 0.340174 -0.18653241 0.25958085 0.5537505 0.06338723 0.019253554 0.21725333 -0.1317509 0.20615667 -0.3382332 0.0085841585 0.20187223 0.030923879 0.1023089 0.31844825 -0.06917114 -0.24206524 -0.10155442 -0.2040744 0.15042168 0.061904 0.22821106 -0.12669045 -0.19531932 -0.3035704 -0.069025904 0.009168119 0.36063984 -0.055990893 -0.006839431 0.13291042 -0.06984958 0.058859278 0.051188804 -0.057680257 0.055931237 0.0011880833 -0.19196841 -0.19678481 -0.103525124 -0.08636365 -0.005301733 0.17605527 -0.19194211 -0.004165285 -0.19617978 -0.058700502 0.23448962 0.19108377 0.19190973 0.053261288 -0.06909976 -0.16458526 -0.27913073 0.09574484 -0.026666557 -0.10039774 -0.059390366 -0.20432353 -0.27540222 -0.0010426757 -0.2395318 0.07261631 -0.12909019 -0.1776395 0.1132166 -0.21507974 0.14348313 -0.1483852 0.10015624 -0.28707322 0.31769142 -0.022964887 0.023637587 0.14596827 -0.0829368 -0.015511018 0.15171537 -0.043317825 0.29133293 0.12518495 0.15641509 0.1573854 0.049741667 -0.033307288 -0.01237975 -0.013360027 -0.115677975 -0.23456255 0.12342012 0.014567356 -0.32881096
? 0.028543962 0.015589482 -0.042860366 0.06495624 0.17095941 -0.015395906 0.05796724 0.42288187 -0.09716717 -0.14225647 -0.15106054 0.06961209 0.15330927 0.05234609 0.13082588 -0.08335218 0.21859834 0.070109405 -0.19474497 -0.8127347 0.010264214 0.15265635 0.027401732 -0.02477167 -0.33221927 0.2590037 -0.048128545 -0.003303677 -0.18448061 0.21351779 -0.0051964438 -0.14951782 -0.18561761 -0.03829476 -0.06468088 0.36929578 -0.016911348 -0.11534203 -0.27272302 0.02538593 0.22078422 -0.21409781 -0.067625545 0.5515684 0.21292837 -0.51868296 -0.23389892 -0.45988312 0.18010192 -0.13758829 0.13640428 -0.35996947 0.05878354 -0.023880057 -0.2616998 0.21300216 0.039620783 -0.1308148 0.16049413 -0.05003223 0.044754747 -0.39357612 0.60173744 0.22275685 -0.2603919 0.36327007 0.16655776 0.1271468 -0.35135227 0.1754001 -0.0352939 0.33406624 -0.03985092 0.10303662 0.15136258 0.17149924 0.29823917 0.33997256 -0.061418857 0.14484836 0.0020929303 -0.034656223 -0.12471356 0.26020613 -0.21734746 0.10554771 -0.04857177 0.08752353 -0.11933863 0.19389398 0.09822344 0.0031356446 0.22096184 0.061934244 -0.017931025 -0.22833548 0.15051746 0.30149892 0.011201565 0.028433112
: 0.42407128 -0.0028689227 -0.13828838 0.14867704 -0.21716867 -0.034867026 -0.14342812 -0.086078465 0.15687473 0.059878074 -0.1276567 0.09814727 0.14695868 0.08219097 -0.022832341 0.18124145 0.24280298 0.008658768 -0.0022031148 -0.2474719 0.09008355 0.18048954 -0.23445667 -0.19138177 -0.1609243 0.001347008 -0.36263064 0.1071475 -0.053729203 0.14022362 0.04642346 0.0420916 -0.002474095 -0.22611056 -0.10650491 0.14418857 0.13415954 -0.097139955 -0.14844787 -0.10190071 -0.074171714 0.03250467 0.15067899 -0.059869017 0.0764486 -0.34215662 -0.1466372 -0.24398142 0.20007151 0.032411747 -0.16930158 -0.031833068 -0.19445267 -0.18642934 0.08804787 0.06911144 -0.13413061 0.015605314 -0.13334046 0.15255114 0.14724123 -0.21690436 0.15361756 0.2562095 0.025043584 0.2540333 -0.027656337 -0.20242791 -0.12162819 -0.035886474 -0.098931305 -0.19679043 -0.16932723 -0.25154954 0.016840307 0.05546473 -0.047029167 0.07215836 -0.021489438 0.054328285 0.1501053 0.04243014 0.007859161 0.32733008 -0.18070644 0.05571307 0.1309055 0.33808398 0.10148956 0.12105206 -0.13116121 0.005854366 0.19113524 -0.031729475 -0.012993005 -0.3367364 -0.3051787 0.2622989 0.003736854 0.18032119
é 0.11081488 0.23495865 -0.047418904 0.36232623 -0.12728499 0.113816634 -0.11811968 0.020936074 0.03789978 0.10491778 -0.103943564 0.05053366 0.30614102 -0.05138634 -0.083398305 -0.054909255 0.063088305 -0.19739394 -0.19767249 -0.15570715 -0.041366946 0.13376753 -0.27825287 0.027266435 -0.099108726 0.011739971 -0.14478733 0.059797294 -0.1892853 -0.029040674 0.14043315 -0.16652213 -0.022695646 -0.13236743 -0.062164437 0.106893495 0.09241399 0.18662597 -0.18476972 0.11666695 -0.0071471133 -0.053884946 -0.0541947 0.11036526 -0.011026361 -0.5389337 -0.1031974 -0.14993764 0.008572856 0.0391454 0.09083486 -0.0669638 0.013055675 0.07107018 -0.31192163 0.04624356 0.07808368 -0.03032558 -0.30366236 -0.11353281 0.20254765 -0.10090879 0.25265783 0.048837025 -0.09824119 0.08497756 0.028535018 -0.013100743 -0.119091295 -0.09639258 -0.10190103 0.05138365 -0.14293559 -0.17943113 0.026060177 0.047927678 -0.16474664 0.1826116 0.111966774 0.08154844 0.11881299 -0.11456119 -0.07483287 0.039039098 -0.2326605 0.10205285 -0.048996367 0.16788095 -0.03470811 0.22909726 -0.20871106 0.0038901963 0.07995284 -0.032753497 0.07872651 -0.18741196 -0.19396104 0.3649459 -0.23964329 -0.055198237
æ 0.037467755 0.02616276 -0.026582943 0.24833865 0.04164505 0.026496714 -0.09551641 -0.028134806 0.08372401 -0.0025410333 -0.043126833 0.020616192 0.20217945 0.114940405 0.08544446 -0.014277944 0.058228903 -0.032088265 -0.099059954 -0.18474165 0.018201027 0.22866382 -0.066196375 -0.010601576 -0.041478556 0.041771658 -0.118652724 0.122024134 -0.23729429 0.06790231 0.015300697 -0.07280114 -0.10704193 -0.045522317 -0.11806882 0.24875577 0.025065094 0.13153514 -0.1424354 0.10644534 0.12940003 -0.02836758 -0.14204594 0.12661386 0.1485406 -0.24499165 -0.2235188 -0.13135651 0.13658328 0.017994778 0.11382499 -0.1541033 0.0869231 -0.063288815 -0.21586443 0.16922474 0.0149352625 0.031962328 -0.11607707 -0.0353856 0.058285866 -0.11119647 0.21612118 0.011598285 -0.05167248 0.13845636 -0.054430723 -0.04897267 -0.008088936 -0.00829324 -0.095284745 0.053786542 -0.15639599 -0.07118954 0.03056725 0.12592532 -0.078520425 0.08320911 0.00015445224 0.045789663 -0.033053115 -0.06522728 -0.07748527 0.006619838 -0.15891773 0.065750934 0.00558766 0.09128011 0.024104483 0.16637048 -0.11567695 0.06409634 -0.0040794034 -0.040669683 0.060686108 -0.1744184 -0.10504703 0.15913695 -0.1530653 0.022814885
ê 0.057194076 0.09949527 -0.0386496 0.20769732 0.03567436 0.0038588785 -0.028237024 0.046037123 0.02162808 0.003153513 -0.039598733 0.028957708 0.06919793 0.02751885 0.07156845 -0.03742711 0.045513112 -0.026710711 -0.13297649 -0.17754178 0.056581523 0.1814514 -0.051428296 -0.010314598 -0.11992594 -0.039474882 -0.054563228 0.06557133 -0.15136105 0.018172313 -0.030831851 -0.08443906 -0.092546985 -0.055581342 -0.06975232 0.1451718 0.06623926 0.08473681 -0.05791605 0.026471246 0.06545788 -0.011938867 -0.0929559 0.08321532 0.07118159 -0.22210678 -0.17201726 -0.121008545 0.13151869 0.0312704 0.05791007 -0.14593899 0.12584116 -0.11164209 -0.16189547 0.16117264 0.033261046 0.01385759 -0.13476838 -0.06406996 0.07139365 -0.13278098 0.24586576 -0.040768795 -0.14209071 0.14348672 -0.10902784 -0.04194739 -0.016653191 -0.06851356 -0.04050925 0.012134799 -0.18169074 -0.0856918 -0.071449876 0.1272967 0.0061503802 0.053727407 -0.03795219 -0.0023920322 0.02762173 -0.027930673 -0.052899268 -0.031607118 -0.16477594 0.1364263 -0.050002974 0.13072121 -0.019373978 0.18910983 -0.16619872 0.034477837 0.0029470292 0.064060986 0.0006211503 -0.15303542 -0.11289153 0.18864441 -0.12682131 -0.058944836
ö -0.017797356 0.053770307 -0.07491736 0.19641724 0.08062228 -0.014332696 -0.0078102113 0.09645215 -0.02431014 -0.07460813 -0.049750224 -0.09205615 0.119459294 0.07324737 0.13351679 -0.050243583 0.075453475 0.0136767635 -0.15185025 -0.32977104 0.12828016 0.2801498 -0.01485757 0.01821827 -0.15269051 0.00057828403 -0.0031183811 0.11209358 -0.27864945 0.025510268 -0.029825933 -0.1316293 -0.10919368 -0.046735782 -0.1070654 0.26192167 0.080789745 0.19241253 -0.1316894 0.10502868 0.14342624 -0.054201987 -0.18219925 0.1884244 0.14227511 -0.21513826 -0.24505368 -0.12871036 0.1958074 0.030161228 0.049848996 -0.15994656 0.17555444 -0.08625117 -0.13452174 0.21633843 0.059437532 -0.010984696 -0.047647804 -0.022474064 0.038723964 -0.15644173 0.28519583 -0.04133684 -0.11351449 0.20610078 -0.1464139 0.03567653 0.011151987 -0.061234914 -0.03689913 0.041154705 -0.11285024 -0.03010353 -0.016043898 0.16466287 0.04663992 0.05137858 -0.05731258 -0.07872574 -0.09897806 0.0031144323 -0.100935206 -0.023283899 -0.13555154 0.09240219 -0.03617987 0.13450603 0.054285675 0.12847154 -0.13970587 0.11003004 0.014618901 0.04915081 0.090372846 -0.10604492 -0.017721387 0.12709166 -0.07548991 -0.05074519
è -0.050062593 0.038270287 -0.03374135 0.2188338 0.09584732 -0.05010002 -0.0166057 0.06967364 0.0070555676 -0.13105477 -0.019828038 -0.11816847 0.10126683 0.1055441 0.19029276 -0.050321277 0.09202557 -0.011399568 -0.12906867 -0.2989767 0.10244434 0.2606338 0.049622107 7.4901785e-05 -0.10071323 0.039223436 -0.019619592 0.15980813 -0.27664763 0.053637173 -0.0025242332 -0.12892807 -0.13417405 -0.06401632 -0.107289776 0.25434905 0.06353578 0.17925626 -0.10513188 0.1615468 0.19141468 -0.05458397 -0.19545525 0.17074795 0.1677458 -0.16809599 -0.2712614 -0.10097183 0.17251696 0.021116467 0.089420974 -0.17323142 0.1518963 -0.08943856 -0.14968976 0.22256844 0.08137027 0.03814353 -0.020948883 0.009647741 -0.010736399 -0.1441274 0.26225734 -0.039295983 -0.09517156 0.18054856 -0.14085868 0.035415016 0.03108003 -0.063970156 -0.034329824 0.07157113 -0.116565764 -0.0009705286 0.0033784853 0.1811693 0.041276902 0.050177295 -0.014448449 -0.056548182 -0.13377458 -0.015777655 -0.05158007 -0.035657052 -0.13094081 0.065693036 -0.0133643225 0.09790549 0.07182648 0.13605492 -0.109338686 0.13894752 0.008375222 0.027195862 0.1035288 -0.09589474 0.023586141 0.095595576 -0.10650918 -0.03938195
ë -0.044660173 0.00992871 -0.06520762 0.19143088 0.13633637 -0.011605209 0.027340265 0.0023371137 0.036332298 -0.08220175 -0.015782367 -0.09339336 0.14301407 0.100675374 0.16495064 -0.045267325 -0.0097300885 -0.016544145 -0.10456666 -0.17477392 0.103773326 0.26882517 -0.01954396 0.029275449 -0.07944406 -0.032842405 0.04970029 0.08617227 -0.27422208 -0.02724302 -0.108368814 -0.065544434 -0.13756599 0.019629844 -0.07852393 0.23997103 0.009316003 0.1823541 -0.055299774 0.100695945 0.11659579 -0.017169619 -0.15710275 0.13074128 0.12974714 -0.17426777 -0.25698465 -0.06740189 0.16747737 0.021294277 0.073162794 -0.13605753 0.16984046 -0.12844536 -0.122571975 0.20343077 0.06850434 0.020329429 -0.048558556 -0.008302764 0.013033815 -0.14048363 0.21517734 -0.085860595 -0.096172735 0.11717727 -0.1906819 -0.027962541 0.08221597 -0.073167935 -0.021713655 0.0047682226 -0.16999078 -0.01810209 -0.042393405 0.16832659 0.037044186 -0.0036929147 -0.04244274 -0.027637001 -0.05677831 -0.004851987 -0.08707424 -0.08119486 -0.12027489 0.1316218 -0.0301548 0.10674403 0.049755886 0.13549723 -0.13470024 0.12812977 0.014522445 0.06289455 0.056677647 -0.05876674 -0.0078214 0.07744017 -0.06416833 -0.09794865
à -0.011299776 0.06635004 0.01747082 0.22093317 -0.041742317 -0.004808714 -0.057064332 0.02829494 0.06136006 0.015243242 -0.04122216 0.01718739 0.118563324 0.042702105 0.028731275 -0.007866814 0.0982823 -0.048301037 -0.15264238 -0.23823227 0.061050676 0.23890541 -0.053314824 -0.028701372 -0.1148048 0.070244245 -0.08534274 0.092143804 -0.17172477 0.04368195 0.038380228 -0.14065585 -0.08108983 -0.023126006 -0.045558542 0.2067781 0.035148572 0.07666705 -0.07107184 0.03375718 0.09401305 -0.005012988 -0.092132606 0.11156843 0.059742782 -0.27478114 -0.22794606 -0.122543156 0.090090334 -0.008308988 0.07605213 -0.09418089 0.08833812 -0.01727395 -0.1468477 0.1521523 0.073236406 0.03019357 -0.059495986 -0.032888632 0.05581699 -0.08866098 0.1548268 0.009813645 -0.03913746 0.12621737 -0.06000972 -0.032704096 -0.0067721973 -0.053338613 -0.073375925 0.025139578 -0.16251616 -0.08888648 -0.035253946 0.06958695 -0.033447742 0.04407419 0.017071193 0.052623793 -0.030521726 -0.051470052 -0.024417624 -0.0045211655 -0.18060887 0.10784226 -0.061806772 0.10093587 -0.01721368 0.1531168 -0.08845915 0.050624315 0.021308532 -0.0075275823 -0.012611309 -0.12801388 -0.09975256 0.27890342 -0.11752378 -0.025202958
ô -0.068546996 -0.018522246 -0.033866055 0.18323743 0.15195331 -0.0020456992 -0.040933117 0.023452075 0.037394695 -0.09928582 -0.014368181 -0.1592735 0.0973657 0.12362546 0.16153352 -0.013317139 0.01575046 0.035576064 -0.14044394 -0.21797557 0.060314797 0.2840564 0.0020924592 0.040652364 -0.08785124 0.009221237 0.047369603 0.11035364 -0.2613747 -0.0054894313 -0.07734449 -0.109429166 -0.116679125 0.029453898 -0.08457462 0.2273724 0.048415802 0.16400176 -0.055142984 0.14745621 0.17412579 -0.027365057 -0.20152381 0.17567524 0.15571728 -0.125832 -0.26346132 -0.07177324 0.14930886 0.0035586038 0.10890875 -0.18320751 0.17108823 -0.13519369 -0.17831147 0.21651848 0.092627436 0.01977822 -0.013593234 -0.021772804 -0.00082919083 -0.10824313 0.25723448 -0.08381039 -0.09594514 0.17519175 -0.15698276 0.0095298 0.0841008 -0.083736554 -0.004426877 0.035884727 -0.14766929 0.0020886094 -0.057910476 0.16438872 0.05372538 -0.047679834 -0.024816811 -0.063560694 -0.1023062 -0.020720655 -0.06103644 -0.12211965 -0.1162517 0.15592553 -0.02799433 0.046182696 0.06799048 0.121514685 -0.18781433 0.17770916 -0.0047152913 0.09954166 0.1032821 -0.024596296 0.052123472 0.08063559 -0.09243582 -0.086804666
ñ -0.005524321 0.05700023 -0.0017809602 0.23698081 0.060112353 -0.03396229 0.017083619 0.10587994 0.043468744 -0.10588464 -0.017690083 -0.043009296 0.11770343 0.08286681 0.11729163 -0.027261507 0.1382745 -0.026196383 -0.17581806 -0.31257662 0.083182335 0.28762054 0.031222427 0.01063429 -0.166873 0.030572515 -0.06817662 0.14849822 -0.2408111 0.089635834 0.0028450247 -0.18425925 -0.14751938 -0.055140547 -0.10444951 0.29687425 0.067639224 0.13477163 -0.074900664 0.0786593 0.1660066 -0.031183636 -0.1897376 0.17207696 0.15248863 -0.22465177 -0.27300608 -0.15755126 0.1662457 0.025065137 0.09421551 -0.21295631 0.113707766 -0.14185907 -0.16496006 0.23737189 0.09532637 0.030507794 -0.013690788 -0.02731315 -0.0033352715 -0.14542845 0.2864542 -0.04007067 -0.12783778 0.20081435 -0.13878535 0.0061719776 0.01045695 -0.083984815 0.014444929 0.05061749 -0.11633276 -0.0036913073 -0.030276243 0.14321373 0.04069894 0.043954607 -0.0649554 -0.021091433 -0.1326343 -0.033593576 -0.03101771 -0.028392768 -0.15384722 0.088958696 -0.012360952 0.111522555 0.060840644 0.13225614 -0.09424673 0.12538391 0.022611942 0.051198803 0.08987668 -0.10183345 -0.013082332 0.15383399 -0.08837654 -0.0719598
ä -0.024714189 0.04110883 -0.056066677 0.1533644 0.07155565 -0.0415848 0.0033978461 0.080622 -0.0020600886 -0.076418355 -0.027773617 -0.053391315 0.060347475 0.053370543 0.123433836 -0.023981228 0.033071525 0.0012515488 -0.085679494 -0.23776071 0.090982705 0.21563022 0.034664445 0.012467075 -0.07145632 0.025102783 -0.029821342 0.10701698 -0.23310614 0.02473552 -0.03908129 -0.06288167 -0.07745772 0.0038647866 -0.060388677 0.23262745 0.032216333 0.12927046 -0.09684973 0.10710869 0.10118936 -0.04435058 -0.13311838 0.14264746 0.11392302 -0.1739047 -0.18632647 -0.06770211 0.11339499 -0.012212049 0.034822173 -0.15175596 0.1127276 -0.06283649 -0.11138429 0.14357316 0.02445798 -0.013746916 -0.046158258 -0.016435826 0.039061315 -0.14523628 0.2259299 -0.035787202 -0.06827501 0.11409039 -0.10383334 0.00038007568 -0.00024595414 -0.07093685 -0.07232576 0.03614955 -0.15212698 -0.02550343 -0.016439958 0.14398567 -0.036724705 0.011155908 -0.024611425 -0.033020996 0.008386663 -0.016875988 -0.06229156 -0.030600512 -0.11810856 0.08670701 -0.0015884303 0.085836485 0.023330249 0.10120598 -0.15275992 0.09934137 0.028392654 0.034581233 0.05895459 -0.10197422 -0.027370991 0.11783558 -0.10377888 -0.060203366
ï -0.042898126 -0.0051208376 -0.061185855 0.14784132 0.116284266 0.005017868 -0.042603184 0.069636755 0.0013853622 -0.09506765 -0.035524216 -0.13227949 0.09439432 0.08115617 0.15773062 -0.043539777 0.0054654777 0.010816217 -0.10934324 -0.24135526 0.075941734 0.25849524 -0.026350802 0.054963823 -0.10125658 -0.007705531 0.038614787 0.087132156 -0.24577838 -0.0011981319 -0.0695598 -0.09581012 -0.1235953 0.030437578 -0.086539574 0.22948806 0.048319988 0.16236724 -0.06797557 0.113585465 0.1322605 -0.031701922 -0.18151365 0.19122119 0.15841796 -0.14533833 -0.2327292 -0.073706664 0.15283643 0.013474159 0.060199637 -0.15972681 0.16951446 -0.100144304 -0.12056934 0.18621595 0.045763772 0.014193907 -0.025084188 -0.02666036 0.018916002 -0.112418674 0.25768673 -0.07825148 -0.1081757 0.15885761 -0.16691847 0.024116756 0.04055894 -0.07039107 -0.011927824 0.056767616 -0.12733723 -0.009843775 -0.04178807 0.18833815 0.07416706 -0.00942884 -0.035663072 -0.08534927 -0.05856612 -0.006237282 -0.10093577 -0.08510967 -0.12368147 0.11678821 -0.045482095 0.07759261 0.050217304 0.11538299 -0.16868104 0.14572042 0.0058997096 0.10873626 0.08327737 -0.0662506 0.031080246 0.079549946 -0.072898485 -0.09005442
â 0.052779328 0.021654602 -0.032353833 0.1360557 0.07111633 -0.0017068144 -0.02058716 0.030789511 0.04476538 -0.037418686 -0.037785042 -0.021267971 0.12876986 0.05873486 0.09656422 -0.01804505 0.038319133 -0.024201231 -0.09704025 -0.17834191 0.07010614 0.22986527 -0.027264794 -0.0070080725 -0.08533764 -0.0032900805 -0.027915092 0.09032044 -0.18713571 0.027867872 -0.048092555 -0.07409292 -0.1243282 -0.013468092 -0.07859284 0.23772667 0.028555809 0.12280151 -0.071298555 0.057642844 0.09590216 -0.02313427 -0.12761216 0.1271938 0.1079807 -0.18937914 -0.23094164 -0.101265065 0.11151875 0.007874222 0.06494826 -0.13512287 0.107123755 -0.1063214 -0.11849723 0.16062392 0.04762937 0.022768337 -0.053073168 -0.021479022 0.030534025 -0.14996113 0.21688901 -0.029169329 -0.07746517 0.14585724 -0.12435551 -0.030002795 0.015170779 -0.06955164 -0.037911125 0.02726636 -0.12845293 -0.030166892 -0.043139398 0.12338957 0.017678116 0.009070544 -0.03785358 -0.0040046936 -0.04336271 -0.01569333 -0.05726977 -0.048210192 -0.11698318 0.10746149 -0.013470294 0.12686467 0.06571197 0.12438956 -0.14372638 0.11072283 0.025802124 0.05266727 0.078482226 -0.09361559 -0.045994975 0.13005032 -0.064221755 -0.0870283
ü -0.05567641 0.003988461 -0.033789847 0.17201659 0.11572376 -0.014209438 -0.021435954 0.035396386 0.01990592 -0.08595994 -0.036209706 -0.105514854 0.085587405 0.10856547 0.16576475 -0.020506872 0.0012934475 0.043764025 -0.1278762 -0.22973026 0.07225904 0.26277876 0.0048495284 0.043211926 -0.09501334 0.02830315 0.015176665 0.09353231 -0.25314826 0.013758924 -0.06997873 -0.097368106 -0.11881046 0.03852213 -0.08693304 0.24681045 0.03201748 0.14957929 -0.061280858 0.10564239 0.14647228 -0.019744784 -0.19020556 0.17907952 0.15172428 -0.14259242 -0.23222384 -0.09045324 0.13730498 -0.0009585169 0.0769039 -0.18218438 0.12291797 -0.12521291 -0.11735646 0.20490663 0.0537952 0.0077216853 -0.0023992423 -0.025367968 0.007934062 -0.110532306 0.22163337 -0.0661654 -0.07116681 0.120952375 -0.12989314 -0.001305985 0.04992671 -0.04590773 -0.033677977 0.03698539 -0.13944137 0.0027810573 -0.048625104 0.16898851 0.033914294 -0.013995207 -0.0467252 -0.037880242 -0.048708554 -0.041647695 -0.06044594 -0.068381645 -0.12922375 0.11396328 -0.024029365 0.03441232 0.031167243 0.093016 -0.1287764 0.12940875 0.011141054 0.07221699 0.04905463 -0.04783572 0.015759617 0.10415666 -0.07224394 -0.06935732
ο -0.027322967 -0.015337412 -0.030047402 0.15820345 0.09332272 -0.0020667121 -0.045802727 0.048850182 0.038402773 -0.052111857 -0.0445306 -0.06131321 0.06759279 0.10474958 0.13471672 -0.025602616 0.020359801 0.030669533 -0.14750919 -0.24383335 0.07704089 0.26728553 0.0057099727 0.001993666 -0.096938446 0.03291232 0.0018492035 0.08107633 -0.24680047 0.02945104 -0.07761055 -0.08446122 -0.12366242 0.034159377 -0.06315901 0.24861656 0.0046358756 0.11583885 -0.063373394 0.074211866 0.12959272 -0.026724717 -0.14660323 0.16426268 0.14154565 -0.1667149 -0.25431785 -0.098642334 0.13980837 -0.0154040465 0.0660399 -0.16955943 0.1433779 -0.11423068 -0.11433644 0.1733886 0.03361914 0.006053846 -0.0043424577 -0.02283165 0.019142443 -0.13390972 0.24505962 -0.07339221 -0.068926685 0.14488402 -0.12170312 0.0031747697 0.03752912 -0.07347374 -0.04245943 0.031757697 -0.1833176 -0.023548393 -0.05456108 0.16456757 0.04261295 -0.015081744 -0.024636675 -0.045663007 -0.033303823 -0.0030355167 -0.07477831 -0.06580586 -0.13878499 0.12685232 -0.027024107 0.08692663 -0.0022404797 0.13848911 -0.17013626 0.11535788 0.019096734 0.05525399 0.039404217 -0.07675543 0.020181522 0.1442732 -0.09755618 -0.06602891
ἶ 0.0003825711 -0.046921767 -0.047433194 0.13547975 0.055791862 0.018029382 -0.049451727 -0.009007821 0.05712911 0.0012447236 -0.026687475 -0.02053858 0.07465249 0.10122446 0.09805277 -0.01672908 -0.013159602 0.026034728 -0.11817123 -0.16332649 0.07065508 0.22989176 -0.03780791 0.035696946 -0.057203703 0.008111826 0.039030995 0.045499995 -0.21221335 0.017454492 -0.062545314 -0.058723524 -0.07907788 0.038209185 -0.048053075 0.20218642 -0.0111809345 0.10993489 -0.035564464 0.040830895 0.09566771 -0.002208815 -0.111511104 0.124258645 0.10216941 -0.15055019 -0.21266676 -0.06426517 0.11482195 -0.019377613 0.03325402 -0.124569885 0.1278902 -0.09995287 -0.07076355 0.15188055 0.019454228 0.022099562 -0.0039221416 -0.01547623 0.025810167 -0.10452583 0.18034722 -0.06972946 -0.06803368 0.085808806 -0.105350085 -0.013703651 0.050431643 -0.06964885 -0.03885203 0.014789279 -0.17079842 -0.01816363 -0.030891899 0.13017322 0.016915414 -0.0207825 -0.031517953 -0.011924833 0.009628806 -0.004304514 -0.06200217 -0.060068432 -0.13614902 0.12392677 -0.029516054 0.058640487 -0.012932922 0.12878236 -0.15565844 0.09867705 0.027063504 0.06313312 0.0037222723 -0.07728278 -0.008564642 0.13345543 -0.079687595 -0.060648493
δ 0.009311466 -0.03382591 -0.025251998 0.13445783 0.07269142 0.029395526 -0.06991826 -0.030756358 0.06746494 -0.009323684 -0.02089383 -0.021672126 0.081700996 0.096988596 0.11121079 -0.010496415 -0.029944265 0.03198896 -0.109631576 -0.14869994 0.070123255 0.22743848 -0.026822852 0.026969666 -0.047524665 0.012671655 0.026503338 0.044630814 -0.19955195 0.004016765 -0.09251401 -0.0579245 -0.08175691 0.04754783 -0.032983847 0.1992183 -0.023006462 0.099109255 -0.022045733 0.038772225 0.076028965 -0.0020471318 -0.09288364 0.10630583 0.09743614 -0.14865768 -0.2016856 -0.06180638 0.093066655 -0.016983796 0.04365469 -0.1088295 0.11247783 -0.08212061 -0.085765876 0.13702923 0.020303752 0.02345965 -0.014132293 -0.031353626 0.025487216 -0.0837999 0.15627055 -0.05356007 -0.061586652 0.09334692 -0.11052261 -0.021425903 0.0660979 -0.06340965 -0.04799187 0.008510865 -0.18056937 -0.028358279 -0.05308368 0.11567577 -0.002727939 -0.025898147 -0.008995831 -0.006135333 0.013050382 -0.012884511 -0.06201826 -0.0635199 -0.1284515 0.14534399 -0.045119178 0.06335167 -0.01769246 0.12370976 -0.17917491 0.08522481 0.018805506 0.046017732 -0.0011484496 -0.067484535 -0.033881422 0.13531968 -0.1053772 -0.06557921
α 0.009203758 -0.02666065 -0.047637224 0.14268245 0.053339444 0.021669675 -0.04160721 -0.018477893 0.053515196 0.00063833175 -0.04285207 -0.033571523 0.08818729 0.065939516 0.100223206 -0.017218998 -0.018015165 0.033442035 -0.112774186 -0.16547462 0.08069134 0.2512963 -0.022445139 0.02935408 -0.048822712 0.019241316 0.038404625 0.05206776 -0.21086259 0.0039507532 -0.08073226 -0.06565133 -0.07632067 0.03754334 -0.041991346 0.20030123 -0.012304475 0.09561995 -0.031262513 0.038155615 0.070634596 -0.002767628 -0.10415736 0.11504475 0.09411303 -0.14068583 -0.21707489 -0.06760952 0.09643912 -0.026082326 0.041573923 -0.12290197 0.11096918 -0.09389583 -0.06593865 0.14571722 0.021890914 0.0033215594 -0.01859799 -0.020251187 0.018362202 -0.10545492 0.15552653 -0.055636227 -0.063719384 0.08699993 -0.117875464 -0.014400962 0.06170895 -0.06789082 -0.050504625 0.0032906143 -0.15922105 -0.02497317 -0.05005835 0.11971701 0.0099672675 -0.035667457 -0.027456865 -0.010235065 0.014308368 -0.004468348 -0.050244685 -0.070124194 -0.13474531 0.12199863 -0.04618919 0.06401182 -0.023176532 0.11723936 -0.16610812 0.08704655 0.022812152 0.06032046 0.0065175598 -0.07513533 -0.03298505 0.15018784 -0.098152526 -0.07382581
π -0.05349704 0.013085033 -0.012256228 0.14048399 0.11643917 -0.027036823 0.016297137 0.082232535 -0.011565411 -0.09357971 -0.026705632 -0.11718939 0.04854995 0.063043945 0.12584202 -0.028252384 0.024020853 0.019110333 -0.117139295 -0.20596524 0.051761676 0.20350273 0.010232683 0.008320191 -0.088856265 0.02266623 0.002701472 0.07671057 -0.18884091 0.011702904 -0.031815127 -0.08182996 -0.09168001 0.008961942 -0.062240146 0.19051817 0.040830325 0.11543523 -0.041867 0.076867186 0.1244096 -0.04067552 -0.1335542 0.13658217 0.10912737 -0.12865411 -0.18924783 -0.0728312 0.113681614 -0.0024342057 0.06018971 -0.14013332 0.12122887 -0.0831206 -0.120762095 0.15044442 0.053565685 0.00023159606 -0.0020582923 -0.013294337 0.009501023 -0.10382348 0.19930822 -0.052836128 -0.0878792 0.12820777 -0.103922404 0.021922654 0.0013644192 -0.05073349 -0.01897091 0.04215385 -0.08571489 -0.0014042726 -0.031156547 0.11719085 0.057416238 0.010033061 -0.019151269 -0.051137645 -0.06351914 -0.012496571 -0.052485317 -0.041788924 -0.10957472 0.08986334 -0.01870456 0.054328986 0.027577782 0.08151316 -0.11882981 0.099524625 0.029974097 0.056667194 0.05605007 -0.04110175 0.035844084 0.09389667 -0.05306782 -0.06485281
ν -0.02273161 0.006830098 -0.030703088 0.12094875 0.06869795 -0.014798576 -0.012841505 0.064582676 0.0054056835 -0.058645323 -0.043088794 -0.061028708 0.05398816 0.050953504 0.099516384 -0.022007106 0.025408454 0.017060265 -0.10486075 -0.20340003 0.056631487 0.19101359 0.00043540535 0.0059550684 -0.08904587 0.010314354 -0.00039486372 0.068155475 -0.18628491 0.023214286 -0.051172376 -0.075678125 -0.09344194 0.0056307027 -0.048820652 0.19183606 0.02596105 0.1013662 -0.053426407 0.074336134 0.11409213 -0.034032155 -0.13478377 0.13187385 0.11108612 -0.13514706 -0.17691107 -0.07629248 0.11515205 -0.019314399 0.050228808 -0.1431167 0.10805319 -0.07037094 -0.10091562 0.14348644 0.024006702 -0.008549327 -0.009206598 -0.012568834 0.0131728435 -0.10249754 0.19260356 -0.047568418 -0.06082092 0.11478221 -0.10398247 0.012845745 0.0043449705 -0.06134346 -0.032432184 0.045110382 -0.1147051 -0.022609595 -0.023284664 0.12279239 0.026359748 -0.0007556661 -0.032407627 -0.047716178 -0.034187395 -0.010451033 -0.049310245 -0.04232082 -0.11128118 0.082185075 -0.03234569 0.065836996 0.029216751 0.09397098 -0.12274458 0.09067207 0.034617793 0.057321362 0.06059732 -0.063967206 0.022805307 0.10129168 -0.075129196 -0.04872605
υ -0.031313136 0.024045724 -0.025441065 0.13168938 0.09295353 -0.030570801 0.011214318 0.059890646 -0.0088392105 -0.07880934 -0.021113325 -0.09681334 0.06890946 0.050823957 0.114786066 -0.03890909 0.008372328 -0.0027995429 -0.07933618 -0.17667615 0.07170378 0.17682345 0.013444859 0.011115634 -0.092112675 0.022058774 0.008851296 0.064297445 -0.17578813 0.00770469 -0.050380286 -0.06926775 -0.09767626 0.010833449 -0.048477344 0.16762272 0.02914169 0.12311909 -0.052197218 0.07871763 0.11211416 -0.031258058 -0.1189962 0.13352486 0.09323722 -0.12931535 -0.17053483 -0.06859029 0.11504246 -0.010675659 0.043789215 -0.12993447 0.1271352 -0.07875188 -0.09194198 0.13404368 0.054813713 0.008626452 -0.01013148 -0.0040235147 0.013844875 -0.10527699 0.19372277 -0.040440645 -0.073478445 0.1151212 -0.11412401 0.013128369 0.01781382 -0.055291425 -0.027616559 0.03741016 -0.08268437 -0.014670631 -0.02844178 0.123042256 0.02983632 0.00980762 -0.014093153 -0.045858037 -0.04531496 -0.006985003 -0.052099515 -0.062541954 -0.09901507 0.07365043 -0.025903178 0.06504915 0.044449516 0.08541107 -0.11173463 0.09991014 0.0038815378 0.04360701 0.06601188 -0.053560168 0.009920212 0.07948944 -0.054718044 -0.0718988
ς -0.03346372 0.015817452 -0.022686154 0.11991887 0.10154179 -0.018508172 0.0099405525 0.07717394 -0.006884618 -0.079881005 -0.033466768 -0.08798822 0.050770335 0.05771043 0.109436534 -0.021633994 0.025468215 0.024537027 -0.10252738 -0.19513194 0.05234683 0.17834227 0.00921635 0.011039028 -0.09347335 0.034514178 0.00022058847 0.06891519 -0.17507328 0.0271786 -0.029498419 -0.092798114 -0.09782113 0.011367328 -0.049558647 0.18264838 0.02484941 0.09737137 -0.049594197 0.078102045 0.11580305 -0.035515785 -0.13524468 0.13712592 0.10726011 -0.12143331 -0.18138903 -0.091426514 0.10389727 -0.016083935 0.067757785 -0.13513422 0.11043972 -0.088380165 -0.10212422 0.124748245 0.05663252 0.004304057 -0.0015705745 -0.018160611 -0.0005812872 -0.09956962 0.1865389 -0.055778615 -0.06928869 0.11607794 -0.07647621 0.009857966 0.0064675296 -0.054862864 -0.030923422 0.047730226 -0.10349787 -0.008282195 -0.028937712 0.10615651 0.044844303 0.01150929 -0.02579053 -0.034941822 -0.066541485 -0.0060683102 -0.033363912 -0.042028222 -0.09944916 0.08301455 -0.029420117 0.039314806 0.014677372 0.073546894 -0.09897981 0.09570363 0.017179728 0.03728816 0.055836547 -0.04694356 0.0414679 0.085417345 -0.0534819 -0.038804803
å -0.01296657 -0.007611744 -0.024477398 0.08528344 0.0746284 0.0038293323 -0.0051518218 0.0042185443 0.027205963 -0.046437077 -0.001365333 -0.059660535 0.04513699 0.051645566 0.093793556 -0.02392088 -0.012955415 0.011531087 -0.06488738 -0.09864526 0.037810255 0.13876383 -0.016634634 0.042860333 -0.04481738 -0.009609959 0.04442901 0.046565242 -0.12983528 -0.012972712 -0.06058588 -0.049671307 -0.0754635 0.029914353 -0.0319699 0.121277384 0.009557336 0.0759912 -0.023827232 0.047596704 0.069844976 -0.014798539 -0.08801463 0.09780917 0.07821864 -0.08917721 -0.14854242 -0.03782275 0.08224827 0.008828421 0.036124323 -0.10528626 0.10157338 -0.07611588 -0.06736934 0.120708056 0.023080165 0.012122853 -0.012514657 -0.027343173 -0.004953861 -0.0675176 0.12763184 -0.05295256 -0.065017566 0.07736622 -0.09126945 0.0018640195 0.045192838 -0.048579656 -0.012448201 0.03512933 -0.09535046 -0.012955509 -0.020793146 0.1070201 0.03557177 -0.01797209 -0.029481558 -0.02181376 -0.020714337 -0.009996342 -0.04625444 -0.047253467 -0.06520082 0.08640279 -0.026459513 0.030078003 0.0036827645 0.081359826 -0.10346306 0.07040575 -0.008598148 0.04956426 0.032974057 -0.029419305 0.018229164 0.04876967 -0.04611638 -0.055759765
ç -0.009617016 -0.019913226 -0.04786543 0.10637589 0.087768964 0.015913043 -0.02478681 -0.0014251877 0.024646569 -0.040544707 -0.024227956 -0.07400962 0.06579219 0.062167883 0.10734205 -0.022547694 -0.011000158 0.030120805 -0.073945984 -0.12968762 0.042914405 0.1549162 -0.0124650225 0.026491702 -0.0432022 0.00086063123 0.024180522 0.037018884 -0.16108038 0.00046035496 -0.056189343 -0.054655623 -0.069799066 0.016437074 -0.05929124 0.14226724 0.01649205 0.105949424 -0.047959577 0.08287055 0.079272546 -0.015842006 -0.09577333 0.11059213 0.107107006 -0.090363234 -0.1660704 -0.044883072 0.104746625 -0.00044858898 0.04818519 -0.10501591 0.09667826 -0.079051055 -0.08849763 0.1292164 0.027723907 0.010717032 -0.019072583 -0.004193696 0.01180201 -0.069622 0.15431038 -0.033555266 -0.05527347 0.08189904 -0.09877876 0.017287776 0.03837872 -0.04200991 -0.02067498 0.031588882 -0.08763242 -0.004428185 -0.012315136 0.102687 0.024029091 -0.00024492294 -0.019788545 -0.032515533 -0.03343595 -0.027646367 -0.058308754 -0.04042183 -0.08319207 0.08839525 -0.013917582 0.030427532 0.025824234 0.0834257 -0.10118646 0.09716832 0.01313606 0.061080914 0.043900613 -0.04270387 0.004098093 0.06552318 -0.060045384 -0.054379907
î -0.022157297 -0.003004597 -0.0030001919 0.10120003 0.0560874 -0.011207712 -0.0029116226 0.016405191 0.005820755 -0.046748407 -0.01552911 -0.05826266 0.036909312 0.043380577 0.097287945 -0.011940393 0.028206136 0.0054555177 -0.07577181 -0.17023596 0.0499695 0.16291577 0.021857057 0.0050567 -0.061020106 0.02399882 -0.014476562 0.06754693 -0.14667982 0.015063598 -0.0369303 -0.053565484 -0.060333982 0.00014347414 -0.047611173 0.14577702 0.013732152 0.07265361 -0.044128053 0.06271344 0.10102843 -0.029405301 -0.090597585 0.10368884 0.083059564 -0.08732198 -0.15022527 -0.063491575 0.07339041 0.003461201 0.036702752 -0.106024936 0.08025219 -0.068618864 -0.07456963 0.098507695 0.027127115 0.023479534 -0.0049676043 0.005105824 -0.0068041915 -0.08166236 0.14334154 -0.030124422 -0.048874356 0.08179853 -0.06547075 0.0047064335 0.01587514 -0.03621747 -0.026386628 0.034318235 -0.091072865 -0.016500993 -0.012745842 0.080771826 0.009649381 -0.0011618332 -0.0119797895 -0.029776921 -0.03472495 -0.0030045637 -0.032145534 -0.021010544 -0.082618944 0.076798625 -0.014666179 0.05192738 0.03491696 0.064985394 -0.0867921 0.06707227 0.01768999 0.035921518 0.033691674 -0.047899984 0.02165707 0.07163022 -0.043398578 -0.037355553
